tree
version=v4
num_class=1
num_tree_per_iteration=1
label_index=0
max_feature_idx=13
objective=tweedie
feature_names=site_id maand uur wegnr gemeente uur_totaal spatial_danger_score temperature_2m_mean temperature_2m_min precipitation_mean precipitation_max wind_speed_10m_mean wind_speed_10m_max piek_index
feature_infos=-1:0:1:2:3:4:5:6:7:8:9:10:12:13:14:15:16:17:18:19:20:21:22:23:11:24:25:26:27:28:29:30:31:32:33:34:35:36:37:38:39:40:41:42:43:44:45:46:47:48:49:50:51:52:53:54:55:56:57:58:59:60:61:62:63:64:65:66:67:68:69:70:71:72:73:74:75:76:77:78:79:80:81:82:83:84:85:86:87:88:89:90:91:92:93:94:95:96:97:98:99:100:101:102:103:104:105:106:107:108:109:110:111:112:113:114:115:116:117:118:119:120:121:123:124:125:126:127:128:129:130:131:132:133:134:135:136:137:138:140:122 -1:8:9:10:11:7:6:5:4:3:2:0:1 -1:9:10:11:12:13:14:15:16:17:18:19:20:21:22:23:3:4:5:6:7:8:1:2:0 -1:17:8:16:34:58:66:83:39:3:4:44:70:6:5:24:43:63:73:84:86:87:37:7:78:72:76:9:25:27:31:38:59:61:57:12:13:18:23:33:47:48:51:55:56:14:15:50:64:67:54:49:60:45:46:74:75:69:53:26:42:62:88:1:21:22:30:68:79:80:82:0:52:81:19:28:29:35:10:11:20:32:36:65:77:40:41:71:85 -1:0:59:13:34:6:10:18:26:54:21:37:52:20:65:9:45:35:66:12:25:29:36:41:42:43:44:55:56:3:50:61:64:31:5:7:11:19:27:33:38:47:53:57:63:17:28:46:15:40:49:67:14:48:24:16:39:60:62:4:2:8:32:22:58:68:51:1:23 [0:327.04838709677421] [1.1191923385642572e-11:2.8370246586873008e-10] [1.893548387096774:25.887096774193548] [-8.4000000000000004:21] [0:1.096774193548387] [0:24.100000000000001] [8.7806451612903214:28.696551724137933] [13.4:57.399999999999999] [0:3.0548387096774197]
tree_sizes=3531 3537 3567 3541 3591 3566 3620 3616 3570 3484 3568 3610 3581 3580 3512 3531 3539 3543 3564 3592 3620 3592 3602 3614 3504 3658 3698 3563 3587 3614 3505 3548 3608 3524 3602 3556 3633 3585 3726 3600 3669 3681 3639 3698 3613 3629 3636 3601 3602 3583 3524 3544 3574 3526 3551 3519 3522 3634 3585 3548 3437 3566 3546 3593 3533 3547 3606 3559 3483 3639 3538 3581 3455 3569 3513 3607 3539 3628 3584 3462 3551 3507 3667 3496 3442 3539 3460 3475 3568 3465 3515 3535 3510 3502 3571 3573 3448 3525 3461 3599

Tree=0
num_leaves=31
num_cat=16
split_feature=0 13 0 0 5 2 0 5 2 0 5 2 1 0 1 7 0 5 5 9 2 8 5 1 9 10 5 0 9 0
split_gain=76110.4 28986.8 19666.2 12893 6032.54 5912.48 5743.24 4620.82 3966.93 3478.04 3013.56 2935.64 2620.99 2610.59 2455.75 2020.57 1994.5 1962.14 1852.44 1607.78 1603.73 1302.85 1267.36 1720.92 1200.94 1467.73 1197.33 1305.59 1240.11 1131.64
threshold=0 0.15720367664553714 1 2 4.2623655913978498 3 4 1.7289746543778806 5 6 5.1779953917050703 7 8 9 10 12.233870967741938 11 5.0983870967741938 0.37298387096774199 0.10161290322580648 12 -0.6499999999999998 6.0345238095238107 13 0.11145161290322582 0.65000000000000002 5.0169540229885063 14 0.12951612903225809 15
decision_type=9 2 9 9 2 1 9 2 1 9 2 1 1 9 1 2 9 2 2 2 1 2 2 1 2 2 2 9 2 9
left_child=1 21 5 8 -4 13 10 -7 15 14 19 16 17 -2 -9 -3 -5 -10 -15 -6 29 -1 23 -20 25 -17 28 -28 -16 -12
right_child=2 3 4 11 6 7 -8 9 12 -11 20 -13 -14 18 26 24 -18 -19 22 -21 -22 -23 -24 -25 -26 -27 27 -29 -30 -31
leaf_value=-0.18805546093029335 -0.073063951615164241 -0.16836770198116474 -0.18037346288535322 0.049629469340877114 0.138472666426432 -0.18805546093029335 -0.14882351969718449 -0.16176244512162419 -0.18805546093029335 -0.13131073742503566 -0.088854287029287521 -0.17735528223423186 0.13175019891615067 -0.18805546093029335 0.13120079378848504 -0.15751561110504989 -0.15918902894245823 0.060876689317805183 -0.092980398735491909 -0.18805546093029335 -0.12132776435036877 0.20197508154909141 0.044456782174859197 0.13973985977935371 -0.16566930594476018 0.12218863705032243 0.055894467222481224 -0.13824452472970614 -0.18805546093029335 0.03957125014118499
leaf_weight=86.012157618999481 1573.3745833039284 788.78939294815063 12652.380363762379 1357.1524568200111 1399.3408585786819 2197.0824823379517 6770.4053126573563 561.73222935199738 446.1566304564476 1896.7010889053345 1069.5309421420097 2924.4745839834213 7794.9781393408775 281.1742462515831 1948.5949369072914 230.35438758134842 678.45703798532486 1090.7760060429573 345.60803318023682 169.00634479522705 2123.4561830759048 19999.803253769875 6182.9370360374451 3386.5724179148674 261.07897192239761 1010.9676271677017 1125.8116111159325 488.66751325130463 129.7727290391922 1876.1625337004662
leaf_count=171 2233 1491 24671 1093 511 4368 12148 1052 887 3243 1604 5668 3101 559 782 423 1260 819 529 336 3524 991 5147 1209 490 451 871 858 258 1606
internal_value=0.0119445 0.119489 -0.0734584 0.0216681 -0.13079 0.000841444 -0.0841074 -0.0634797 0.079256 -0.019107 -0.0178084 -0.113163 0.108201 0.0464905 0.0312051 -0.0385434 -0.0204649 -0.0112351 0.065004 0.103286 -0.0553325 0.200305 0.0722338 0.118251 0.0292808 0.0702834 0.0609479 -0.0035252 0.111267 -0.00724114
internal_weight=82847.3 36669 46178.3 16583.2 26060.3 20118 13407.9 8348.36 11623.1 6151.28 6637.5 4960.08 9331.91 11769.7 4254.58 2291.19 2035.61 1536.93 10196.3 1568.35 5069.15 20085.8 9915.12 3732.18 1502.4 1241.32 3692.85 1614.48 2078.37 2945.69
internal_count=82354 16845 65509 15683 44400 21109 19729 11432 7662 7064 7581 8021 4807 9677 3821 2855 2353 1706 7444 847 6734 1162 6885 1738 1364 874 2769 1729 1040 3210
cat_boundaries=0 5 10 14 15 20 21 25 26 27 32 33 37 38 39 43 48
cat_threshold=8288 1077477680 939528218 2958562063 1 1101250566 12595712 9957 44303376 4144 8288 524544 536875024 272630532 1547140 609227160 2348813440 1075838976 16785632 1152 14204997 16875526 0 229 33817616 439552 1360 6 0 224 1040 4096 51 0 3211264 8 538443785 5735680 900 16875520 0 4 263168 1053056 2147484672 0 192 128
is_linear=0
shrinkage=1


Tree=1
num_leaves=31
num_cat=19
split_feature=0 13 0 0 5 2 0 2 0 2 5 5 5 2 1 2 0 0 2 5 2 1 5 2 0 5 0 7 5 11
split_gain=66203.1 26748.9 17635.9 11184.4 6073.02 5679.06 5232.87 3997.79 2952.9 2767.42 2696.85 2269.68 2266.27 2204.13 2201.85 2563.92 2018.03 2003.66 1951.23 1923.51 1884.71 1301.58 2186.81 1429.42 1286.58 1204.47 1199.75 1172.19 1089.18 1059.42
threshold=0 0.15720367664553714 1 2 4.2623655913978498 3 4 5 6 7 5.1779953917050703 2.6035714285714291 0.37298387096774199 8 9 10 11 12 13 4.5080645161290329 14 15 3.7787634408602155 16 17 4.1884408602150547 18 6.7588709677419372 13.301785714285716 18.860476190476195
decision_type=9 2 9 9 2 1 9 1 9 1 2 2 2 1 1 1 9 9 1 2 1 1 2 1 9 2 9 2 2 2
left_child=1 27 5 7 -4 8 10 25 11 17 13 -2 -7 -6 -9 -16 21 -5 -18 -13 -12 23 -23 -14 -25 -3 -17 -1 -10 -8
right_child=2 3 4 9 6 12 29 14 28 -11 20 19 16 -15 15 26 18 -19 -20 -21 -22 22 -24 24 -26 -27 -28 -29 -30 -31
leaf_value=-0.20000000000000001 -0.20000000000000001 -0.20000000000000001 -0.19074171049167529 -0.19364906395985243 0.12540059990230798 -0.20000000000000001 -0.18791513879669272 0.1288459438041436 -0.20000000000000001 -0.18518458976800767 -0.031394939617652759 0.13048489605039867 0.1428513952658767 -0.1922977433863009 -0.15019181063114517 0.10632833282866888 -0.12062701494324171 0.0030365922359344788 0.014873243777475393 -0.087646928756333675 -0.16074456417538074 -0.20000000000000001 0.047656160525699535 0.07075549318595746 -0.19226554570678828 -0.0015130826705621325 -0.055049066925562065 0.18801434673519055 -0.018585503519716655 -0.084177291238498139
leaf_weight=78.19079464673996 516.37986266613007 610.17896667122841 11557.848740071058 660.00360342860222 1410.9663533866405 449.88401681184769 4272.5009835362434 5898.8217984139919 2314.8074704706669 2476.7334927916527 4027.6540897190571 974.17646819353104 2693.7597554028034 249.66416081786156 648.84083089232445 2053.9181604087353 1334.6073458790779 2289.415746062994 5064.298495978117 691.00195723772049 1562.9116585552692 394.40359827876091 3714.346697717905 652.36109283566475 248.58320757746696 612.72497618198395 589.36446052789688 18281.504869908094 386.15282168984413 1279.1947938799858
leaf_count=169 1115 1294 24699 1421 521 983 8927 1984 4970 5175 4806 338 748 503 1162 945 2199 2289 4739 1045 3010 800 2795 415 499 658 755 993 439 1958
internal_value=-5.57898e-05 0.104185 -0.0814624 0.00900271 -0.138135 -0.0103909 -0.090752 0.0696356 -0.1036 -0.107294 -0.0346144 -0.0167574 0.0209318 0.077234 0.0922551 0.0264999 0.0279947 -0.0414822 -0.0135319 0.0399664 -0.0678999 0.0624254 0.0238254 0.106357 -0.00312967 -0.0997344 0.0702747 0.186362 -0.173421 -0.163717
internal_weight=77995.2 34199.7 43795.5 15840 24360.7 19434.8 12802.9 10413.8 4882.52 5426.15 7251.2 2181.56 14552.2 1660.63 9190.95 3292.12 14102.4 2949.42 6398.91 1665.18 5590.57 7703.45 4108.75 3594.7 900.944 1222.9 2643.28 18359.7 2700.96 5551.7
internal_count=82354 16845 65509 15683 44424 21085 19725 6798 7907 8885 8840 2498 13178 1024 4846 2862 12195 3710 6938 1383 7816 5257 3595 1662 914 1952 1700 1162 5409 10885
cat_boundaries=0 5 10 14 15 20 21 25 26 27 28 29 34 39 40 41 42 43 47 51
cat_threshold=8288 1077477680 939528218 2958562063 1 1101250566 12595712 9829 44303408 4144 8288 256 536875008 272630532 15212634 609227672 2382400704 1075839104 16785600 1216 9486405 16777222 0 97 33817616 521476 669376 677 6294584 25264128 8393216 9732 2097152 48 0 48 402653184 2147487746 1 1049764 5741824 1068 1475108 16875520 0 0 2097152 96 256 0 268435460
is_linear=0
shrinkage=0.1


Tree=2
num_leaves=31
num_cat=18
split_feature=13 0 2 5 3 2 0 2 0 5 0 11 11 2 7 5 1 2 0 0 5 0 12 0 2 7 5 0 1 7
split_gain=57962.7 28134.9 17965.9 9706.22 8696.99 4981.45 2729.62 2578.81 2884.54 2279.6 2032.09 2010.57 2124.03 1791.9 1741.86 1740.06 1701.95 2207.34 1685.23 1618.84 1580.08 1566.99 1512.47 1416.36 1827.22 1390.1 1232.43 1566.29 1542.14 1212.2
threshold=0.15720367664553714 0 1 2.3389976958525351 2 3 4 5 6 0.21198156682027652 7 10.46247311827957 10.812903225806453 8 16.850000000000005 4.2623655913978498 9 10 11 12 5.2623655913978498 13 38.650000000000013 14 15 6.7588709677419372 4.7212365591397853 16 17 21.209516129032263
decision_type=2 9 1 2 9 1 9 1 9 2 9 2 2 1 2 2 1 1 9 9 2 9 2 9 1 2 2 9 1 2
left_child=2 5 -1 -3 7 6 14 10 15 -7 -5 -11 -13 18 22 -9 21 -18 -14 -19 -17 -15 -2 24 -6 -4 28 -28 -12 -8
right_child=1 3 25 4 23 9 29 8 -10 11 26 12 13 16 -16 20 17 19 -20 -21 -22 -23 -24 -25 -26 -27 27 -29 -30 -31
leaf_value=-0.19852164149571194 -0.16275807310735732 -0.20000000000000001 -0.20000000000000001 -0.1024890903674841 -0.033596906528684189 -0.20000000000000001 -0.16866911289830724 -0.20000000000000001 -0.17404230809301424 -0.20000000000000001 -0.18903280712646509 0.16473255285430821 0.14201902227510754 -0.0048236470672139171 0.099644188674729128 0.10688801187194469 -0.1144212768860346 -0.098759495195991712 -0.18425214250792279 0.073493561989496053 -0.044091752911004305 0.10758353485476375 0.075996957235617182 -0.1902451580640408 -0.17440149720037676 0.18269611408870165 -0.11800031587553986 0.027358100398325425 0.11658240540123053 0.036156272123592487
leaf_weight=1342.8518246412277 702.34005552530289 8901.5008398592472 95.445943832397461 1428.6454108059406 1764.122461438179 335.34452688694 1905.3559770584106 534.13295423984528 2106.749576151371 285.51964017748833 172.36207050085068 1990.0119804739952 212.97303861379623 1489.1043977737427 1224.6339259445667 918.40140283107758 1008.6951063275337 629.08672827482224 555.76507434248924 3795.9657780230045 2826.5370959043503 7613.3393354415894 426.41534289717674 5136.0436334013939 1959.6396568119526 17075.648196130991 900.9217703640461 3970.8712047338486 1956.5483141839504 340.58669573068619
leaf_count=3012 1407 21316 229 2360 2337 744 3868 1250 4382 612 382 374 57 1556 644 452 1698 938 1174 2290 3778 3387 288 11867 4262 1540 1508 3460 890 292
internal_value=-0.000112332 -0.0515553 0.152966 -0.110946 -0.07751 0.0344097 -0.0583464 -0.030551 -0.0784405 0.0582413 0.00577854 0.0632003 0.0675455 0.0549088 0.0169766 -0.0310761 0.0627623 0.0183766 -0.0931982 0.0488378 -0.00706577 0.0892093 -0.0725624 -0.155823 -0.107964 0.180464 0.0279876 0.000291477 0.0914987 -0.136998
internal_weight=73605.6 55091.6 18513.9 32576.5 23675 22515.1 4599.33 14815.2 6385.82 17915.8 8429.35 17580.5 17294.9 15304.9 2353.39 4279.07 14536.2 5433.75 768.738 4425.05 3744.94 9102.44 1128.76 8859.81 3723.76 17171.1 7000.7 4871.79 2128.91 2245.94
internal_count=82354 77573 4781 58244 36928 19329 6499 18462 9862 12830 8600 12086 11474 11100 2339 5480 9869 4926 1231 3228 4230 4943 1695 18466 6599 1769 6240 4968 1272 4160
cat_boundaries=0 5 6 9 10 13 14 18 23 24 25 26 30 35 40 45 46 50 51
cat_threshold=25288800 8917760 536884785 308283156 48 6815999 2319696248 1723860537 6295080 14180417 25165920 0 536875057 8820513 1618087960 3426746368 2097600 537141288 537923584 3422552064 3146176 8200 128 2097168 1581 33838 0 0 4096 16 16777216 524288 12320 35653392 48 8404992 0 5681 1024 48 34079232 805355712 3221489666 201328641 4416 762112 1073742086 1024 0 8388800 149
is_linear=0
shrinkage=0.1


Tree=3
num_leaves=31
num_cat=15
split_feature=13 0 2 5 3 2 0 2 0 7 5 11 11 0 5 2 4 0 0 2 1 12 5 7 1 5 5 13 11 11
split_gain=51106.7 24404.3 16005.1 9565.23 7958.37 4203.25 2386.94 2303.24 2752.02 2066.76 1995.08 1755.44 1945.41 1744.04 1602.6 1515.84 1514.79 1493.8 1407.44 1622.13 1535.14 1313.46 1308.55 1236.4 1230.72 1975.38 1202.44 1181.04 1157.55 1172.97
threshold=0.15720367664553714 0 1 2.3389976958525351 2 3 4 5 6 16.850000000000005 0.21198156682027652 10.46247311827957 10.812903225806453 7 4.2623655913978498 8 9 10 11 12 13 38.650000000000013 5.2623655913978498 6.7588709677419372 14 2.291713014460512 13.688440860215055 2.0962501081585025 20.529247311827959 15.425714285714289
decision_type=2 9 1 2 9 1 9 1 9 2 2 2 2 9 2 1 9 9 9 1 1 2 2 2 1 2 2 2 2 2
left_child=2 5 -1 -3 7 6 9 13 14 21 -7 -12 -13 26 -9 16 -14 -17 19 20 -6 -2 -16 -4 -19 -26 -5 -23 29 -27
right_child=1 3 23 4 18 10 -8 8 -10 -11 11 12 15 -15 22 17 -18 24 -20 -21 -22 27 -24 -25 25 28 -28 -29 -30 -31
leaf_value=-0.19836862684112866 -0.16238273460463903 -0.20000000000000001 -0.20000000000000001 -0.20000000000000001 0.038540225423591479 -0.20000000000000001 -0.14920699156755243 -0.20000000000000001 -0.17063466467238064 0.085885807776858114 -0.20000000000000001 0.15906329034242292 0.10742369264122015 0.026814670429491656 0.09903539594075543 -0.058735446380978489 -0.19579960535399388 0.090166479950995027 -0.19132003742279599 -0.17107391783492473 -0.14859867885887654 -0.20000000000000001 -0.039877072004834903 0.17940613435222852 -0.20000000000000001 0.048586359451688876 -0.019531555351688698 0.15236141144337317 0.1385810229457298 -0.089807692207769296
leaf_weight=1215.9610801637173 844.76207825541496 8054.4114573001862 86.363065958023071 612.07635852694511 1069.5971373617649 303.43227788805962 1667.2293572723866 483.30350235104561 2025.0445080399513 1421.77380245924 258.34885424375534 1861.6069319546223 246.15149062871933 6851.8810839951038 893.4688766002655 1016.5466803610325 466.14573594927788 8329.3988717794418 4395.8891144692898 1885.5775873959064 730.31610113382339 135.08657389879227 2813.4853494465351 15720.086459040642 355.9629607796669 2721.5499288737774 930.43101790547371 321.54831799864769 1017.3470543622971 790.25521677732468
leaf_count=3012 1835 21316 229 1434 1000 744 3464 1250 4557 826 612 374 114 6177 452 1380 1117 4270 11206 4432 1497 291 3778 1540 808 2005 1145 83 300 1106
internal_value=-0.000194234 -0.0490132 0.150379 -0.106346 -0.073149 0.0320387 -0.0553006 -0.0290162 -0.0751158 0.00252807 0.0541376 0.0586886 0.0626655 0.00516528 -0.0286576 0.0506565 -0.090977 0.057769 -0.152708 -0.106261 -0.037793 -0.0885207 -0.00639569 0.177221 0.0667689 0.0267719 -0.0905555 0.0481221 0.0446539 0.0174438
internal_weight=69525 52502.6 17022.4 30745.5 22691.1 21757.1 4390.4 14609.7 6215.3 2723.17 17366.7 17063.3 16805 8394.39 4190.26 14943.4 712.297 14231.1 8081.38 3685.49 1799.91 1301.4 3706.95 15806.4 13214.5 4885.12 1542.51 456.635 4529.15 3511.81
internal_count=82354 77573 4781 58244 36928 19329 6499 18793 10037 3035 12830 12086 11474 8756 5480 11100 1231 9869 18135 6929 2497 2209 4230 1769 8489 4219 2579 374 3411 3111
cat_boundaries=0 5 6 9 10 14 15 19 24 25 27 32 37 38 39 40
cat_threshold=25288800 8917760 536884785 308283156 48 6815999 2319700344 1723860521 6295080 14180417 25174112 0 536875057 1040 8820513 1618087960 3426746368 2097600 537141288 537923584 3422552064 2150629824 8200 1152 2097168 131072 32 0 0 4129 1040 48 34081280 805355712 264194 218105857 4416 762112 2627 1581
is_linear=0
shrinkage=0.1


Tree=4
num_leaves=31
num_cat=19
split_feature=13 0 4 5 3 2 2 0 7 5 0 1 2 0 0 5 5 0 9 0 5 0 8 0 2 0 7 2 1 5
split_gain=44932.3 21119.7 17480.8 9362.46 7334.64 3276.56 2985.17 3030.08 2287.39 1760.71 1683.98 1702.51 2343.69 1575.28 1572.78 1713.68 1488.39 2228.63 1479.41 2069.53 1372.26 1361.3 1296.14 1273.15 1244.05 2323.04 1217.01 1210.05 1079.52 1047.06
threshold=0.15720367664553714 0 1 2.3389976958525351 2 3 4 5 16.850000000000005 0.21198156682027652 6 7 8 9 10 8.4016129032258089 9.2048387096774196 11 0.11356321839080462 12 10.254032258064518 13 10.950000000000001 14 15 16 5.437039170506913 17 18 2.450806451612904
decision_type=2 9 9 2 9 1 1 9 2 2 9 1 1 9 9 2 2 9 2 9 2 9 2 9 1 9 2 1 1 2
left_child=2 5 -1 -3 -5 8 7 22 21 -7 11 -11 -13 -10 15 -8 18 -18 23 -20 -14 27 -6 -16 25 29 -26 -2 -25 -12
right_child=1 3 -4 4 6 9 14 -9 13 10 24 12 20 -15 16 -17 17 -19 19 -21 -22 -23 -24 28 26 -27 -28 -29 -30 -31
leaf_value=0.17945239097318774 0.032524876244433676 -0.20000000000000001 -0.19850876153259459 -0.17866526494754337 -0.093135208286423646 -0.20000000000000001 -0.20000000000000001 -0.1882762865392042 0.091076062970705488 0.11498863040881271 -0.20000000000000001 0.078447355588029885 -0.20000000000000001 -0.1024590530481056 -0.18835693983673923 -0.029912500333413007 0.018792453245414543 -0.13747099770583879 0.088113234298667187 -0.19617594689973872 0.034954181039656182 -0.18863520749421103 0.042907570664568802 -0.10166417105709041 -0.17911810219960531 -0.1971299526724499 0.054441463540010553 -0.19402761720303568 0.10773280508485082 0.062872348604801537
leaf_weight=14364.863064318895 791.85730245709419 7258.2996105849743 1331.1671196222305 4758.6308334767818 1591.2954130768776 277.35398927330971 778.63308542966843 2272.3465964198112 1350.611771851778 5846.8563401997089 174.38343262672424 2536.0735701322556 591.94606167078018 599.8325742483139 161.77614578604698 2476.0649718344212 2758.2842179238796 1353.574362039566 494.80889490246773 513.00528982281685 428.54591915011406 1203.544549793005 1250.8062783479691 260.94463589787483 233.89907374978065 686.85262009501457 4832.1097782254219 324.87471717596054 3232.0877223014832 1155.8896870315075
leaf_count=1353 813 21226 3428 12747 2800 752 1967 5956 715 2207 436 1464 1358 1082 358 3447 2594 2514 292 1158 344 3036 1152 434 441 1595 3408 853 1599 825
internal_value=-0.000287497 -0.0464649 0.147386 -0.101536 -0.0689518 0.0299148 -0.0383716 -0.102303 -0.0482105 0.0498346 0.0540679 0.0817763 0.0270072 0.0314986 -0.0111273 -0.0703869 0.0109089 -0.0329362 0.0495982 -0.0576701 -0.10035 -0.115422 -0.0331463 0.0791775 0.017143 -0.0491206 0.0435719 -0.0345199 0.0918444 0.0282008
internal_weight=65891.2 50195.2 15696 29160.6 21902.3 21034.6 17143.6 5114.45 4270.72 16763.9 16486.6 9403.42 3556.57 1950.44 12029.2 3254.7 8774.48 4111.86 4662.62 1007.81 1020.49 2320.28 2842.1 3654.81 7083.13 2017.13 5066.01 1116.73 3493.03 1330.27
internal_count=82354 77573 4781 58244 37018 19329 24271 9908 6499 12830 12078 5373 3166 1797 14363 5414 8949 5108 3841 1450 1702 4702 3952 2391 6705 2856 3849 1666 2033 1261
cat_boundaries=0 5 8 11 12 13 17 22 23 24 28 33 38 42 45 49 50 54 55 56
cat_threshold=25288800 8393472 536884849 308283156 48 2163744768 70419232 16 1889280131 2300276800 9720259 14180417 7882970 1618087940 3225944064 2097536 270376 73824 768 12288 272630532 16 677 398210 16785504 0 536875120 1040 537925120 4030824640 2150629762 150994954 256 6422528 3170304 4 1843232 5312 2097280 0 0 545259521 8503296 0 536875025 4325376 2113536 0 8912929 2097594 49152 0 16 35652624 1073216 2176
is_linear=0
shrinkage=0.1


Tree=5
num_leaves=31
num_cat=19
split_feature=13 0 2 5 3 2 2 0 5 1 2 0 5 2 0 2 8 0 0 2 1 7 8 5 0 5 2 0 8 7
split_gain=39539.3 18300.3 13449.7 9085.27 6770.31 2711.2 2458.22 2774.54 2303.51 1638.48 4229.82 2356.34 1628.03 1612.07 1555.59 1493.15 1397.87 1357.4 1304.73 1148.93 1107.86 1021.43 1008.61 942.985 1387.62 909.9 826.851 1192.08 875.24 781.279
threshold=0.15720367664553714 0 1 2.3389976958525351 2 3 4 5 3.6475806451612907 6 7 8 4.5080645161290329 9 10 11 1.5500000000000003 12 13 14 15 6.7588709677419372 -2.9499999999999997 15.355990783410141 16 0.21198156682027652 17 18 0.8500000000000002 4.2354838709677427
decision_type=2 9 1 2 9 1 1 9 2 1 1 9 2 1 9 1 2 9 9 1 1 2 2 2 9 2 1 9 2 2
left_child=2 5 -1 -3 13 8 18 20 -2 11 -11 15 22 16 -10 -7 -5 -12 -6 -14 -8 -4 -13 29 -25 -24 28 -28 -22 -20
right_child=1 3 21 4 6 9 7 -9 14 10 17 12 19 -15 -16 -17 -18 -19 23 -21 26 -23 25 24 -26 -27 27 -29 -30 -31
leaf_value=-0.19812376801969175 -0.20000000000000001 -0.20000000000000001 -0.20000000000000001 0.1054179316782643 -0.063179613802494788 0.029905394707252803 -0.12385277557053427 -0.17420268728954746 0.066488217214392173 -0.16935324701491136 -0.093917249674913147 -0.20000000000000001 0.091473963976336642 -0.19374487371032612 -0.11595667626817081 -0.16615440437248918 -0.14901042375986326 0.057253433952351364 -0.20000000000000001 -0.023350370084537643 -0.13988328677630971 0.17366856778129292 -0.20000000000000001 0.013716912390523906 -0.16040508781319049 0.13331474684733416 0.071149761001878045 -0.18517579597232747 0.054396778986984508 0.047898938633326227
leaf_weight=1055.9662669599056 855.9710499048233 6540.936981856823 73.557261258363724 367.84676149487495 2668.7416003644466 1059.8666616976261 991.13388428092003 2174.7654716670513 1211.5521057546139 1150.6993521749973 663.48426258563995 95.372961461544037 1746.9827990829945 4086.6075573265553 746.93635514378548 602.10297867655754 522.91400581598282 5122.8923450112343 130.41339528560638 1726.0188580155373 264.67110061645508 13339.746721863747 83.201544880867004 1604.9909339845181 630.33751955628395 5236.1101740300655 284.07212567329407 480.99869146943092 1871.8557092547417 5053.4589355587959
leaf_count=3012 2432 21126 229 258 4362 876 2014 5833 906 2844 1078 184 814 12388 1508 1327 1379 3618 284 1760 566 1540 228 1507 1305 1681 224 1217 1658 4196
internal_value=-0.000396071 -0.0440964 0.144499 -0.0969753 -0.0651334 0.0280199 -0.0336281 -0.0838805 -0.0629314 0.0426859 0.00490217 0.067503 0.0879462 -0.16699 -0.00334595 -0.0416926 -0.0434544 0.0397876 -0.00335018 0.0346045 -0.0331028 0.171492 0.122322 0.018227 -0.0360398 0.128101 -0.00178529 -0.0903116 0.0301882 0.0416624
internal_weight=62444.2 47974.9 14469.3 27673.7 21132.8 20301.2 16155.4 6067.5 2814.46 17486.7 6937.08 10549.7 8887.69 4977.37 1958.49 1661.97 890.761 5786.38 10087.9 3473 3892.73 13413.3 5414.68 7419.2 2235.33 5319.31 2901.6 765.071 2136.53 5183.87
internal_count=82354 77573 4781 58317 37191 19256 23166 11512 4846 14410 7540 6870 4667 14025 2414 2203 1637 4696 11654 2574 5679 1769 2093 7292 2812 1909 3665 1441 2224 4480
cat_boundaries=0 5 6 9 10 11 16 17 18 22 23 27 28 33 38 39 40 45 46 50
cat_threshold=25288800 8393472 536884833 843319060 48 6815999 1889280129 2300276800 10244547 9977921 8886021 1618088216 2957508608 2097552 2105384 4096 685 4195390 8404992 8392704 9729 537133072 557056 25174112 0 4097 262160 500480 8192 0 536871008 4196096 48 537923856 4030758976 2150631810 8202 256 66434 1576 6422656 2179072 24 2097152 5312 1599520 131072 2147483648 2097152 8192
is_linear=0
shrinkage=0.1


Tree=6
num_leaves=31
num_cat=18
split_feature=13 0 4 5 3 2 7 2 0 2 9 11 11 1 0 0 2 0 5 0 5 9 0 2 0 0 13 2 9 5
split_gain=34609.1 15849.5 14854.5 8890.49 6316.69 2697.11 2222.27 2013.47 2684.92 1555.44 1414.52 1387.95 1760.05 1360.74 1296.32 1251.04 1250.08 1803.17 1539.54 1326.37 1318.4 1224.39 1091.58 1071.88 1052.86 1025.89 1022.55 1005.03 966.467 859.107
threshold=0.15720367664553714 0 1 2.3389976958525351 2 3 16.850000000000005 4 5 6 0.03107142857142858 10.46247311827957 10.812903225806453 7 8 9 10 11 6.1311827956989253 12 0.82508342602892115 0.0084101382488479294 13 14 15 16 2.2924161587871272 17 0.096547619047619063 4.7212365591397853
decision_type=2 9 9 2 9 1 2 1 9 1 2 2 2 1 9 9 1 9 2 9 2 2 9 1 9 9 2 1 2 2
left_child=2 5 21 -3 9 6 26 10 13 15 22 -7 -13 27 -15 -5 17 20 -19 23 -14 -1 -6 28 -8 -12 -2 -9 -18 -27
right_child=1 3 -4 4 7 11 24 8 -10 -11 25 12 16 14 -16 -17 19 18 -20 -21 -22 -23 -24 -25 -26 29 -28 -29 -30 -31
leaf_value=-0.20000000000000001 -0.17175442782744021 -0.20000000000000001 -0.19830788096982419 0.053082032799112888 0.060499271683014048 -0.20000000000000001 0.07285744812463224 -0.19156548609532506 -0.19339497264443017 -0.19248734493307743 -0.065035176714066459 0.14550045185277455 -0.20000000000000001 -0.0042910093205738792 -0.18628946598246468 -0.19395618755677882 -0.16584641290597202 -0.20000000000000001 -0.014052649934746364 0.067554087862599796 0.075017835944214947 0.17623535716174057 -0.18878452982616042 -0.13081884668841628 -0.13605583394849483 0.086617029448468011 0.043269916102317951 0.023753410715333857 0.079768544735165189 0.0056018587197847886
leaf_weight=87.117376416921616 1408.985880613327 5961.8793135881424 1171.9499481618404 532.52861225605011 238.09466019272804 233.65657356381416 1174.0698178708553 227.12095594406128 1480.4099678099155 3720.7593246400356 1553.1023237109184 1588.1350011825562 191.46941831707954 679.56152331829071 935.1792234480381 320.91695329546928 197.49752688407898 713.21986925601959 1185.1040821373463 9096.8211393356323 1945.1232200562954 12146.828398257494 651.98392650485039 633.08564066886902 293.62682309746742 1697.1061668395996 262.3397396504879 2518.3390627503395 848.4446833729744 5722.5193140506744
leaf_count=181 3918 21276 3428 581 178 656 760 644 4653 12388 2700 435 547 873 2520 1056 347 1792 1319 5581 1303 1172 1460 1133 688 1123 294 2795 483 6070
internal_value=-0.000491822 -0.041688 0.1409 -0.0926147 -0.0610878 0.0259322 -0.0589675 -0.0308784 -0.0773665 -0.164371 -0.00329839 0.041981 0.0454544 -0.0376192 -0.110193 -0.040981 0.0347266 -0.0127747 -0.0834753 0.0524762 0.0501376 0.173414 -0.123543 -0.0291308 0.0306317 0.00862596 -0.138003 0.00531036 0.0330747 0.0241001
internal_weight=59417 46011.1 13405.9 26239.5 20277.6 19771.6 3139.02 15703.4 5840.61 4574.2 9862.81 16632.6 16398.9 4360.2 1614.74 853.446 14810.8 4034.92 1898.32 10775.8 2136.59 12233.9 890.079 1679.03 1467.7 8972.73 1671.33 2745.46 1045.94 7419.63
internal_count=82354 77573 4781 58317 37041 19256 5660 23016 11485 14025 11531 13596 12940 6832 3393 1637 12505 4961 3111 7544 1850 1353 1638 1963 1448 9893 4212 3439 830 7193
cat_boundaries=0 5 8 11 12 13 18 19 20 25 28 29 33 38 41 42 46 51 52
cat_threshold=25288800 8917760 536884769 845154068 48 2163744768 70419232 16 1889280129 2300276800 10244547 14172225 8886017 1618088222 4030726144 2097616 270376 4096 557056 469 4325376 2147483648 16 262176 4096 34344448 0 4194304 2140186 25174016 8392704 536875008 838860820 8388608 8388608 4097 838861840 48 67108992 2147516416 16 200960 25272416 0 536875040 1040 605032448 2952822848 2150631682 8194 256 2097216
is_linear=0
shrinkage=0.1


Tree=7
num_leaves=31
num_cat=21
split_feature=13 4 4 0 5 5 0 2 7 0 2 2 0 1 9 13 12 2 2 2 1 0 0 2 11 0 0 0 9 0
split_gain=30353.7 13924.4 13172.7 4481.95 7043.75 3556.02 3319.9 2398.28 2168.04 2047.27 1703.66 1677.87 1658.02 1328.27 1298.34 2796.7 1569.58 1344.55 1132.31 1108.04 1346.2 1372.7 1215.32 1066.9 1182.22 1085.55 1047.15 1041.48 1017.85 1013.04
threshold=0.15720367664553714 0 1 2 2.194988479262673 4.2623655913978498 3 4 16.337096774193551 5 6 7 8 9 0.013809523809523811 0.98235185445789164 29.350000000000005 10 11 12 13 14 15 16 20.164516129032261 17 18 19 0.06892857142857145 20
decision_type=2 9 9 9 2 2 9 1 2 9 1 1 9 1 2 2 2 1 1 1 1 9 9 1 2 9 9 9 2 9
left_child=2 3 -1 10 -5 -3 11 8 26 -10 13 -7 -9 29 -12 -16 17 -17 28 22 -21 -22 -14 -18 25 -25 -6 -13 -8 -2
right_child=1 5 -4 4 7 6 18 12 9 -11 14 27 19 -15 15 16 23 -19 -20 20 21 -23 -24 24 -26 -27 -28 -29 -30 -31
leaf_value=0.16923860923132114 0.04562127234484345 -0.20000000000000001 -0.1981331471886095 -0.20000000000000001 -0.022078521858176589 0.05893534997361935 0.079195054849006699 -0.14116158737067161 0.016565286793981709 -0.1858472332822142 0.12453906075223412 -0.028927637750185003 0.018482357859737963 -0.16174742092178032 -0.16874663500536857 0.023940540776034889 0.11163593196753999 -0.15620672786792614 -0.19590722586210274 0.036934705630494599 0.026858007798920638 -0.1469101149417209 -0.17866777690310545 -0.13030817064086528 0.11467631794558453 0.030845781693792831 0.071217606998145264 -0.16939468154497828 -0.17916242052912387 -0.1676246346338105
leaf_weight=11328.455099701881 1246.4398072361946 4746.1374077796936 1061.3217388093472 2340.5908319205046 1575.5277968645096 1461.9541056454182 325.31581458449364 1727.4401613175869 1192.8452308177948 851.46184504032135 2056.7386761009693 1557.9069665372372 486.40896546840668 656.5471673309803 618.17535392940044 1522.7165108323097 3602.3867746889591 558.5026940703392 2434.9948560595512 2802.1148774921894 792.50515657663345 1057.4890455901623 880.87998569011688 551.75085833668709 1155.7762582302094 1624.59537550807 5073.6536169946194 799.48261883854866 287.03490629792213 260.82783001661301
leaf_count=1353 1192 18333 3428 8834 2063 1300 332 4341 1143 1863 824 2591 575 1731 1354 1228 1628 1116 8994 2778 862 2310 2450 860 445 1254 3420 2131 915 706
internal_value=-0.000600735 -0.0393386 0.137746 -0.00585242 -0.0376733 -0.133325 -0.087434 -0.014586 0.0214701 -0.0685684 0.0372796 -0.0249985 -0.0550048 -0.0441111 0.052369 0.0370158 0.0511242 -0.0250382 -0.165063 -0.0300865 -0.00673657 -0.0727267 -0.108907 0.0739824 0.0328413 -0.0104672 0.0491849 -0.0770798 -0.0412347 0.00785818
internal_weight=56638 44248.2 12389.8 32635.4 18780.9 11612.8 6866.69 16440.3 8693.49 2044.31 13854.5 3819.34 7746.84 2163.81 11690.6 9633.9 9015.73 2081.22 3047.35 6019.4 4652.11 1849.99 1367.29 6934.51 3332.12 2176.35 6649.18 2357.39 612.351 1507.27
internal_count=82354 77573 4781 42977 30639 34596 16263 21805 8489 3006 12338 6022 13316 3629 8709 7885 6531 2344 10241 8975 5950 3172 3025 4187 2559 2114 5483 4722 1247 1898
cat_boundaries=0 3 6 11 16 17 22 23 24 29 30 31 32 33 34 39 44 45 50 55 60 64
cat_threshold=3170341954 794005542 8 2163744768 70419232 16 16883808 768 536883201 272630548 16 2148532736 1043909824 3223322624 134348993 1408 8819479 151810 77824 1564 2368512 4096 13680705 66820 69206022 77824 18688 60295168 96 2788 2568960 557057 2621640 407 16512 1073741824 114 2097184 4096 16384 2147483648 128 2360320 4096 525754 73728 768 8192 768 16 537006464 3221225472 16758 2107400 4096 1049088 808501248 2097152 1 128 16883744 0 536875009 16
is_linear=0
shrinkage=0.1


Tree=8
num_leaves=31
num_cat=21
split_feature=13 4 4 0 5 5 0 2 0 2 0 1 9 13 1 2 9 1 0 0 2 11 0 2 2 0 5 11 2 0
split_gain=26499.6 12428.2 11622.2 4291.78 6966.63 2493.11 2463.9 1667.24 2202.01 1555.03 2036.99 1495.08 1363.81 2578.57 1457.21 1344.99 1147.53 1146.23 2390.73 1529.88 1121.42 1069.04 1746.07 1884.12 1354.21 1382.03 1277.54 1244.68 984.258 1579.8
threshold=0.15720367664553714 0 1 2 2.3389976958525351 4.647580645161292 3 4 5 6 7 8 0.013809523809523811 0.98235185445789164 9 10 0.0084101382488479294 11 12 13 14 16.296601382488483 15 16 17 18 4.0420506912442411 14.934569892473119 19 20
decision_type=2 9 9 9 2 2 9 1 9 1 9 1 2 2 1 1 2 1 9 9 1 2 9 1 1 9 2 2 1 9
left_child=2 5 16 9 -5 -2 15 8 11 10 -3 -6 14 -14 -11 -7 -1 18 -9 -19 -8 22 23 -15 -23 -26 -24 -28 -20 -30
right_child=1 3 -4 4 7 6 20 17 -10 12 -12 -13 13 21 -16 -17 -18 19 28 -21 -22 24 26 -25 25 -27 27 -29 29 -31
leaf_value=-0.20000000000000001 -0.20000000000000001 0.10432019651717593 -0.19794073517407992 -0.20000000000000001 0.028873684987306254 0.013220874609584222 -0.034146074599951136 -0.17081852551406931 -0.17943123431003147 0.14640036304146126 -0.19684853117635456 -0.10098295747680851 -0.16744176365844773 0.10471364950454708 -0.086881230123976638 -0.17227354285575042 0.16723203640484471 -0.11503269232002596 0.069549937602246384 0.039497287349271284 -0.19489058252058705 0.096059182144623556 -0.20000000000000001 -0.10973597119110581 0.048413592235135916 -0.17879101250717214 0.012630366095312678 -0.19331034700914465 0.028746788037523646 -0.19590113163473397
leaf_weight=85.787704229354858 3978.522870823741 341.90988503396511 961.22039614617825 2390.7523463815451 2086.0130291432142 2017.395445778966 567.86979618668556 1029.0301333963871 1261.4258752018213 1851.5971033722162 624.62471371889114 1529.053985029459 645.64004874229431 2166.8659733533859 309.15147762000561 474.72087444365025 10470.398651570082 695.20736248791218 1310.7619049698114 7055.9975235760212 2109.7731095850468 4240.8933396339417 465.9758193641901 497.4145266264677 838.8002317994833 381.5255670696497 1948.7865833640099 345.5070840716362 871.59970316290855 477.9395534992218
leaf_count=181 16989 216 3428 10065 2466 2567 1180 2332 4046 442 2093 3363 1568 970 531 1475 1172 1420 923 6349 8569 2024 1157 823 697 868 1798 667 875 1100
internal_value=-0.00070238 -0.0371526 0.133848 -0.00881683 -0.0405544 -0.140339 -0.0946962 -0.0172175 -0.0661071 0.0316875 -0.0903333 -0.0261784 0.0403606 0.0267285 0.113299 -0.0226611 0.164092 0.00367619 -0.042135 0.0255071 -0.161054 0.0382448 0.00680141 0.0644158 0.0694771 -0.023496 -0.0488658 -0.0183831 0.00809428 -0.0516681
internal_weight=54032.2 42514.8 11517.4 33366.5 18707.8 9148.28 5169.76 16317 4876.49 14658.7 966.535 3615.07 13692.2 11531.4 2160.75 2492.12 10556.2 11440.5 3689.33 7751.2 2677.64 10885.8 5424.55 2664.28 5461.22 1220.33 2760.27 2294.29 2660.3 1349.54
internal_count=82354 77573 4781 46793 32939 30780 13791 22874 9875 13854 2309 5829 11545 10572 973 4042 1353 12999 5230 7769 9749 9004 5415 1793 3589 1565 3622 2465 2898 1975
cat_boundaries=0 3 6 11 15 16 21 22 25 26 27 28 29 34 39 40 44 45 46 50 51 56
cat_threshold=34105789 3500943321 23 2163744768 70419232 16 25272416 768 536883201 272630548 48 2147484160 1010352321 3223322624 134348801 7889132 1616007454 3221225472 496 537142304 4096 12582977 0 0 536875009 2437 172 504708 2214 1611808792 3233876992 18818 1575136 320 536875264 0 16640 562045952 512 557056 96 768 4096 268435476 3113746 212392 25264128 0 4096 4194320 164368 67113088 0 112 572531720 5248
is_linear=0
shrinkage=0.1


Tree=9
num_leaves=31
num_cat=22
split_feature=13 3 2 0 5 2 1 2 0 2 0 0 11 11 2 0 3 2 1 0 11 0 1 5 2 8 5 0 3 2
split_gain=23101 11095.3 9477.17 4470.95 6407.74 1924.27 1735.85 1686.31 1575.92 1372.15 2352.93 1171.32 1166.15 1701.87 1836.72 999.023 969.779 4321.99 879.539 843.851 738.187 1562.01 1069.36 1997.8 1819.32 1010.23 960.909 910.142 890.341 864.854
threshold=0.15720367664553714 0 1 2 2.3389976958525351 3 4 5 6 7 8 9 10.395161290322582 10.812903225806453 10 11 12 13 14 15 20.529247311827959 16 17 1.8559907834101386 18 17.750000000000004 10.663978494623658 19 20 21
decision_type=2 9 1 9 2 1 1 1 9 1 9 9 2 2 1 9 9 1 1 9 2 9 1 2 1 2 2 9 9 1
left_child=2 5 -1 7 -5 6 8 11 -2 10 18 -3 -9 -14 -15 -11 -4 -18 -6 -16 21 25 24 -24 26 -21 -23 -22 -26 -29
right_child=1 3 16 4 9 -7 -8 12 -10 15 -12 -13 13 14 19 -17 17 -19 -20 20 27 22 23 -25 28 -27 -28 29 -30 -31
leaf_value=-0.19756307934014716 0.080780132058066598 0.078458109450810651 0.18260939912276081 -0.20000000000000001 0.10961084295180963 -0.1995131777586675 -0.18502582843540627 -0.20000000000000001 -0.19299765066472591 -0.1510227679873318 -0.1665711220785118 -0.19650419915370088 0.12948624443908383 -0.19479322703950053 -0.09562007642479875 -0.0065529190819514256 0.15199087026452351 -0.19502254941786865 -0.18405132899176077 -0.20000000000000001 0.14560344020416616 -0.20000000000000001 -0.20000000000000001 0.021110350768006797 0.12334659935382503 0.09911446104578657 0.02793363951519779 0.094428132474765267 -0.018496059643740709 -0.12945973125247978
leaf_weight=810.70788472890854 787.06347315013409 209.9016347527504 5956.517288967967 2435.8524225503206 558.96253916621208 4098.2757322788239 813.64548075199127 220.29419131577015 275.61842665076256 488.43589901924133 1520.028194218874 562.11497105658054 1604.7944144308567 374.11507764458656 533.53978636860847 12141.894992664456 3563.3479555398226 391.81212590634823 115.40229834616184 488.47711375355721 1128.4699156433344 323.93586921691895 433.85455043613911 7029.5141005218029 2940.5277813225985 146.86064456403255 431.09095321595669 395.39266592264175 524.94933953881264 290.38057526946068
leaf_count=2872 775 162 261 11642 344 18857 3181 701 1224 1637 5035 2147 592 1278 1001 15997 850 798 344 1205 303 692 1349 6340 1026 82 344 163 655 497
internal_value=-0.000805659 -0.0350772 0.129836 -0.0134905 -0.0496596 -0.160877 -0.0758789 0.0219124 0.00863556 -0.0249907 -0.0977931 -0.121698 0.0285541 0.031596 0.0211517 -0.0122549 0.156657 0.117209 0.0574021 0.0267744 0.0314592 0.0227111 0.0310353 0.00824589 0.0712203 -0.128831 -0.0689456 0.0910343 0.101869 -0.000872003
internal_weight=51595.8 40873.4 10722.4 34898.8 17260.6 5974.6 1876.33 17638.2 1062.68 14824.7 2194.39 772.017 16866.2 16645.9 15041.1 12630.3 9911.68 3955.16 674.365 14667 14133.5 12319.2 11683.9 7463.37 4220.5 635.338 755.027 1814.24 3465.48 685.773
internal_count=82354 77573 4781 53536 34999 24037 5180 18537 1999 23357 5723 2309 16228 15527 14935 17634 1909 1648 688 13657 12656 11693 10406 7689 2717 1287 1036 963 1681 660
cat_boundaries=0 3 4 9 10 11 12 16 17 21 25 26 29 32 33 34 39 43 44 45 49 52 53
cat_threshold=1880892035 2300305472 10244483 2621695 25288800 8917760 536884769 306186004 48 696576 2131 8388673 34344448 805306368 4196352 2049 6815966 1048576 2147483648 2097600 270336 0 0 4097 1024 4194320 0 2147483700 3162368 8193 805339136 65609 9782016 2960 0 0 32 1024 48 0 0 9728 768 524 4065792 8396800 768 9728 768 16400 268437668 4 329856
is_linear=0
shrinkage=0.1


Tree=10
num_leaves=31
num_cat=20
split_feature=13 3 3 0 5 2 2 7 1 0 2 0 3 0 1 3 8 1 0 13 0 5 5 0 5 5 2 11 0 1
split_gain=20191.4 11070.7 10099.2 3754.75 5544.31 1877.73 1680.52 1783.35 1569.28 1386.19 1359.84 2804.33 1312.18 1178.07 1137.14 1685.75 1136.96 1132.35 1610.83 1115.03 1061.95 999.081 1085.25 2843.81 950.696 947.44 945.33 884.392 2114.51 882.215
threshold=0.15720367664553714 0 1 2 2.3389976958525351 3 4 16.850000000000005 5 6 7 8 9 10 11 12 13.350000000000003 13 14 2.2924161587871272 15 0.21198156682027652 3.3899769585253461 16 7.5491935483870973 20.704838709677421 17 11.455698924731186 18 19
decision_type=2 9 9 9 2 1 1 2 1 9 1 9 9 9 1 9 2 1 9 2 9 2 2 9 2 2 1 2 9 1
left_child=1 27 5 6 -5 8 7 19 9 -2 13 17 -9 -6 16 -16 20 -12 26 -4 -15 -8 23 -23 -17 -13 -19 28 -1 -25
right_child=2 -3 3 4 10 -7 21 12 -10 -11 11 25 -14 14 15 24 -18 18 -20 -21 -22 22 -24 29 -26 -27 -28 -29 -30 -31
leaf_value=0.17779416400876391 0.074015357095657874 -0.19790614779202464 -0.20000000000000001 -0.20000000000000001 -0.14696807502695802 -0.19946224647403699 -0.20000000000000001 0.087425781460497995 -0.18237361913682848 -0.19231551133349833 0.023286984457144624 -0.20000000000000001 -0.19063865703159022 -0.080902379331121058 -0.19626180925867709 -0.20000000000000001 -0.11051027331125296 0.068097081720899025 -0.16863712383229409 0.049387392650549949 0.081430332418434226 -0.19470718965000411 0.014194648226933494 -0.07588973659914254 0.03106269914251978 -0.023409786594633747 -0.15183364057105508 0.16966817219624042 -0.19164183720090289 0.10179671739114796
leaf_weight=432.28618535399437 774.6990749835968 945.17725290358067 910.1976867467165 2087.5913216918707 465.80677349865437 3709.1759857237339 187.1211874037981 821.0706570148468 746.53636638820171 250.26455198228359 2824.1477662175894 1457.6006432622671 203.64456005394459 449.3554672151804 525.01817815005779 200.00805452466011 418.39467366039753 761.3546414077282 947.17422442138195 223.25761780142784 3483.368799328804 367.8710869550705 10637.86936224997 293.88333369791508 1623.1547045707703 383.82608093321323 251.8776763677597 8333.4543405920267 229.2870356887579 4485.048478230834
leaf_count=31 775 3634 3641 11034 1305 18857 789 489 3181 1224 3482 5400 654 758 1390 501 788 685 2705 270 2368 1312 9727 717 1574 746 715 747 369 2486
internal_value=-0.000865913 0.126523 -0.0329321 -0.0126015 -0.0480923 -0.158775 0.0184916 -0.0641487 -0.0729416 0.0077557 -0.0251325 -0.0577393 0.031158 0.00509431 0.0158706 -0.0401096 0.0461043 -0.0172386 -0.0754413 -0.150878 0.0628834 0.0296914 0.0324331 0.07013 0.00568305 -0.16231 0.0124753 0.160655 0.0495463 0.0907341
internal_weight=49429.5 9940.2 39489.3 34008.6 15878.7 5480.68 18130 2158.17 1771.5 1024.96 13791.1 6625.98 1024.72 7165.11 6699.3 2348.18 4351.12 4784.55 1960.41 1133.46 3932.72 15971.8 15784.7 5146.8 1823.16 1841.43 1013.23 8995.03 661.573 4778.93
internal_count=82354 4781 77573 53536 33451 24037 20085 5054 5180 1999 22417 13733 1143 8684 7379 3465 3914 7587 4105 3911 3126 15031 14242 4515 2075 6146 1400 1147 400 3203
cat_boundaries=0 3 6 11 12 13 14 18 19 24 27 32 33 36 37 42 47 51 52 56 57
cat_threshold=201335833 839156737 98377 1880892035 2300305472 10244483 25419872 8393472 536884769 851445524 48 696576 14155841 2131 34344448 805306368 4196352 2049 8619781 1685066008 2155356160 2097616 2367528 4544 2113536 2180 196612 603979776 2147491892 3162112 0 320 1866 235049056 270532736 3592 407 4096 2148016128 16 2359328 4544 4096 70352896 16 151265288 5248 8536064 512 1569 574619648 291008 0 0 0 12 336
is_linear=0
shrinkage=0.1


Tree=11
num_leaves=31
num_cat=20
split_feature=13 3 2 0 5 2 2 1 0 2 0 0 0 1 9 12 13 3 2 5 5 1 0 0 8 11 11 0 0 0
split_gain=17638.7 9154.83 7734.86 3196.26 5217.59 1837.62 1444.78 1664.14 1443.15 1297.13 2504.36 1289.1 1251.51 1181.21 978.395 1624.57 1100.2 867.666 2259.32 853.454 1102.14 850.737 1965.14 992.139 987.208 868.993 827.69 851.248 825.531 782.009
threshold=0.15720367664553714 0 1 2 2.3389976958525351 3 4 5 6 7 8 9 10 11 1.0000000180025095e-35 21.750000000000004 0.61302405819414718 12 13 4.2623655913978498 5.1779953917050703 14 15 16 13.350000000000003 12.455752688172046 10.637741935483872 17 18 19
decision_type=2 9 1 9 2 1 1 1 9 1 9 9 9 1 2 2 2 9 1 2 2 1 9 9 2 2 2 9 9 9
left_child=2 5 -1 6 -5 8 7 12 13 10 19 -11 -3 -2 -8 29 -17 -4 -19 -6 -21 23 -23 -13 -25 -24 -18 -28 -26 -16
right_child=1 3 17 4 9 -7 14 -9 -10 11 -12 21 -14 -15 15 16 26 18 -20 20 -22 22 25 24 28 -27 27 -29 -30 -31
leaf_value=-0.19714652925565185 0.065638752261722666 0.052227931387049099 0.1772219550510116 -0.20000000000000001 -0.20000000000000001 -0.19940601771282818 0.12718125380383347 -0.18323076066518246 -0.19659778039050591 -0.12741232639508854 -0.16231288590484361 -0.10787935742727271 -0.19229455461269493 -0.15763249074138252 0.0020547696664887666 -0.20000000000000001 0.14214644578990915 -0.19144948332271627 0.13146532578610956 0.1293377184666917 -0.029240583197142775 -0.18005953372394357 -0.14220590043355177 0.062088646410896044 0.060062062315759647 0.032829905269972273 -0.082772310440965113 0.03272268135147148 -0.19326628077590424 -0.19592014111936859
leaf_weight=690.90082541108131 770.30906377732754 1071.5167678147554 4873.3752537667751 1911.6673266589642 204.09818518161774 3357.1037726104259 919.8151585906744 721.73907639086246 577.85152916610241 747.19264470040798 1706.9251742064953 446.48371534049511 249.55670301616192 330.28885285556316 345.77533866465092 206.8830174356699 653.86999817192554 223.90399381518364 3438.2766910493374 600.93210050463676 1619.2286348044872 690.65643894672394 326.80901086330414 4333.4934436827898 223.72887121140957 2147.094235509634 663.50061883032322 12557.264027759433 287.01268102228642 480.21303395926952
leaf_count=2872 805 1200 221 11100 782 18857 337 2816 3110 2167 5662 1007 1064 1265 422 823 207 460 1228 271 2655 1976 764 3692 179 2285 1214 10922 799 1192
internal_value=-0.000971032 -0.0309773 0.123104 -0.0118459 -0.0454678 -0.156457 0.0168469 -0.0621114 -0.0698821 -0.0233464 -0.0698164 -0.00240647 0.0049389 -0.00218087 0.0270707 0.0209119 0.0289071 0.149082 0.111255 -0.00429027 0.0136819 0.00877775 -0.0321762 0.0332882 0.0464948 0.00966814 0.0323203 0.0268886 -0.0849046 -0.115391
internal_weight=47377.5 38151 9226.46 33115.5 15245.3 5035.55 17870.1 2042.81 1678.45 13333.7 4131.18 9202.47 1321.07 1100.6 15827.3 14907.5 14081.5 8535.56 3662.18 2424.26 2220.16 8455.28 3164.56 5290.72 4844.23 2473.9 13874.6 13220.8 510.742 825.988
internal_count=82354 77573 4781 53536 33339 24037 20197 5080 5180 22239 9370 12869 2264 2070 15117 14780 13166 1909 1688 3708 2926 10702 5025 5677 4670 3049 12343 12136 978 1614
cat_boundaries=0 3 4 9 10 11 12 16 17 22 27 31 32 35 36 37 41 45 50 55 59
cat_threshold=1880892035 2300305472 10244483 2621695 25419872 13056 536884777 843056916 48 696576 14155841 2498 34344448 805306368 4196352 6145 7090394 70258712 2151153664 2097616 2367488 4544 67108864 2150629428 3162368 0 448 25272416 0 536875041 1024 2131 8192 805339137 98313 176128 1866 1611661464 543936 3221225600 1573056 4096 201424896 0 159391752 0 0 40 4195328 48 6291456 16384 16 262144 5120 16777216 0 4137 301990932
is_linear=0
shrinkage=0.1


Tree=12
num_leaves=31
num_cat=23
split_feature=13 3 3 0 5 2 2 0 1 5 1 2 2 3 0 0 2 0 0 1 5 0 3 1 5 0 5 7 2 1
split_gain=15295.4 9242.17 8284.83 2755.02 6276.83 1691.74 1514.86 2746.72 1246.85 1049.68 1003.52 2098.09 1282.66 1282.63 957.798 939.884 1190.35 887.057 882.345 1009.65 941.432 1813.52 1663.38 982.432 841.609 828.772 804.297 798.969 3861.91 780.008
threshold=0.15720367664553714 0 1 2 2.194988479262673 3 4 5 6 4.2623655913978498 7 8 9 10 11 12 13 14 15 16 6.4919354838709689 17 18 19 5.6017241379310354 20 4.3360215053763449 16.106559139784949 21 22
decision_type=2 9 9 9 2 1 1 9 1 2 1 1 1 9 9 9 1 9 9 1 2 9 9 1 2 9 2 2 1 1
left_child=1 27 5 10 -5 8 7 9 17 -6 12 -12 13 -4 -13 16 -14 -2 19 26 22 23 -20 -22 -11 -21 -8 28 -1 -23
right_child=2 -3 3 4 6 -7 18 -9 -10 24 11 14 15 -15 -16 -17 -18 -19 20 25 21 29 -24 -25 -26 -27 -28 -29 -30 -31
leaf_value=0.16914219798233054 0.069853568566960914 -0.19761312763201064 -0.18321574744237942 -0.20000000000000001 -0.20000000000000001 -0.19448215193375806 -0.20000000000000001 -0.19827048459712815 -0.18188941274043668 0.087636841595326712 -0.179283412367788 -0.11048961768865191 -0.10489774691505396 0.018152725507957119 0.032088806324145534 0.10475031594799106 0.065777002354001052 -0.18802227363261689 -0.1918190234649213 -0.016403264428573743 -0.013423791956219441 -0.062704761112382587 0.079630047691372149 -0.19701411614272274 -0.032537226125674383 -0.18380342407906425 0.017212180131577322 0.16961290334073217 -0.19463396154982421 0.038861662270438795
leaf_weight=1362.387620896101 655.71984754502773 827.91660870611668 375.81065087020397 2057.4346374869347 296.18411211669445 3231.4860143661499 186.09026086330414 1146.393286049366 494.20513170957565 771.87329903244972 626.94684554636478 526.31545472145081 554.34614515304565 1751.0473650246859 3882.863052636385 3490.7073948681355 1474.2238586097956 156.97659794986248 234.46959252655506 519.05779604613781 531.55061292648315 913.05145542323589 3113.3683189600706 659.81841745972633 2378.5369264632463 710.15736769139767 2030.8845761567354 6081.6794444620609 362.71443702280521 4196.7595996558666
leaf_count=88 651 3634 885 12618 1280 19542 699 5326 2504 637 2203 1097 965 1782 3552 1707 976 920 703 760 753 1218 2339 1689 4268 2330 2642 411 648 3527
internal_value=-0.00106293 0.118769 -0.0290536 -0.0113137 -0.034667 -0.155443 -0.0154556 -0.0647975 -0.0581683 -0.019957 0.0250449 -0.00961807 0.0478584 -0.0181195 0.014858 0.0732699 0.018851 0.0183635 0.00189855 -0.0414641 0.0174126 -0.00533732 0.0602837 -0.115896 -0.00309371 -0.113819 -0.00101577 0.152379 0.092508 0.0206261
internal_weight=45601 8634.7 36966.3 32427.9 19745.6 4538.39 17688.2 4592.99 1306.9 3446.59 12682.3 5036.13 7646.14 2126.86 4409.18 5519.28 2028.57 812.696 13095.2 3446.19 9649.02 6301.18 3347.84 1191.37 3150.41 1229.22 2216.97 7806.78 1725.1 5109.81
internal_count=82354 4781 77573 53956 40789 23617 28171 11511 4075 6185 13167 6852 6315 2667 4649 3648 1941 1571 16660 6431 10229 7187 3042 2442 4905 3090 3341 1147 736 4745
cat_boundaries=0 3 6 11 12 13 18 19 20 21 22 24 29 33 34 38 43 44 49 52 53 58 59 60
cat_threshold=201335833 839156737 98377 1948000899 2300272704 10244483 25239648 768 536883233 272631572 16 565504 7889112 1618137118 3221782528 3146192 539238432 4096 2131 685 12583998 9091265 10616832 268320 8192 0 536870944 768 16 8454240 0 8193 4195344 7406086 34344448 805306370 4196354 2048 1615859728 3221342452 2150646208 687874050 256 3849 67109134 8389632 1073743360 193 32 2147485728 905969664 8 149 4194304 3221258240 64 8192 256 279296 2059
is_linear=0
shrinkage=0.1


Tree=13
num_leaves=31
num_cat=20
split_feature=13 3 3 0 5 2 0 2 0 12 1 2 1 10 0 0 5 2 9 13 0 1 12 0 2 4 1 0 5 5
split_gain=13358.9 8178.18 7489.42 2309.57 6328.9 1774.23 1261 1133.7 2557.7 1241.6 1554.72 1127.92 1312.17 1149 1060.22 989.701 1517.22 1148.15 956.758 1444.86 1105.11 883.357 858.061 844.658 1371.6 1447.39 1100.17 1217.03 812.221 769.197
threshold=0.15720367664553714 0 1 2 2.194988479262673 3 4 5 6 38.650000000000013 7 8 9 0.65000000000000002 10 11 3.3250834260289213 12 0.013809523809523811 0.99227807975588289 13 14 33.45000000000001 15 16 17 18 19 2.7540322580645165 7.4344086021505387
decision_type=2 9 9 9 2 1 9 1 9 2 1 1 1 2 9 9 2 1 2 2 9 1 2 9 1 9 1 9 2 2
left_child=1 -1 5 11 -5 6 21 8 9 10 14 12 -4 29 -6 17 -17 -15 -14 -20 -21 -2 -18 28 26 -26 -25 -28 -9 -13
right_child=2 -3 3 4 7 -7 -8 23 -10 -11 -12 13 18 15 -16 16 22 -19 19 20 -22 -23 -24 24 25 -27 27 -29 -30 -31
leaf_value=0.1479354136735915 -0.16437153634636095 -0.1973685059609703 -0.15456311053089916 -0.20000000000000001 -0.14557645701427749 -0.19927795357266553 -0.19590409516216406 0.12595930517637727 -0.19799395971311001 0.097904333744369715 -0.17782337890356187 -0.20000000000000001 0.14199453383099903 -0.15738868131992637 0.045813425207411357 -0.20000000000000001 0.04835396985898649 0.11367158496728405 -0.20000000000000001 -0.10516174614269198 0.077745786344170217 0.050460297247496268 -0.092061506843517216 0.038382003396767506 -0.014679960709268337 -0.19572580336742507 0.0085412571224045813 -0.19229266293540326 0.011412925714428139 -0.018412513935402674
leaf_weight=7263.7037799209356 241.1425319314003 750.02452231943607 265.80053786933422 1975.5908966809511 363.33835734426975 2759.9049871116877 478.29259447753429 667.89893731474876 986.98895035684109 754.5905743688345 662.60465128719807 454.1709378361702 1364.550854831934 169.73747581243515 1278.0488570481539 399.99914865195751 1653.7221596091986 1301.743846103549 227.20092943310738 359.260757625103 3325.3220213651657 794.57559981942177 590.63242454826832 2774.0470066070557 925.0236791819334 849.82476827502251 730.64332568645477 507.08058643341064 8460.3650896847248 479.61768102645874
leaf_count=1147 1120 3634 628 13104 977 18857 3110 399 4893 629 2151 1391 312 475 1597 1469 1294 631 660 540 1802 950 900 2947 1561 3007 869 1715 9068 517
internal_value=-0.00115345 0.115556 -0.0272772 -0.0104082 -0.0296553 -0.151338 -0.0632148 -0.0119218 -0.0587992 -0.0133829 -0.0498891 0.0276283 0.0587459 -0.00657284 0.00282227 0.016135 -0.0204985 0.0815531 0.0697636 0.0447456 0.0598372 -0.000651763 0.0114017 0.00083231 -0.0290279 -0.101978 0.00341952 -0.0746197 0.0197724 -0.106732
internal_weight=43815.4 8013.73 35801.7 31527.8 20936 4273.92 1514.01 18960.5 4045.57 3058.58 2303.99 10591.8 5542.14 5049.62 1641.39 4115.84 2644.35 1471.48 5276.33 3911.78 3684.58 1035.72 2244.35 14914.9 5786.62 1774.85 4011.77 1237.72 9128.26 933.789
internal_count=82354 4781 77573 53536 42917 24037 5180 29813 10247 5354 4725 10619 3942 6677 2574 4769 3663 1106 3314 3002 2342 2070 2194 19566 10099 4568 5531 2584 9467 1908
cat_boundaries=0 3 6 11 12 16 17 22 23 24 25 29 33 34 39 40 45 46 48 49 54
cat_threshold=201335833 839156737 98377 1880892035 2300305472 10244483 16851040 768 536883200 272630548 16 696576 34344448 805306368 4196352 6145 7872712 1624428574 2148007936 3146225 539239424 4096 921 2230188 80 12714008 2147483648 17 536871936 0 0 536875008 268436228 10256448 16777216 0 0 268436224 16 1956 77775110 217067520 1597 45089952 32 231172 18874896 135299072 3849 4198528 1073774592 66 270344 1408
is_linear=0
shrinkage=0.1


Tree=14
num_leaves=31
num_cat=22
split_feature=13 3 2 0 5 2 0 2 2 0 0 3 2 11 0 5 2 0 0 5 5 1 2 1 1 1 1 9 5 4
split_gain=11501.7 6743.75 5840.87 2057.01 4102.41 1592.63 1031.11 999.836 921.134 2177.75 916.651 846.783 3400.82 794.318 785.38 721.545 706.315 1904.12 1063.27 1804.68 975.752 997.117 2426.78 780.274 767.934 698.211 663.742 724.36 663.242 1485.03
threshold=0.15720367664553714 0 1 2 2.194988479262673 3 4 5 6 7 8 9 10 11.455698924731186 11 0.21198156682027652 12 13 14 3.7787634408602155 4.5080645161290329 15 16 17 18 19 20 0.13440860215053765 2.7540322580645165 21
decision_type=2 9 1 9 2 1 9 1 1 9 9 9 1 2 9 2 1 9 9 2 2 1 1 1 1 1 1 2 2 9
left_child=2 5 -1 7 -5 6 25 10 9 26 -3 -4 13 -13 -10 -9 17 -17 19 -18 21 -20 -23 -21 -19 -2 -6 -28 29 -16
right_child=1 3 11 4 8 -7 -8 15 14 -11 -12 12 -14 -15 28 16 18 24 20 23 -22 22 -24 -25 -26 -27 27 -29 -30 -31
leaf_value=-0.19652904678059838 0.061662503914022761 0.072453431136930854 0.16648700250298107 -0.20000000000000001 0.063555955148842921 -0.19631475795549802 -0.19443916494044697 -0.20000000000000001 -0.17017437260054713 -0.19457758609108539 -0.19518644456403189 -0.20000000000000001 -0.19446101056099899 0.14229753121790373 0.16261071160334245 -0.17740470028007915 -0.20000000000000001 -0.026457964402578173 0.10830048647338555 -0.085181710001788036 -0.0025084921796651367 0.10211730373583881 -0.19532554853046824 0.019285165528004963 0.1046121233006754 -0.15236358410626516 -0.20000000000000001 0.030181155433880009 -0.01051703225180607 -0.18720474401135836
leaf_weight=566.21058930456638 613.04047219455242 182.37369991838932 3935.7887673377991 1399.9726674109697 777.50996471941471 2579.5058356523514 349.65821294486523 148.30942542850971 282.22658677399158 933.14774650335312 405.49329318106174 69.578544735908508 351.07669495046139 2642.1491396874189 559.25936928391457 298.58996449410915 538.87457457184792 536.21411929279566 2363.8287094533443 921.57154424488544 3661.1051216721535 754.3074109852314 417.85768833756447 3065.9023699462414 2715.6030487939715 191.85885816812515 263.28745317459106 284.38386127352715 10233.957829892635 146.30793176591396
leaf_count=2880 592 162 246 10763 827 19179 2484 853 1508 4766 2278 138 848 669 132 655 2104 662 1349 1498 3809 490 1248 3110 1359 924 914 405 14904 598
internal_value=-0.00125651 -0.0256622 0.110448 -0.0102881 -0.037044 -0.152409 -0.0534704 0.014587 -0.0201477 -0.0782686 -0.112334 0.135371 0.0949752 0.133024 -0.00837396 0.0194946 0.0216387 0.0606487 0.00976456 -0.0281743 0.0336308 0.0711439 -0.00467153 -0.00502413 0.0829842 0.00940275 0.00447616 -0.079033 -0.0040481 0.0897237
internal_weight=42189 34624.1 7564.8 30890.1 14880.1 3734.06 1154.56 16010 13480.1 2258.33 587.867 6998.59 3062.8 2711.73 11221.8 15422.2 15273.9 3550.41 11723.4 4526.35 7197.1 3535.99 1172.17 3987.47 3251.82 804.899 1325.18 547.671 10939.5 705.567
internal_count=82354 77573 4781 54394 34817 23179 4000 19577 24054 6912 2440 1901 1655 807 17142 17137 16284 2676 13608 6712 6896 3087 1738 4608 2021 1516 2146 1319 15634 730
cat_boundaries=0 3 4 9 10 14 15 16 21 25 28 29 33 34 38 43 44 45 46 47 48 49 51
cat_threshold=1880892035 2300272704 10244483 6815871 1099128928 9442048 536884777 817891092 16 565504 34344448 805306368 4196352 2048 8388673 7872600 542150680 2147483648 448 270336 4096 0 0 4097 1024 8217 268435457 65609 1401600 536870912 52 1064960 2 262412 0 8388608 536883233 281020176 1090666528 1053440 1545 536870912 16 1159 2135042 1162 1286 2131 2198 67175424 4
is_linear=0
shrinkage=0.1


Tree=15
num_leaves=31
num_cat=19
split_feature=13 3 3 0 5 2 2 0 0 2 0 1 2 5 5 0 7 2 2 1 0 12 1 0 9 13 9 9 7 1
split_gain=9949 6586.8 6070.04 1726.4 3964.79 1540.81 1011.26 1682.5 944.954 886.081 2109.47 1451.35 1460.09 859.892 975.868 830.674 757.994 3211.07 748.69 697.895 651.634 623.898 803.445 646.213 606.815 1130.76 590.549 591.202 574.429 663.531
threshold=0.15720367664553714 0 1 2 2.194988479262673 3 4 5 6 7 8 9 10 0.37298387096774199 13.301785714285716 11 16.106559139784949 12 13 14 15 42.000000000000007 16 17 1.0000000180025095e-35 0.96341289910302386 0.064400921658986185 0.11145161290322582 24.283279569892475 18
decision_type=2 9 9 9 2 1 1 9 9 1 9 1 1 2 2 9 2 1 1 1 9 2 1 9 2 2 2 2 2 1
left_child=1 16 5 9 -5 8 7 21 19 13 -11 15 26 -4 24 18 17 -1 -12 -2 -8 22 23 -6 -15 -26 -13 -28 29 -22
right_child=2 -3 3 4 6 -7 20 -9 -10 10 11 12 -14 14 -16 -17 -18 -19 -20 -21 28 -23 -24 -25 25 -27 27 -29 -30 -31
leaf_value=0.15430072214138146 -0.18663357814636505 -0.19693948764077576 -0.20000000000000001 -0.20000000000000001 -0.17013386936467195 -0.19561194447817443 -0.16311194917155561 -0.19741038703070227 -0.19388873977353516 -0.18879651559675856 0.053862730717468235 -0.14538122003623644 -0.16503077426568979 0.14693573743619834 -0.023703758418328266 0.096849155385424254 0.15556751172395772 -0.19422709645209915 -0.190793174119845 0.052640733165187741 -0.047451445427088602 0.10523968759838243 -0.14437820893245473 0.035857173396788601 -0.20000000000000001 0.050231765801845657 0.097387942152911119 -0.039777918439186294 0.10967221483158035 0.0097377447161316778
leaf_weight=1121.3391959965229 139.62867563962936 643.48535318672657 157.87683821469545 1305.9545596241951 171.79089190065861 2342.0459812730551 242.44728510081768 762.31618149578571 317.2647417858243 634.87665371596813 289.53797888755798 219.29754433035851 744.39377786964178 618.88515755534172 2187.7692025452852 1666.9801540449262 4984.1250990629196 336.44611388444901 207.23013186454773 648.46915175020695 2747.6323210597038 318.12929514050484 555.58596988767385 928.65394221991301 185.44127064943314 6897.2435252889991 663.45847104489803 596.95937146246433 452.78602315485477 7668.36304140836
leaf_count=88 816 3634 775 10993 574 19179 1373 4572 2484 2806 241 541 2624 137 2324 1139 411 648 713 700 4816 249 1889 1240 535 5636 441 923 290 9563
internal_value=-0.00129672 0.106409 -0.0239612 -0.00959174 -0.0334159 -0.149477 -0.0177297 -0.0720607 -0.0508502 0.014371 -0.019902 0.00490901 -0.0517042 0.0315072 0.035235 0.0630717 0.136804 0.0735892 -0.0499481 0.00844077 -0.00428036 -0.0229063 -0.0476619 0.00245729 0.0519776 0.0436801 0.00603156 0.0324234 -0.000590659 -0.00538438
internal_weight=40756.4 7085.4 33671 30223.6 15153.7 3447.41 13847.7 2736.48 1105.36 15070 5022.73 4387.86 2224.11 10047.2 9889.34 2163.75 6441.91 1457.79 496.768 788.098 11111.2 1974.16 1656.03 1100.44 7701.57 7082.68 1479.72 1260.42 10868.8 10416
internal_count=82354 4781 77573 54394 35559 23179 24566 8524 4000 18835 9428 6622 4529 9407 8632 2093 1147 736 954 1516 16042 3952 3703 1814 6308 6171 1905 1364 14669 14379
cat_boundaries=0 3 6 11 12 13 18 22 23 28 29 30 34 35 36 37 41 42 47 48
cat_threshold=201335833 839156737 98377 1880892035 2300272704 10244483 1098997856 1585920 538981929 809502484 16 565504 7872728 542281758 2147483648 1049040 2367488 4096 34344448 805306368 4196352 2048 3610508 1073741824 1573632 2106888 4195072 16 204 575552 16480 12288 1 20 279296 57344 1956 536870912 52 1064960 2 2960 4325400 0 16 0 4096 2216
is_linear=0
shrinkage=0.1


Tree=16
num_leaves=31
num_cat=17
split_feature=13 4 2 0 2 2 2 0 1 7 12 5 0 5 3 2 13 9 12 0 2 0 5 1 9 12 13 0 1 10
split_gain=8596.46 5511.32 4605.93 1664.54 2702.13 1214.33 1003.73 4780.58 1742.34 1063.14 1137.3 883.418 846.791 1270.35 790.161 1370.02 1429.35 768.869 746.525 1383.6 731.266 1472.76 719.728 1087.96 648.939 648.415 1027.16 761.806 969.348 714.968
threshold=0.15720367664553714 0 1 2 3 4 5 6 7 18.806559139784948 30.850000000000005 4.2623655913978498 8 2.0080645161290325 9 10 0.064954823775388304 1.0000000180025095e-35 21.750000000000004 11 12 13 2.7540322580645165 14 0.12951612903225809 22.650000000000002 0.98235185445789164 15 16 0.65000000000000002
decision_type=2 9 1 9 1 1 1 9 1 2 2 2 9 2 9 1 2 2 2 9 1 9 2 1 2 2 2 9 1 2
left_child=2 5 -1 4 11 -2 7 8 24 -9 -11 -3 13 -8 -4 -16 -17 -14 19 -19 21 -20 23 -15 -5 -22 -27 28 -28 -29
right_child=1 3 14 6 -6 -7 12 9 -10 10 -12 -13 17 22 15 16 -18 18 20 -21 25 -23 -24 -25 -26 26 27 29 -30 -31
leaf_value=-0.1958626264316779 0.018294236693538302 -0.20000000000000001 0.15636753085294308 0.12829930945775073 -0.17581346235210904 -0.18893563805055485 -0.20000000000000001 -0.20000000000000001 -0.12751520463655194 -0.20000000000000001 0.13428377509959105 0.0052611022423993074 0.1186625076652458 0.16592945021493977 0.11779092569665062 -0.20000000000000001 0.14954104526405385 0.066410979233439013 0.0076275506802092885 -0.19550932082761838 0.14124079547226248 -0.1953337698732146 -0.019869511190651803 -0.1824747987052554 -0.20000000000000001 -0.15173704959144968 -0.17079486446182943 -0.019216122857475898 0.011188287208892429 0.060924846608678973
leaf_weight=473.39845725148916 329.44386011362076 227.43406958132982 3562.6401038467884 1425.5400299876928 1497.9418828263879 2246.6923535019159 372.77256178855896 1484.4344641566277 366.66941836476326 187.07507570832968 223.21051732450724 2685.737825281918 770.05777940899134 444.09357142448425 2110.0875582918525 308.49001078307629 188.45720898360014 364.39726433157921 2157.6169078201056 435.36693075299263 529.80812525749207 418.61152271926403 6484.1510629653931 104.1213710680604 62.864522270858288 309.08932711184025 352.83492823690176 1344.0649631693959 1513.4645745679736 6481.2746166363358
leaf_count=2866 874 1266 260 942 10280 19302 2627 8486 1290 758 119 5080 350 131 840 770 45 316 2532 1357 188 1423 9838 403 263 995 740 1599 1705 4709
internal_value=-0.00135155 -0.0223504 0.102389 -0.0103578 -0.0670585 -0.162466 -0.000653134 -0.0484166 0.0655694 -0.159776 -0.0181373 -0.010727 0.00747604 -0.0200763 0.125388 0.0826168 -0.0661132 0.0213819 0.0160104 -0.0777845 0.0217337 -0.0259794 -0.0105674 0.0994559 0.11367 0.0333994 0.0277197 0.033443 -0.0239436 0.0470998
internal_weight=39461.8 32818.8 6643.07 30242.6 4411.11 2576.14 25831.5 3749.79 1855.07 1894.72 410.286 2913.17 22081.7 7405.14 6169.67 2607.03 496.947 14676.6 13906.5 799.764 13106.8 2576.23 7032.37 548.215 1488.4 10530.5 10000.7 9691.64 1866.3 7825.34
internal_count=82354 77573 4781 57397 16626 20176 40771 11858 2495 9363 877 6346 28913 12999 1915 1655 815 15914 15564 1673 13891 3955 10372 534 1205 9936 9748 8753 2445 6308
cat_boundaries=0 3 4 9 10 11 12 16 17 22 25 26 30 31 36 37 42 43
cat_threshold=33572997 2418812825 6 6815935 1573008 2080885952 2148550914 151001090 832 765696 32768 15204434 6 2147483648 536875233 302262032 3464 73404686 2149580800 1073742053 303835096 1152 8192 805307393 98377 8743168 16777216 1048576 4120 36 82441 25419872 524288 5648 6291456 4096 321 8192 13631488 5656 6291488 48 47
is_linear=0
shrinkage=0.1


Tree=17
num_leaves=31
num_cat=17
split_feature=13 0 2 0 2 5 5 0 5 2 1 9 2 1 5 11 0 10 2 2 0 1 5 0 0 2 10 10 6 11
split_gain=7388.03 4926.33 3264.11 2044.75 2217.68 1148.74 1093.13 1061.78 2799.36 924.321 1039.97 1480.12 1059.82 947.081 800.313 743.553 1073.29 729.614 686.202 675.68 2590.12 1079.94 813.266 667.261 640.64 1982.21 1252.55 831.178 756.032 575.762
threshold=0.092761775788341258 0 1 2 3 0.21198156682027652 0.25834260289210237 4 1.4069700460829495 5 6 0.34258064516129039 7 8 6.401612903225808 18.860476190476195 9 3.7500000000000004 10 11 12 13 6.401612903225808 14 15 16 0.15000000000000005 2.3500000000000001 4.7296232476633331e-11 12.393333333333334
decision_type=2 9 1 9 1 2 2 9 2 1 1 2 1 1 2 2 9 2 1 1 9 1 2 9 9 1 2 2 2 2
left_child=2 -2 24 4 14 -5 -4 9 -9 13 11 12 23 -7 -3 16 -16 19 -12 20 21 22 -10 -11 -1 27 -27 28 -26 -20
right_child=1 3 6 5 -6 7 -8 8 17 10 18 -13 -14 -15 15 -17 -18 -19 29 -21 -22 -23 -24 -25 25 26 -28 -29 -30 -31
leaf_value=0.16167422101636264 -0.19864439050093069 -0.20000000000000001 -0.20000000000000001 -0.20000000000000001 -0.19328807863759473 0.13272470726273117 0.15507146802173447 -0.20000000000000001 0.11183629166252509 0.022041730862526161 -0.12993663781364148 0.14536264133665019 -0.18637633916557589 -0.039351985452901417 0.0066789135445427354 0.075553568977698007 -0.19459283784928505 -0.12187489883607108 0.095750577958736385 0.0059562441972881297 -0.17742208269041171 -0.12983445095196208 -0.11875496088476122 -0.18927559541871897 -0.20000000000000001 0.16400278555945277 -0.20000000000000001 -0.20000000000000001 0.15146889766172433 0.02005145371445596
leaf_weight=2602.1647038459778 1465.3511253595352 235.13597897440195 444.72957496345043 291.13233172893524 1200.6501341685653 1375.4281786903739 107.70177939534187 771.97769244015217 1000.3539396896958 746.37747897207737 224.68391942232847 320.28538314253092 655.88886872678995 415.73838270455599 939.45685670524836 731.09101705998182 359.87978985160589 523.26240592449903 1526.9892643168569 14978.453325681388 964.69567188620567 315.34787064045668 180.55497650802135 176.49053985625505 63.022170856595039 131.54953275620937 335.95499359071255 73.758308112621307 2119.1840867772698 2937.8738091737032
leaf_count=144 14469 1379 2477 2445 10542 416 31 6648 897 759 857 89 2042 641 2038 990 2079 1264 926 19443 5232 1184 484 611 233 34 655 121 357 2867
internal_value=-0.00137875 -0.0201249 0.10175 -0.0115833 -0.0838353 -0.0024177 -0.12845 -0.000297114 -0.013531 0.0292711 0.0118889 -0.0503785 -0.0904079 0.0927881 -0.0252356 -0.00512113 -0.0505139 -0.00552465 0.0371578 -0.00203361 -0.0504825 0.031995 0.075937 -0.0199666 0.125634 0.0907337 -0.0955311 0.129585 0.141318 0.045838
internal_weight=38215.2 32337.1 5878.07 30871.7 3466.21 27405.5 552.431 27114.4 18734.6 8379.76 6588.59 1899.04 1578.76 1791.17 2265.56 2030.43 1299.34 17962.7 4689.55 17439.4 2460.95 1496.26 1180.91 922.868 5325.63 2723.47 467.505 2255.96 2182.21 4464.86
internal_count=82354 78302 4052 63833 17028 46805 2508 44360 35152 9208 8151 3501 3412 1057 6486 5107 4117 28504 4650 27240 7797 2565 1381 1370 1544 1400 689 711 590 3793
cat_boundaries=0 5 6 11 12 16 17 18 19 20 25 26 27 31 32 36 40 41
cat_threshold=2550136833 50724927 530563072 49154 1 8912640 34344448 1879165120 2151680258 1224939520 782 780032 16785504 768 538980356 2416968452 270 3160 2971649 2601 33556992 1073856704 2151678210 4096 256 8405057 16253016 1624244230 2147483648 225 271376 3474 16785504 0 4096 268435456 0 1074331696 402657282 1573376 8757504
is_linear=0
shrinkage=0.1


Tree=18
num_leaves=31
num_cat=22
split_feature=13 4 3 2 2 0 1 0 0 2 2 5 1 0 0 0 9 9 0 2 3 11 2 0 1 2 11 12 1 8
split_gain=6434.04 4458.77 3878.68 1371.61 1235.48 5654.04 1568.43 1484.31 1163.29 1125.79 1066.5 932.243 825.975 3130.83 1896.49 888.982 836.544 822.001 742.705 821.094 807.045 726.125 708.682 637.824 1269.95 977.26 636.467 1339.23 599.353 588.261
threshold=0.15720367664553714 0 1 2 3 4 5 6 7 8 9 0.37298387096774199 10 11 12 13 0.25760368663594474 0.19672043010752691 14 15 16 10.395161290322582 17 18 19 20 11.480376344086023 17.850000000000005 21 -2.4499999999999997
decision_type=2 9 9 1 1 9 1 9 9 1 1 2 1 9 9 9 2 2 9 1 9 2 1 9 1 1 2 2 1 2
left_child=2 9 26 -4 5 6 8 10 -3 28 -6 -9 14 -14 15 -13 17 18 19 -15 -21 -8 -17 24 25 -23 27 -1 -2 -12
right_child=1 4 3 -5 7 -7 21 11 -10 -11 29 12 13 16 -16 22 -18 -19 -20 20 -22 23 -24 -25 -26 -27 -28 -29 -30 -31
leaf_value=0.157957239953295 0.10834302710032469 0.019804666529859627 0.12063758563277399 -0.19647102882563344 -0.17038299587093172 -0.18151435836624652 -0.20000000000000001 -0.20000000000000001 -0.19606716174661309 -0.18568963723745235 0.069076382988445012 -0.18782240407513048 -0.16134785015845912 0.10054155784339112 0.063335518284203168 -0.11144824074640114 0.10663956550425131 -0.14902858837062524 -0.015546690631180041 -0.18999348386923348 0.024460156763904992 0.10047174907460972 0.017357335250702249 0.099659091773058858 -0.19218875628943669 -0.18580169456383586 0.13588272600487589 -0.20000000000000001 -0.18074783831595259 -0.054029408390598492
leaf_weight=250.83377420902252 222.56439455598593 493.76142162084579 174.64720493555069 556.73741472512484 691.28643440455198 2103.3337284177542 108.4375631660223 204.93153835088015 498.538584895432 1887.9470735564828 478.97856720536947 329.37461382895708 1134.3604053556919 1523.3161601945758 6817.8752351477742 555.73113678395748 886.32756293565035 335.33464419096708 4399.9524600356817 189.86976224929094 1428.2001939639449 804.52567435801029 1737.8468899875879 1856.011842302978 246.04117271304131 130.86188024282455 4719.6647475510836 179.18090427666903 93.884438164532185 2047.2145623862743
leaf_count=47 236 1052 99 3617 3273 15108 499 1664 2608 19302 683 1041 3190 895 5527 1090 506 708 5601 621 1527 711 1752 2090 1159 668 689 329 638 5424
internal_value=-0.00139852 -0.01948 0.0945464 -0.120143 -0.009027 -0.0484039 0.0195273 0.00178763 -0.089525 -0.156254 -0.0610417 0.0121575 0.014412 -0.00578262 0.0355517 -0.0366334 0.0145161 0.00416826 0.0109803 0.0480318 -0.00171697 0.0541002 -0.0142004 0.0633498 0.00541888 0.05888 0.125028 0.00880163 0.0196657 -0.0305669
internal_weight=37087.6 31206.5 5881.06 731.385 29002.1 6241.51 4138.18 22760.6 992.3 2204.4 3217.48 19543.1 19338.2 9897.36 9440.83 2622.95 8763 7876.67 7541.34 3141.39 1618.07 3145.88 2293.58 3037.44 1181.43 935.388 5149.68 430.015 316.449 2526.19
internal_count=82354 77573 4781 3716 57397 23895 8787 33502 3660 20176 9380 24122 22458 13048 9410 3883 9858 9352 8644 3043 2148 5127 2842 4628 2538 1379 1065 376 874 6107
cat_boundaries=0 3 6 7 8 12 13 18 22 23 24 25 30 35 40 45 46 48 49 53 54 55 56
cat_threshold=33572997 2418812825 6 201335833 805602305 98377 1048576 16253043 1641652486 2147483648 536875489 302262032 1585 1612185862 2953183424 2148551106 167775234 512 17825798 0 4096 263168 32768 295948 1585 128 213924864 1073754112 7869232 112 23171088 1076920320 538969644 830742721 256 0 0 538968076 562045121 256 16846848 1076887552 538969644 805314757 256 132356 49152 33587201 141580 30507014 0 288 270336 198 5767201 27
is_linear=0
shrinkage=0.1


Tree=19
num_leaves=31
num_cat=23
split_feature=13 0 2 0 2 13 2 0 1 0 0 2 7 0 0 2 5 3 0 1 0 5 3 2 1 11 5 1 0 2
split_gain=5501.92 4069.71 3265.91 1509.12 1873.14 887.41 754.143 3004.37 1601.81 1709.61 1086.89 1086.56 1084.24 946.246 867.316 807.834 715.344 1610.72 1411.21 712.898 1054.79 647.585 646.35 2720.86 631.072 583.765 562.871 541.147 1065.35 619.482
threshold=0.15720367664553714 0 1 2 3 0.61302405819414718 4 5 6 7 8 9 18.090268817204308 10 11 12 6.308398220244718 13 14 15 16 6.401612903225808 17 18 19 11.455698924731186 21.0983870967742 20 21 22
decision_type=2 9 1 9 1 2 1 9 1 9 9 1 2 9 9 1 2 9 9 1 9 2 9 1 1 2 2 1 9 1
left_child=2 -2 -1 4 21 -5 13 8 10 11 26 -10 -9 15 -14 -7 17 -15 -18 20 -19 -3 -4 25 -23 -24 -8 28 -17 -29
right_child=1 3 22 5 -6 6 7 12 9 -11 -12 -13 14 16 -16 27 18 19 -20 -21 -22 24 23 -25 -26 -27 -28 29 -30 -31
leaf_value=-0.19472192656391729 -0.19834016552488914 -0.20000000000000001 0.14047685325516815 -0.1551382163949161 -0.1978236335653632 -0.16173638706636334 -0.20000000000000001 -0.1683250885265182 0.06151672361562071 -0.15956290521391553 0.093637874375475619 -0.1291897740663695 0.038924976022051028 -0.19213375961319801 -0.19118955184468864 0.016648988085083589 -0.16926147779523926 0.072841990506120197 0.015419022950032588 0.081606098528630711 -0.19207091613157765 -0.12479540276352921 -0.20000000000000001 -0.19407930761635792 0.026591764368441063 0.12512901589034034 0.071889206716383325 0.047768809295517363 -0.18081504329986914 -0.035264988270873418
leaf_weight=368.92614118009806 1194.9394261837006 186.8821574524045 3012.1872132867575 379.71274307370186 908.96289529651403 399.82340147346258 210.52828880399466 1592.7313478142023 1256.9616144299507 819.76930708438158 2315.3462068587542 381.21141365915537 581.30099815130234 244.25106552243233 217.00320854783058 579.31558788567781 426.29619856923819 363.98733089119196 8008.2745700478554 4121.7999975457788 242.23594972491264 334.58185415714979 56.95420278608799 327.79833006113768 1361.0393824204803 1817.6404166966677 119.28377015888691 1678.7702278867364 509.95229721069336 1910.230895601213
leaf_count=2845 14237 1429 263 2971 9910 1693 1021 9810 1824 3466 2137 1728 694 1077 1389 720 1185 214 7206 2927 721 1814 137 986 2948 550 112 1593 1561 3186
internal_value=-0.00145435 -0.0182403 0.0897735 -0.0107858 -0.0805696 -0.00336775 -0.00115075 -0.0278876 0.0154913 -0.0425462 0.0693782 0.0166237 -0.120149 0.00969871 -0.0255345 -0.0270304 0.0236203 0.0537228 0.00590259 0.0666892 -0.0344116 -0.0232075 0.110064 0.0680209 -0.00385928 0.114639 -0.0986735 -0.0151975 -0.0765998 0.00359923
internal_weight=35928.7 30345.2 5583.51 29150.3 2791.47 26358.8 25979.1 7494.14 5103.1 2457.94 2645.16 1638.17 2391.04 18484.9 798.304 5078.09 13406.8 4972.27 8434.57 4728.02 606.223 1882.5 5214.58 2202.39 1695.62 1874.59 329.812 4678.27 1089.27 3589
internal_count=82354 77573 4781 63336 16101 47235 44264 22181 10288 7018 3270 3552 11893 22083 2083 8753 13330 4939 8391 3862 935 6191 1936 1673 4762 687 1133 7060 2281 4779
cat_boundaries=0 4 5 10 11 12 16 17 21 25 26 30 32 33 36 41 42 46 49 50 51 52 56 57
cat_threshold=2550136833 50724927 530300928 2147598338 6815967 34344448 1879066816 2151942402 1224873984 527 780032 499596 1631695134 2147483648 536875249 839132976 204 1614811398 2147483648 4113 263216 1614811392 2147483648 17 262192 11550816 1615860126 2147581952 536875201 574629424 11681888 32768 262156 2149580800 637534212 8192 67108864 8389888 1073742848 193 48 196 8224 0 1536 4 8217 268468224 65609 1393408 420 2145 4198528 98304 0 570425856 164352
is_linear=0
shrinkage=0.1


Tree=20
num_leaves=31
num_cat=21
split_feature=3 13 2 2 0 0 0 2 0 1 0 5 0 2 0 11 9 1 0 2 12 13 7 0 0 7 1 0 9 0
split_gain=4847.36 4682.75 1809.26 1777.21 1177.31 1070.3 863.285 859.111 4293.21 1375.11 844.81 823.236 820.148 777.309 1793.26 919.211 756.189 727.699 714.45 1159.8 750.25 704.046 640.869 1274.24 1068.35 896.021 729.224 1099.88 691.591 957.066
threshold=0 0.15720367664553714 1 2 3 4 5 6 7 8 9 0.37298387096774199 10 11 12 12.370430107526884 1.0000000180025095e-35 13 14 15 30.850000000000005 0.96341289910302386 6.3354262672811066 16 17 17.711397849462369 18 19 0.049193548387096782 20
decision_type=9 2 1 1 9 9 9 1 9 1 9 2 9 1 9 2 2 1 9 1 2 2 2 9 9 2 1 9 2 9
left_child=3 2 -2 6 -4 -3 -1 8 9 10 -7 -9 16 14 17 -15 -13 -14 19 20 -11 -18 23 -17 25 -24 27 -26 29 -28
right_child=1 5 4 -5 -6 7 -8 11 -10 18 -12 12 13 15 -16 22 21 -19 -20 -21 -22 -23 24 -25 26 -27 28 -29 -30 -31
leaf_value=0.017175280800566722 0.11606303114748717 -0.16739647688396553 0.14316900683443193 -0.19873929323832784 -0.1939986921363841 0.032771257758381994 -0.19221565217438166 -0.20000000000000001 -0.19846689849036148 -0.14565029695829124 -0.19572965792516908 0.13611385026637263 -0.10340944447308008 -0.15532836160501456 -0.16949713907337752 0.064404721881826971 -0.13300958389650161 0.019950049923995655 0.068123957007129518 -0.17083870972881732 0.1000086099183938 0.024842859732676068 -0.18045382270618954 -0.19505599890976472 0.030541088553528512 0.020710234652797505 0.11897515988204002 -0.16299543644414283 0.074956429186444226 -0.19163791068391811
leaf_weight=841.16187898814678 4621.553487457335 401.20203038305044 143.24827887862921 1576.4117341190577 323.26069007813931 249.41626065969467 246.92582664638758 195.6449686139822 1294.545059427619 160.10600012540817 458.34655513614416 595.8918478935957 613.20882628858089 338.83514488488436 931.62566288560629 351.45400117337704 291.58584645390511 2046.980920098722 2291.6574310958385 372.5037794187665 556.20668945461512 9119.8272604420781 439.4330428391695 394.53065513074398 1119.2221053317189 446.30135084688663 161.93572324514389 387.22646450251341 3690.3674693033099 229.17467565834522
leaf_count=2115 1115 4354 42 19171 1809 467 2930 1941 11841 443 2486 165 1563 1065 3206 335 753 2890 3376 2072 463 8674 1294 1269 1069 669 76 1150 2934 617
internal_value=-0.00151753 0.00921668 0.0972552 -0.130884 -0.0896347 -0.0072866 -0.0316607 -0.00481957 -0.0404836 0.00990417 -0.115871 0.00418546 0.00607555 -0.0125753 -0.0508109 0.00563754 0.0268424 -0.00876672 0.0365015 -0.0300692 0.0444794 0.0199523 0.0131999 -0.0745683 0.0233137 -0.0782089 0.0394752 -0.0199535 0.0614052 -0.0648892
internal_weight=34889.8 32225.3 5088.06 2664.5 466.509 27137.2 1088.09 26736 5382.78 4088.24 707.763 21353.2 21157.6 11150.3 3591.82 7558.48 10007.3 2660.19 3380.47 1088.82 716.313 9411.41 7219.65 745.985 6473.66 885.734 5587.93 1506.45 4081.48 391.11
internal_count=82354 58138 2966 24216 1851 55172 5045 50818 21148 9307 2953 29670 27729 18137 7659 10478 9592 4453 6354 2978 906 9427 9413 1604 7809 1963 5846 2219 3627 693
cat_boundaries=0 3 4 5 8 13 17 18 22 23 27 32 33 38 39 43 44 48 52 53 58 63
cat_threshold=1880883842 2308661312 10244498 8912640 565632 0 0 12 0 52 2550153216 2147483650 1 34344448 805306368 6293504 201328640 16253043 1641128294 2147483648 536875489 302262032 561 17825792 0 4096 263168 16990304 81277696 536880668 551551013 4144 272772 1693487134 1075904512 1073741827 301999112 1280 2608 30507104 0 0 270336 1572896 67141894 0 0 262144 1678770438 2162688 1073741824 1024 452 10530816 49152 4193 268705992 1408 128 0 0 301989896 1152
is_linear=0
shrinkage=0.1


Tree=21
num_leaves=31
num_cat=21
split_feature=0 13 2 0 5 2 13 2 0 1 0 5 7 0 5 2 0 5 1 12 1 0 0 2 2 0 1 12 2 3
split_gain=4342.04 4027.75 1671.89 1300.02 1088.51 829.822 815.729 679.66 4085.52 1783.62 685.562 812.536 695.085 1413.58 656.416 639.149 1141.45 614.031 874.001 719.743 563.617 2083.57 1337.82 637.308 522.791 649.672 1059.22 803.79 652.785 599.689
threshold=0 0.15720367664553714 1 2 0.25834260289210237 3 0.61302405819414718 4 5 6 7 0.82508342602892115 5.3817018909899899 8 11.098387096774195 9 10 11.098387096774195 11 37.45000000000001 12 13 14 15 16 17 18 31.750000000000004 19 20
decision_type=9 2 1 9 2 1 2 1 9 1 9 2 2 9 2 1 9 2 1 2 1 9 9 1 1 9 1 2 1 9
left_child=-1 2 -2 5 -4 -3 -5 8 9 -8 15 -12 13 -13 -11 16 -9 18 19 -17 21 23 -22 -14 29 26 27 -26 -27 -24
right_child=1 3 4 6 -6 -7 7 10 -10 14 11 12 20 -15 -16 17 -18 -19 -20 -21 22 -23 24 -25 25 28 -28 -29 -30 -31
leaf_value=-0.19816127216507964 0.10633637881018324 -0.025873742490049697 -0.20000000000000001 -0.15323762157619367 0.13500449705768552 -0.19663497660873233 0.073475374165832372 -0.17961582375463708 -0.19827739115119239 -0.20000000000000001 -0.20000000000000001 0.055330329151536961 -0.14808851120049579 -0.18654358949006336 0.047950192541038134 -0.20000000000000001 0.0062407577826454307 -0.0012129313598811281 0.07365975351631894 0.087529357356224802 -0.136808210502251 -0.15491328825034317 0.12417944770727596 0.041970109135753393 0.065141523296316436 -0.10160982783289647 -0.16478113976941952 -0.12519280055714962 0.041221260144104745 -0.020796712583963393
leaf_weight=1077.7085569798946 4499.5633751600981 569.39254320412874 312.80111873149872 367.76146220415831 140.58073667436838 584.34950888901949 1947.770724080503 356.61537171900272 1151.0296797119081 393.90374301373959 228.59614659845829 402.37703291326761 187.13235995173454 589.53746051341295 146.4727548584342 224.20622504875064 3348.1352950632572 2442.6641978174448 4216.638359323144 142.32237850874662 554.20857787132263 1012.2370584532619 920.69187262654305 1695.5860803797841 779.34686449170113 338.26310118287802 492.005380615592 310.18197454512119 4068.8694861903787 414.0504897236824
leaf_count=15048 1226 2122 2091 3444 55 7881 2571 1245 10314 2055 2483 537 769 2101 206 610 3793 2429 3390 92 2025 3369 459 1977 875 882 1639 846 4986 834
internal_value=-0.00159252 0.00491765 0.0880182 -0.00984129 -0.0940503 -0.113308 -0.00533111 -0.00326983 -0.043329 0.0288576 0.00316329 -0.0132616 -0.0096444 -0.0897486 -0.130379 0.021516 -0.012085 0.0392259 0.0608639 -0.0860064 -0.00226858 -0.0399206 0.0116041 0.0223967 0.0230067 0.0103295 -0.0444764 0.0108549 0.0300532 0.0793862
internal_weight=33915 32837.3 4952.95 27884.3 453.382 1153.74 26730.6 26362.8 3639.18 2488.15 22723.7 11993.1 11764.5 991.914 540.376 10730.6 3704.75 7025.83 4583.17 366.529 10772.6 2894.96 7877.62 1882.72 7323.41 5988.67 1581.53 1089.53 4407.13 1334.74
internal_count=82354 67306 3372 63934 2146 10003 53931 50487 15146 4832 35341 23782 21299 2638 2261 11559 5038 6521 4092 702 18661 6115 12546 2746 10521 9228 3360 1721 5868 1293
cat_boundaries=0 5 6 11 12 13 17 18 23 27 28 33 34 35 40 45 46 47 51 52 53 56
cat_threshold=2550136833 50724879 127909888 1073987584 526 8912640 789504 536871024 406849536 2147485698 1 631040 15728752 1640079622 2147483648 536875105 272144 3462 16990304 14160640 538981916 849346597 16 4358 65536 0 134217736 643585 0 13107200 538976268 536870913 16 130 2340 1093784 201449472 0 21246168 5536 1048576 201392128 0 151007432 1056 802819 32777 536879902 2147483648 0 1835024 657 644 16908568 2048 524296
is_linear=0
shrinkage=0.1


Tree=22
num_leaves=31
num_cat=21
split_feature=0 13 2 0 0 2 2 0 1 5 5 0 2 0 5 7 0 11 0 1 11 0 0 2 2 11 2 0 11 0
split_gain=3917.66 3389.01 1405.95 1122.59 995.729 877.486 728.432 4577.3 1013.51 737.552 676.857 669.309 699.206 1014.81 586.972 582.125 1367.5 550.556 542.366 764.418 713.115 1294.56 1155.12 926.871 690.463 809.415 662.316 828.184 633.459 680.564
threshold=0 0.15720367664553714 1 2 3 4 5 6 7 0.37298387096774199 11.098387096774195 8 9 10 6.401612903225808 5.3817018909899899 11 18.860476190476195 12 13 16.308064516129033 14 15 16 17 14.403225806451614 18 19 15.159677419354841 20
decision_type=9 2 1 9 9 1 1 9 1 2 2 9 1 9 2 2 9 2 9 1 2 9 9 1 1 2 1 9 2 9
left_child=-1 2 -2 5 -4 17 7 8 10 -8 -5 12 13 -11 -10 16 -13 -3 19 -17 22 -22 23 -20 25 -24 27 -23 -25 -30
right_child=1 3 4 6 -6 -7 9 -9 14 11 -12 15 -14 -15 -16 18 -18 -19 20 -21 21 26 24 28 -26 -27 -28 -29 29 -31
leaf_value=-0.1979717010753882 0.098518984816538965 -0.12932212426602471 0.13430875718364541 -0.20000000000000001 -0.19333031901667264 -0.19644327600313913 -0.20000000000000001 -0.19848356481765556 0.066253730516276629 -0.19322541434744467 0.072407478749216866 0.04585700825382804 0.040294400299307753 0.0016974743195825735 -0.07035595483580942 0.020767604667391137 -0.18930329169464799 0.11173866394348293 -0.13637327122546988 -0.13160755640607003 -0.18298343003634962 0.064818544058714844 0.014893094041095817 0.050499125243878035 -0.16824406666016159 -0.20000000000000001 0.058065455851498859 -0.19211266794251883 0.10463184059269813 -0.17279375856391327
leaf_weight=976.04795167595148 4378.3857110589743 174.54521349072456 127.66037408262491 304.81589588522911 289.8644170537591 552.3152096606791 179.16072425618768 1308.8826158121228 2289.3886015638709 285.22100724279881 130.16373908519745 441.99948547035456 6936.6129850819707 2809.527870234102 364.61672727763653 583.33800170198083 548.90410494059324 207.22505505383015 364.64035379141569 748.39720113202929 256.98195089027286 243.37393831461668 732.72327606379986 2397.8327612504363 684.50368221104145 230.39000771939754 3832.0535781830549 243.57116771861911 123.84041135758162 267.43250866606832
leaf_count=15048 1226 949 42 1934 2104 7904 2142 13889 3656 916 176 619 6552 2792 863 993 2185 203 1439 2613 1245 215 1039 2888 2425 683 3587 1136 107 784
internal_value=-0.00164379 0.00439776 0.0819147 -0.00924713 -0.0923546 -0.116388 -0.00539676 -0.0424893 0.0240367 0.00206443 -0.115822 0.00373127 0.0226714 -0.0168317 0.0473076 -0.0125163 -0.085856 0.00148682 -0.00574194 -0.0652056 0.00276944 0.0310199 -0.0241491 0.0113988 -0.0917049 -0.0361371 0.0440748 -0.0649788 0.0311363 -0.0867288
internal_weight=33014.4 32038.4 4795.91 27242.5 417.525 934.085 26308.4 4397.87 3088.98 21910.5 434.98 21731.3 10031.4 3094.75 2654.01 11700 990.904 381.77 10709.1 1331.74 9377.34 4575.98 4801.36 3153.75 1647.62 963.113 4319 486.945 2789.11 391.273
internal_count=82354 67306 3372 63934 2146 9056 54878 20518 6629 34360 2110 32218 10260 3708 4519 21958 2804 1152 19154 3606 15548 6183 9365 5218 4147 1722 4938 1351 3779 891
cat_boundaries=0 5 6 11 14 15 16 20 21 26 27 32 36 40 41 46 51 52 53 54 58 62
cat_threshold=2550136833 50724879 127909888 1073987584 526 8912640 789504 48 406849536 2147485698 1 0 0 12 557312 15728755 1640079622 2147483648 536875105 302262032 561 16990304 14160640 538977948 551551013 4144 119296 0 12582912 536879244 536870913 48 4358 65536 0 167773192 1610612998 2147549184 0 134218760 152 34603008 203456704 0 4288 1024 116429312 1277206720 259 4288 1024 8844 508416 542852 36864 0 4096 301989888 0 2097344 2 64
is_linear=0
shrinkage=0.1


Tree=23
num_leaves=31
num_cat=18
split_feature=0 13 0 2 7 0 5 2 0 0 11 0 2 0 5 0 0 1 11 2 5 1 5 7 0 11 12 2 5 3
split_gain=3534.37 2848.37 995.643 1286.89 837.631 2346.59 756.576 569.428 3087.89 1979.47 868.573 689.212 1160.24 709.725 683.549 1500.53 1257.7 721.108 661.353 1197.95 831.839 513.087 497.628 556.148 1101.05 947.261 646.766 559.605 551.273 479.693
threshold=0 0.092761775788341258 1 2 16.106559139784949 3 0.21198156682027652 4 5 6 10.395161290322582 7 8 9 6.4919354838709689 10 11 12 10.637741935483872 13 1.3389976958525347 14 0.2289746543778802 18.806559139784948 15 21.562142857142859 33.150000000000013 16 4.0420506912442411 17
decision_type=9 2 9 1 2 9 2 1 9 9 2 9 1 9 2 9 9 1 2 1 2 1 2 2 9 2 2 1 2 9
left_child=-1 4 3 -3 5 -2 -4 9 -9 21 -10 18 13 -13 15 -11 -16 -17 -12 -20 -21 -8 -14 24 25 -24 -25 -26 -29 -6
right_child=1 2 6 -5 29 -7 7 8 10 14 11 12 22 -15 16 17 -18 -19 19 20 -22 -23 23 26 27 -27 -28 28 -30 -31
leaf_value=-0.19776301573823196 0.11186125977571122 -0.0020184580169045605 -0.20000000000000001 -0.18929828254173769 0.13570378943048808 -0.19486582105478067 -0.032632803303507506 -0.16883219939484106 -0.20000000000000001 -0.14312203726700387 0.13735108033630361 0.070644807034014975 0.19087761368505232 -0.19628234560285079 -0.12508198149863611 -0.10921699766254525 0.020834525457705567 0.087969198682215644 -0.19228599529253473 -0.20000000000000001 0.03619001733338309 -0.16761188185025813 -0.19205477396260062 0.066487469144917891 -0.1287343236420368 0.10068031691429682 -0.13615996435745953 -0.20000000000000001 0.02220947476883494 0.056948184644502103
leaf_weight=884.0608274191618 683.3944053798914 806.30363395810127 194.67467072606087 671.12403420358896 1934.2179132401943 379.54621982201934 513.2939478866756 1201.0774525888264 215.38780962303281 327.98356616869569 503.98364272713661 121.39223408326507 126.16073329746723 527.97362162917852 638.81660667061806 189.30000338703394 6592.18351059407 3486.2767279036343 249.26870359107852 154.1013410538435 4606.6822351031005 665.15161978080869 618.33403187990189 1292.407557874918 305.48006539791822 134.6033973172307 179.3501348271966 116.86948240175843 2497.7080353423953 1371.9983931519091
leaf_count=15048 187 2579 2699 9677 150 1802 1088 8690 1423 1245 234 186 7 4510 1343 591 6580 2848 1679 1303 6440 2286 2437 1307 1383 105 358 511 2910 748
internal_value=-0.00171715 0.00388116 -0.00826615 -0.0877914 0.0787783 0.00155675 -0.00361517 -0.00210332 -0.0168513 0.0131677 -0.0010508 0.00269588 -0.0209837 -0.146068 0.0261302 0.0593034 0.00779949 0.0775449 0.0281071 0.0171739 0.028485 -0.109589 -0.00532606 -0.0101478 -0.0309601 -0.137891 0.0417926 -0.00290582 0.0122301 0.103605
internal_weight=32189.1 31305 26935.9 1477.43 4369.16 1062.94 25458.5 25263.8 12850.8 12413 11649.7 11434.3 5920.28 649.366 11234.6 4003.56 7231 3675.58 5514.04 5010.05 4760.78 1178.45 5270.91 5144.75 3673 752.937 1471.76 2920.06 2614.58 3306.22
internal_count=82354 67306 64419 12256 2887 1989 52163 49464 33483 15981 24793 23370 13714 4696 12607 4684 7923 3439 9656 9422 7743 3374 9018 9011 7346 2542 1665 4804 3421 898
cat_boundaries=0 5 10 11 16 17 22 26 30 31 35 39 44 45 46 47 51 52 55
cat_threshold=2550136833 50724879 127909888 1073987584 526 34343936 805306608 2554333186 2050 1 631040 0 65584 0 4194304 1 431372 67109504 3227392 1073750024 2308444353 368 1048606 201342976 2097760 301991680 1114446 205520896 538973793 306185988 14680083 0 0 0 8208 246528 4259840 536875164 536870944 1157628032 8391936 1073742848 4194433 48 192 5242896 344 1625292800 32768 388 8240 1572896 67117056 805568513 65544
is_linear=0
shrinkage=0.1


Tree=24
num_leaves=31
num_cat=17
split_feature=0 13 2 0 2 13 9 0 2 2 3 5 13 0 13 5 9 0 2 0 2 0 10 6 0 9 10 1 5 2
split_gain=3190.43 2420.84 1006.77 889.276 698.113 654.582 2009.68 569.112 1055.78 791.236 822.132 757.195 1207.64 788.68 593.321 563.93 552.809 1266.84 1043.55 533.9 1068.05 758.797 719.926 719.65 520.998 543.621 492.579 482.01 520.381 453.234
threshold=0 0.15720367664553714 1 2 3 0.96341289910302386 0.0065591397849462376 4 5 6 7 2.3389976958525351 1.1748665839298318 8 2.1862714209774556 2.3389976958525351 0.025403225806451619 9 10 11 12 13 2.2500000000000004 4.7296232476633331e-11 14 0.18837597330367076 4.0500000000000007 15 2.291713014460512 16
decision_type=9 2 1 9 1 2 2 9 1 1 9 2 2 9 2 2 2 9 1 9 1 9 2 2 9 2 2 1 2 1
left_child=-1 2 -2 4 -3 6 -5 9 -9 15 -11 12 13 -10 29 27 17 18 -13 -4 21 -21 23 -22 25 -17 -8 -7 -29 -12
right_child=1 3 19 5 -6 7 26 8 11 10 14 16 -14 -15 -16 24 -18 -19 -20 20 22 -23 -24 -25 -26 -27 -28 28 -30 -31
leaf_value=-0.19753338117437272 -0.18652357364015754 -0.0034360844182745928 0.11479856554976885 0.10741649815466257 -0.19553908373834963 0.13964459672629012 -0.20000000000000001 -0.19358064432681876 0.14322729395638795 -0.19148888284684429 -0.18274403892396504 0.072068859909937721 -0.20000000000000001 -0.18155396027469084 -0.20000000000000001 0.078274219005858139 0.0029799463914260888 -0.16523660829012748 -0.18962924968117878 0.13017158614411103 -0.20000000000000001 -0.19292750515952067 -0.20000000000000001 0.1047629011210976 -0.036233507374170068 -0.20000000000000001 0.078966210693645511 -0.20000000000000001 0.17186600905000043 0.018869034143766339
leaf_weight=800.82653680443764 138.40729631111026 338.51146164909005 2178.8498439416289 382.47564056515694 438.33838671073318 984.24532599747181 682.35112997889519 301.55774844437838 234.87354641780257 224.9867783524096 105.90197678282857 718.04227100685239 495.6331348605454 98.424357194453478 138.74705285578966 1381.9608731418848 14640.172424372286 646.97628517448902 182.85007723793387 92.089547634124756 81.317637138068676 272.78564284741879 89.825948663055897 1642.3449430279434 803.74549674242735 73.959200367331505 69.767135344445705 94.488862730562687 62.537402711808681 2972.3713906407356
leaf_count=15048 1519 1101 261 697 7547 439 6630 3077 97 1169 571 691 5844 1490 370 826 24950 2460 777 7 360 430 151 644 905 140 148 515 8 3482
internal_value=-0.00175008 0.00344249 0.071215 -0.00824185 -0.112938 -0.00497999 -0.0792149 -0.00149606 -0.0111424 0.0229002 -0.0109075 -0.00779759 -0.10102 0.046168 0.00227599 0.0570478 -0.00302881 -0.0598613 0.0174545 0.0796473 0.0441244 -0.110085 0.0755848 0.090385 0.0282764 0.0637007 -0.174123 0.114514 -0.048793 0.0114006
internal_weight=31369.4 30568.5 4495.62 26072.9 776.85 25296.1 1134.59 24161.5 17318.5 6842.94 3442.01 17017 828.931 333.298 3217.02 3400.94 16188 1547.87 900.892 4357.21 2178.36 364.875 1813.49 1723.66 2259.67 1455.92 752.118 1141.27 157.026 3078.27
internal_count=82354 67306 3372 63934 8648 55286 7475 47811 39386 8425 5592 36309 7431 1587 4423 2833 28878 3928 1468 1853 1592 437 1155 1004 1871 966 6778 962 523 4053
cat_boundaries=0 5 6 11 12 16 17 18 20 25 29 30 34 35 38 42 43 44
cat_threshold=2550136833 50724879 127909888 1073987584 526 524319 789504 48 406849536 2147483650 1 557312 16777312 4864 538981388 268437269 2097168 2295071 8388608 33849344 73728 0 0 0 16 115368326 2147516416 1 39845888 810784 0 1074331696 402657296 2149057024 153088 0 0 2 64 512 536875020 1045 1197 96
is_linear=0
shrinkage=0.1


Tree=25
num_leaves=31
num_cat=23
split_feature=0 13 2 0 5 13 9 2 2 0 1 0 1 0 2 0 2 1 0 2 0 1 0 5 0 7 7 0 0 2
split_gain=2773.72 2037.59 994.347 837.157 815.717 605.262 1795.75 540.804 514.345 3097.46 1004.29 469.811 890.225 1578.44 1356.87 933.032 666.513 720.518 1700.47 710.473 620.408 604.049 1035.74 554.159 553.181 540.423 526.876 1322.86 546.264 1105.17
threshold=0 0.15720367664553714 1 2 0.25834260289210237 0.96341289910302386 0.0065591397849462376 3 4 5 6 7 8 9 10 11 12 13 14 15 16 17 18 10.10357142857143 19 23.713333333333335 5.3817018909899899 20 21 22
decision_type=9 2 1 9 2 2 2 1 1 9 1 9 1 9 1 9 1 1 9 1 9 1 9 2 9 2 2 9 9 1
left_child=-1 2 -2 7 -4 6 -5 -3 9 10 -7 16 13 -13 25 -14 21 18 19 -18 -16 23 -23 -10 -19 -15 27 -17 29 -28
right_child=1 3 4 5 -6 8 -8 -9 11 -11 -12 12 15 14 20 26 17 24 -20 -21 -22 22 -24 -25 -26 -27 28 -29 -30 -31
leaf_value=-0.19718092518404187 0.080625757243639198 0.0076222765158394604 -0.20000000000000001 0.098476902594649376 0.12090488657628939 0.077938446268784045 -0.17321043009656242 -0.19488892578588171 0.12481302788346371 -0.19765833106396055 -0.15476286312810117 -0.16839608389346833 -0.16566137599539943 -0.20000000000000001 0.069293531238622141 0.10131412342795816 -0.13348153914665456 -0.065563603191127445 -0.19633471336512529 0.066072648954004262 -0.020937315308332698 0.066775444252059959 -0.19105584103107431 -0.020683567434058206 0.047409985696420659 0.087077353194391194 0.039953212326098324 -0.18144597288257408 0.032558080072211719 -0.15815458333462118
leaf_weight=699.45261497795582 3972.2320203147829 206.69102907925844 240.59311676770449 373.33183693513274 118.0906611084938 1217.98222739622 698.37622021138668 381.30717266350985 1427.974547162652 844.09169896692038 209.40582736209035 811.14855213090777 281.61072072759271 491.80362718179822 1079.3365633226931 269.51206978783011 219.10293228179216 509.08074019104242 535.65991673618555 801.51888175308704 2527.126411061734 504.24517258629203 213.60962131246924 320.53537959605455 2666.2348481230438 75.663140956312418 681.7610631249845 402.5306363850832 7461.4066673591733 467.40104867517948
leaf_count=14520 1250 645 2143 728 55 1506 7037 6994 705 9712 1102 3945 1627 2638 1349 219 494 988 1612 524 3700 446 571 346 2449 78 1027 1576 10259 2109
internal_value=-0.00174895 0.00287089 0.0663208 -0.00782942 -0.0917884 -0.00503726 -0.0785676 -0.124766 -0.00175846 -0.0469288 0.0429607 0.00297975 -0.00735884 -0.0415783 -0.0165894 0.0105019 0.0238584 0.00184614 -0.0536901 0.0223537 0.00618377 0.0659099 -0.0115174 0.0975826 0.0291486 -0.158922 0.0160188 -0.0692419 0.0226918 -0.0412928
internal_weight=30708.8 30009.4 4330.92 25678.4 358.684 25090.5 1071.71 587.998 24018.7 2271.48 1427.39 21747.3 14549.3 4985.08 4173.93 9564.22 7197.96 4731.6 1556.28 1020.62 3606.46 2466.36 717.855 1748.51 3175.32 567.467 9282.61 672.043 8610.57 1149.16
internal_count=82354 67834 3448 64386 2198 56747 7765 7639 48982 12320 2608 36662 28527 11710 7765 16817 8135 6067 2630 1018 5049 2068 1017 1051 3437 2716 15190 1795 13395 3136
cat_boundaries=0 5 6 11 12 13 17 18 22 23 28 29 34 35 36 40 41 46 47 51 55 59 64 65
cat_threshold=2550136833 50724879 127909888 1073987584 10 8912640 787456 48 406847488 2147483650 517 557056 14680176 98566 2147483648 536875105 272144 3972 1627390048 147329792 538981916 838860805 2348 104858368 2955939008 3221227905 137890560 96 1851403 2048 67108864 0 25178304 48 1179918 3209 16777216 528384 5648 301989892 570369 1048600 67108864 0 25178312 1168 3369 553648128 525056 4124 33554432 1627389952 524288 8192 33554433 16640 65536 2048 134219784 1048856 2147549184 2146 134219784 1152 627200
is_linear=0
shrinkage=0.1


Tree=26
num_leaves=31
num_cat=21
split_feature=0 13 0 5 7 0 2 10 8 4 12 2 0 0 11 1 0 0 2 0 1 1 0 0 0 2 0 9 9 0
split_gain=2455.25 1699.32 738.464 665.596 645.93 1891.11 521.999 461.275 444.337 761.282 1048.58 419.217 2871.22 1179.41 738.541 807.392 2342.24 1827.21 644.774 586.087 567.85 554.827 2082.57 1976.68 698.36 609.322 566.458 504.504 486.986 520.679
threshold=0 0.092761775788341258 1 0.21198156682027652 16.106559139784949 2 3 7.2000000000000011 11.250000000000002 4 26.250000000000004 5 6 7 10.395161290322582 8 9 10 11 12 13 14 15 16 17 18 19 1.0000000180025095e-35 0.14096774193548392 20
decision_type=9 2 9 2 2 9 1 2 2 9 2 1 9 9 2 1 9 9 1 9 1 1 9 9 9 1 9 2 2 9
left_child=-1 4 6 -4 5 -2 -3 11 -6 -10 -11 13 -13 20 -14 17 18 -16 19 -17 -5 23 -23 -15 -24 -26 -27 -18 -20 -30
right_child=1 2 3 7 8 -7 -8 -9 9 10 -12 12 14 21 15 16 27 -19 28 -21 -22 22 24 -25 25 26 -28 -29 29 -31
leaf_value=-0.19683461479772665 0.095430883613515302 0.0080308628232703318 -0.20000000000000001 0.0010338484697793434 0.13207629587374567 -0.19429547695037155 -0.19440636477859152 -0.20000000000000001 0.095981526470148737 0.081905509603483473 -0.20000000000000001 -0.19754655390117554 -0.20000000000000001 -0.088717110865079496 -0.14585681627470923 0.065988587564488999 0.035798002914265277 0.042528688253519936 0.062607749268046561 -0.19182103916927604 -0.15447609266862541 -0.15025065516543176 0.059463597195940424 0.061252343241714628 0.011209230274508021 -0.011949446650891652 -0.19372843661086223 -0.17015531176786497 0.084786541928112705 -0.18837435215314211
leaf_weight=621.83463376387954 620.45652350783348 205.47935583814979 173.03960175812244 386.36212885379791 1231.5330266021192 340.59898655861616 347.54923602193594 118.51114950701594 1258.2564737647772 288.44408598169684 243.19023084267974 805.17992221564054 185.18382918089628 1035.5431576557457 559.9245353974402 135.1629220508039 133.32501782476902 5355.897028747946 1799.5345007032156 234.52984204143286 613.15784960612655 832.78079052269459 2364.8131138086319 5553.4433330073953 2442.5492991581559 386.80638099834323 308.89975049346685 1102.3529179506004 112.05365701392293 162.03342354297638
leaf_count=14232 187 638 3175 803 204 1898 6944 466 187 204 305 9260 1536 2098 2850 284 240 8896 2673 1454 2487 2812 2434 4732 2576 617 1105 6090 168 799
internal_value=-0.00179694 0.00240346 -0.00713432 -0.00455865 0.063131 -0.00827712 -0.120384 -0.00318731 0.0858445 0.0540348 -0.0461804 -0.00223566 -0.0172262 0.00916579 -0.0021939 0.00162155 -0.0351095 0.0244822 0.0217175 -0.0983081 -0.0949493 0.0172845 -0.00385194 0.037584 0.018535 -0.0123975 -0.0942624 -0.146746 0.0434852 -0.0804787
internal_weight=29958.4 29336.6 25354.1 24801.1 3982.48 961.056 553.029 24628 3021.42 1789.89 531.634 24509.5 10585.2 13924.4 9780 9594.81 3678.99 5915.82 2443.31 369.693 999.52 12924.8 6335.85 6588.99 5503.07 3138.26 695.706 1235.68 2073.62 274.087
internal_count=82354 68122 65137 57555 2985 2085 7582 54380 900 696 509 53914 34250 19664 24990 23454 11708 11746 5378 1738 3290 16374 9544 6830 6732 4298 1722 6330 3640 967
cat_boundaries=0 5 10 15 16 18 19 24 28 29 34 39 40 42 43 44 49 54 59 60 65 70
cat_threshold=2550136833 50724879 127909888 1073987584 2 787456 48 406847488 2 525 0 65584 0 4194304 1 557056 4726784 69206048 496908 67111552 204553408 3221235720 160958657 176 33554718 805322752 2097152 33555456 966 17977350 3234349824 5655 308282428 4096 4096 3234349824 1542 2449477676 5440 4194481 147456 524288 152 1585 32 2361965760 3221236097 134748976 112 1628542976 1073741824 536870942 830480585 4352 1090553856 1076887552 536871022 563355853 256 430336 538132480 0 16 274726912 5248 4096 1077936128 18 0 4096
is_linear=0
shrinkage=0.1


Tree=27
num_leaves=31
num_cat=16
split_feature=0 13 2 0 13 8 10 6 0 2 0 10 9 7 2 0 1 0 5 13 2 12 2 0 1 0 1 10 5 11
split_gain=2352.2 1449.92 790.394 609.996 500.638 467.271 411.582 411.323 408.45 1424.45 1076.91 709.769 690.11 427.785 386.016 2813.43 760.898 340.384 1025.79 557.099 1197.33 632.422 560.437 1162.42 499.122 483.394 800.971 498.439 731.923 463.918
threshold=0 0.15720367664553714 1 2 0.61302405819414718 -4.7499999999999991 7.2000000000000011 2.8361995016173132e-10 3 4 5 2.3500000000000001 0.028801843317972357 17.711397849462369 6 7 8 9 1.4069700460829495 1.1256606538308875 10 38.250000000000007 11 12 13 14 15 0.8500000000000002 8.9749423963133648 12.455752688172046
decision_type=9 2 1 9 2 2 2 2 9 1 9 2 2 2 1 9 1 9 2 2 1 2 1 9 1 9 1 2 2 2
left_child=-1 2 -2 5 7 -3 14 -5 13 11 -11 12 -10 -4 15 16 -6 19 -19 20 -16 -22 23 24 -21 27 -27 -24 -29 -26
right_child=1 3 8 4 6 -7 -8 -9 9 10 -12 -13 -14 -15 17 -17 -18 18 -20 22 21 -23 25 -25 29 26 -28 28 -30 -31
