{"learner":{"attributes":{"scikit_learn":"{\"_estimator_type\": \"regressor\"}"},"feature_names":["lat","lon","hour","day_of_week","month","temperature","humidity","precipitation","wind_speed","cloud_cover"],"feature_types":["float","float","int","int","int","float","int","float","float","int"],"gradient_booster":{"model":{"gbtree_model_param":{"num_parallel_tree":"1","num_trees":"100"},"iteration_indptr":[0,1,2,3,4,5,6,7,8,9,10,11,12,13,14,15,16,17,18,19,20,21,22,23,24,25,26,27,28,29,30,31,32,33,34,35,36,37,38,39,40,41,42,43,44,45,46,47,48,49,50,51,52,53,54,55,56,57,58,59,60,61,62,63,64,65,66,67,68,69,70,71,72,73,74,75,76,77,78,79,80,81,82,83,84,85,86,87,88,89,90,91,92,93,94,95,96,97,98,99,100],"tree_info":[0,0,0,0,0,0,0,0,0,0,0,0,0,0,0,0,0,0,0,0,0,0,0,0,0,0,0,0,0,0,0,0,0,0,0,0,0,0,0,0,0,0,0,0,0,0,0,0,0,0,0,0,0,0,0,0,0,0,0,0,0,0,0,0,0,0,0,0,0,0,0,0,0,0,0,0,0,0,0,0,0,0,0,0,0,0,0,0,0,0,0,0,0,0,0,0,0,0,0,0],"trees":[{"base_weights":[-4.728994E-7,-1.6370564E1,6.74509E0,-1.7696611E1,-8.403524E0,1.3459972E1,-9.381268E0,-1.8344677E1,-1.4457417E1,-5.0588455E0,-1.676496E1,6.2574806E1,1.2155733E1,-4.9145436E0,-1.236379E1,-1.8841211E1,-1.7101625E1,-1.3032476E1,-1.8029158E1,-3.300902E0,-1.0635154E1,-1.6465967E1,-1.8864277E1,3.2236954E1,1.7113307E2,-1.4230307E1,1.4031394E1,-8.947003E0,7.2798145E-1,-1.0740096E1,-1.5612066E1,-1.9081383E1,-1.788047E1,-1.5798778E1,-1.79718E1,-1.4608735E1,-1.1300312E1,-1.7818281E1,-1.9494141E0,-5.084853E0,5.257187E0,-1.1366207E1,-1.4013271E0,-1.6730497E1,-1.7169411E0,-1.7691084E1,-1.8990084E1,7.981459E1,1.6460611E1,3.598149E2,1.077235E2,-1.5978259E1,-1.0137881E1,3.1582716E1,9.469644E0,-2.103426E0,-1.1110704E1,2.890698E1,-5.2012153E-2,-1.22251625E1,-7.1977744E0,-1.3373535E1,-1.6319101E1,-1.8313894E0,-1.9337361E0,-1.6342556E0,-1.8461787E0,-1.8766634E0,-1.5367975E0,-1.9571933E0,-1.7740431E0,-1.9289843E0,-1.4023999E0,-1.0039006E0,-1.665271E0,-1.7923783E0,-1.1727651E0,-1.648493E0,-4.220701E-1,4.1102977E0,-7.618848E-2,-1.4588886E0,-9.4541466E-1,1.3712238E-1,-7.7181274E-1,-1.9515272E0,-1.6526371E0,-6.612795E-1,1.8773669E0,-1.673694E0,-1.8826746E0,-1.8676485E0,-1.930406E0,4.8032527E0,1.4833966E1,6.785206E-1,3.7309983E0,2.639568E1,4.015054E1,6.3958826E0,1.2933707E1,-1.7387192E0,-1.455726E0,-5.3051907E-1,-1.3356181E0,2.3321972E0,1.0564479E1,1.3007991E0,6.031691E-2,-5.942066E-1,1.4098457E1,-1.0381546E0,-1.6463547E0,7.579769E0,1.3442373E0,5.973639E-1,-3.64231E-1,-8.555442E-1,-1.3388135E0,-1.7604259E0,-6.381585E-1,-1.5058074E0,4.969731E0,-1.7103577E0,-1.4460529E0],"categories":[],"categories_nodes":[],"categories_segments":[],"categories_sizes":[],"default_left":[0,0,0,0,0,0,0,0,0,0,0,0,0,0,0,0,0,0,0,0,0,0,0,0,0,0,0,0,0,0,0,0,0,0,0,0,0,0,0,0,0,0,0,0,0,0,0,0,0,0,0,0,0,0,0,0,0,0,0,0,0,0,0,0,0,0,0,0,0,0,0,0,0,0,0,0,0,0,0,0,0,0,0,0,0,0,0,0,0,0,0,0,0,0,0,0,0,0,0,0,0,0,0,0,0,0,0,0,0,0,0,0,0,0,0,0,0,0,0,0,0,0,0,0,0],"id":0,"left_children":[1,3,5,7,9,11,13,15,17,19,21,23,25,27,29,31,33,35,37,39,41,43,45,47,49,51,53,55,57,59,61,63,65,67,69,71,73,75,-1,77,79,81,83,85,87,89,91,93,95,97,99,101,103,105,107,109,111,113,115,117,119,121,123,-1,-1,-1,-1,-1,-1,-1,-1,-1,-1,-1,-1,-1,-1,-1,-1,-1,-1,-1,-1,-1,-1,-1,-1,-1,-1,-1,-1,-1,-1,-1,-1,-1,-1,-1,-1,-1,-1,-1,-1,-1,-1,-1,-1,-1,-1,-1,-1,-1,-1,-1,-1,-1,-1,-1,-1,-1,-1,-1,-1,-1,-1],"loss_changes":[4.758823E8,1.32856E7,3.305068E8,2.262912E6,5.018359E6,1.3803514E8,1.1953504E7,5.54176E5,9.14568E5,1.2564532E6,3.187E4,1.8357658E8,1.0388902E8,8.174138E6,2.83748E6,1.47792E5,2.90448E5,3.50652E5,1.5488E4,1.4878928E6,2.0737075E5,1.75102E5,6.0625E2,3.2700872E7,1.456258E8,9.96406E5,1.5691226E8,3.102403E6,3.291071E6,1.886976E6,2.83576E5,1.00528E5,1.14488E5,1.31018E5,5.6572E4,1.83857E5,4.131365E5,2.8589E4,0E0,7.943966E5,3.6271455E6,1.7528075E5,3.950386E4,2.4744E4,7.957682E4,3.7079688E2,2.06E2,2.3620568E7,6.600224E6,1.213088E7,8.61276E6,1.95188E5,6.4846E5,2.4734829E8,4.880101E7,2.764581E7,6.21152E5,2.9234962E6,3.1521212E6,1.07858E6,8.999275E5,4.5740765E6,1.9842E5,0E0,0E0,0E0,0E0,0E0,0E0,0E0,0E0,0E0,0E0,0E0,0E0,0E0,0E0,0E0,0E0,0E0,0E0,0E0,0E0,0E0,0E0,0E0,0E0,0E0,0E0,0E0,0E0,0E0,0E0,0E0,0E0,0E0,0E0,0E0,0E0,0E0,0E0,0E0,0E0,0E0,0E0,0E0,0E0,0E0,0E0,0E0,0E0,0E0,0E0,0E0,0E0,0E0,0E0,0E0,0E0,0E0,0E0,0E0,0E0,0E0,0E0],"parents":[2147483647,0,0,1,1,2,2,3,3,4,4,5,5,6,6,7,7,8,8,9,9,10,10,11,11,12,12,13,13,14,14,15,15,16,16,17,17,18,18,19,19,20,20,21,21,22,22,23,23,24,24,25,25,26,26,27,27,28,28,29,29,30,30,31,31,32,32,33,33,34,34,35,35,36,36,37,37,39,39,40,40,41,41,42,42,43,43,44,44,45,45,46,46,47,47,48,48,49,49,50,50,51,51,52,52,53,53,54,54,55,55,56,56,57,57,58,58,59,59,60,60,61,61,62,62],"right_children":[2,4,6,8,10,12,14,16,18,20,22,24,26,28,30,32,34,36,38,40,42,44,46,48,50,52,54,56,58,60,62,64,66,68,70,72,74,76,-1,78,80,82,84,86,88,90,92,94,96,98,100,102,104,106,108,110,112,114,116,118,120,122,124,-1,-1,-1,-1,-1,-1,-1,-1,-1,-1,-1,-1,-1,-1,-1,-1,-1,-1,-1,-1,-1,-1,-1,-1,-1,-1,-1,-1,-1,-1,-1,-1,-1,-1,-1,-1,-1,-1,-1,-1,-1,-1,-1,-1,-1,-1,-1,-1,-1,-1,-1,-1,-1,-1,-1,-1,-1,-1,-1,-1,-1,-1],"split_conditions":[7E0,6E0,1.9E1,5E0,5E0,2.85608E0,2.1E1,5E0,5E0,5.04474E0,5.3819795E0,1.88E1,5.080555E1,1.47E1,2.3E1,4E0,2E0,5.102805E1,5.3819795E0,4.70796E0,5.123299E1,5.341758E0,5.44375E0,5.113425E1,5.113425E1,5.075848E1,5.089132E1,5.0887123E1,2.85608E0,1.56E1,5.0887123E1,1E0,3.80406E0,5.081925E1,5.081925E1,5.079286E1,5.17691E0,5.341758E0,-1.9494141E0,5.079286E1,4.7153726E0,5.341758E0,5.125484E1,5.079286E1,1.58E1,5.095589E1,6E0,1.35E1,1.35E1,7E0,5.113438E1,1.28E1,5.0779755E1,5.0887074E1,5E0,5.0887074E1,5.3819795E0,5.113425E1,5.094366E1,5.0887123E1,5.08058E1,5.0887074E1,1.46E1,-1.8313894E0,-1.9337361E0,-1.6342556E0,-1.8461787E0,-1.8766634E0,-1.5367975E0,-1.9571933E0,-1.7740431E0,-1.9289843E0,-1.4023999E0,-1.0039006E0,-1.665271E0,-1.7923783E0,-1.1727651E0,-1.648493E0,-4.220701E-1,4.1102977E0,-7.618848E-2,-1.4588886E0,-9.4541466E-1,1.3712238E-1,-7.7181274E-1,-1.9515272E0,-1.6526371E0,-6.612795E-1,1.8773669E0,-1.673694E0,-1.8826746E0,-1.8676485E0,-1.930406E0,4.8032527E0,1.4833966E1,6.785206E-1,3.7309983E0,2.639568E1,4.015054E1,6.3958826E0,1.2933707E1,-1.7387192E0,-1.455726E0,-5.3051907E-1,-1.3356181E0,2.3321972E0,1.0564479E1,1.3007991E0,6.031691E-2,-5.942066E-1,1.4098457E1,-1.0381546E0,-1.6463547E0,7.579769E0,1.3442373E0,5.973639E-1,-3.64231E-1,-8.555442E-1,-1.3388135E0,-1.7604259E0,-6.381585E-1,-1.5058074E0,4.969731E0,-1.7103577E0,-1.4460529E0],"split_indices":[2,2,2,2,3,1,2,3,3,1,1,5,0,5,2,2,2,0,1,1,0,1,1,0,0,0,0,0,1,5,0,2,1,0,0,0,1,1,0,0,1,1,0,0,8,0,3,5,5,4,0,5,0,0,3,0,1,0,0,0,0,0,5,0,0,0,0,0,0,0,0,0,0,0,0,0,0,0,0,0,0,0,0,0,0,0,0,0,0,0,0,0,0,0,0,0,0,0,0,0,0,0,0,0,0,0,0,0,0,0,0,0,0,0,0,0,0,0,0,0,0,0,0,0,0],"split_type":[0,0,0,0,0,0,0,0,0,0,0,0,0,0,0,0,0,0,0,0,0,0,0,0,0,0,0,0,0,0,0,0,0,0,0,0,0,0,0,0,0,0,0,0,0,0,0,0,0,0,0,0,0,0,0,0,0,0,0,0,0,0,0,0,0,0,0,0,0,0,0,0,0,0,0,0,0,0,0,0,0,0,0,0,0,0,0,0,0,0,0,0,0,0,0,0,0,0,0,0,0,0,0,0,0,0,0,0,0,0,0,0,0,0,0,0,0,0,0,0,0,0,0,0,0],"sum_hessian":[4.309709E6,1.257562E6,3.052147E6,1.078117E6,1.79445E5,2.154875E6,8.97272E5,8.98375E5,1.79742E5,1.28175E5,5.127E4,5.5741E4,2.099134E6,3.5925E5,5.38022E5,6.41939E5,2.56436E5,1.28487E5,5.1255E4,9.7454E4,3.0721E4,4.4886E4,6.384E3,4.3567E4,1.2174E4,1.39314E5,1.95982E6,2.09517E5,1.49733E5,3.58717E5,1.79305E5,5.13542E5,1.28397E5,1.02696E5,1.5374E5,6.7267E4,6.122E4,4.4817E4,6.438E3,8.0644E4,1.681E4,2.8467E4,2.254E3,4.4095E4,7.91E2,6.32E2,5.752E3,1.0848E4,3.2719E4,3.061E3,9.113E3,9.7617E4,4.1697E4,4.04294E5,1.555526E6,5.033E4,1.59187E5,4.032E3,1.45701E5,2.52752E5,1.05965E5,4.3044E4,1.36261E5,1.28459E5,3.85083E5,3.5228E4,9.3169E4,1.3012E4,8.9684E4,1.9411E4,1.34329E5,7.466E3,5.9801E4,4.9547E4,1.1673E4,4.4052E4,7.65E2,5.681E3,7.4963E4,2.416E3,1.4394E4,1.0598E4,1.7869E4,1.567E3,6.87E2,3.005E3,4.109E4,6.39E2,1.52E2,3.52E2,2.8E2,2.908E3,2.844E3,7.412E3,3.436E3,2.2349E4,1.037E4,9.3E2,2.131E3,3.014E3,6.099E3,4.9011E4,4.8606E4,1.6669E4,2.5028E4,3.63726E5,4.0568E4,1.111828E6,4.43698E5,4.9016E4,1.314E3,1.40105E5,1.9082E4,9.99E2,3.033E3,5.44E4,9.1301E4,6.0826E4,1.91926E5,7.705E3,9.826E4,4.1925E4,1.119E3,9.5812E4,4.0449E4],"tree_param":{"num_deleted":"0","num_feature":"10","num_nodes":"125","size_leaf_vector":"1"}},{"base_weights":[2.29274E-5,-1.4733536E1,6.070626E0,-1.5926974E1,-7.563232E0,1.2114031E1,-8.443123E0,-1.6510225E1,-1.3011736E1,-4.5529695E0,-1.5088653E1,5.6319298E1,1.09401655E1,-9.957952E0,-9.087575E-1,-1.6957102E1,-1.5391491E1,-1.1729276E1,-1.622634E1,-2.9707918E0,-9.571736E0,-1.4819423E1,-1.6979E1,2.796577E1,1.5042465E2,-1.2807311E1,1.26282625E1,-4.719173E0,-1.1108164E1,3.4454691E0,-6.3394756E0,-1.7173252E1,-1.609245E1,-1.4603805E1,-1.6572739E1,-1.3147912E1,-1.0170324E1,-1.5359942E1,-1.6553196E1,-4.5513515E0,5.0748196E0,-7.624947E0,-1.3055042E1,-1.5057529E1,-1.5437114E0,-1.5927593E1,-1.7091734E1,6.958071E1,1.4164833E1,3.1720465E2,9.444184E1,-1.43804655E1,-9.124137E0,2.9432505E1,8.624009E0,3.0931592E0,-7.343153E0,-9.955474E0,-1.4287868E1,4.120937E1,2.3668041E0,-4.6120644E0,-1.1683947E1,-1.6482521E0,-1.7403628E0,-1.4708346E0,-1.6615628E0,-1.4289445E0,-1.7469023E0,-1.6399733E0,-1.8034514E0,-1.7361119E0,-1.2621622E0,-1.4865756E0,-8.945052E-1,-1.5994533E0,-1.4665583E0,-1.8015054E0,-1.6409854E0,-1.4836727E0,-3.7800205E-1,8.226885E0,1.01244405E-1,-1.1048855E0,-1.2068798E-1,-1.7644037E0,-1.2361253E0,-1.7564394E0,-1.4873774E0,-7.6192737E-1,1.3800569E0,-1.5067987E0,-1.6950772E0,-1.6809479E0,-1.7374333E0,3.7900326E0,1.1990189E1,4.9438754E-1,3.029498E0,2.5021515E1,3.6859856E1,5.596099E0,1.1340313E1,-1.2839121E0,-1.5470841E0,-4.7747025E-1,-1.2020615E0,2.0989783E0,2.5844412E1,1.7816504E0,5.303143E-1,-4.3497902E-1,3.6142902E0,-9.7552025E-1,-3.6495796E-1,-1.7759398E0,-9.3621475E-1,-1.3419305E0,-1.5882643E0,9.877964E0,2.2039733E0,-1.6819012E0,3.777629E-1,1.4386114E0,-5.163047E-1,-1.782094E0,-1.1211629E0],"categories":[],"categories_nodes":[],"categories_segments":[],"categories_sizes":[],"default_left":[0,0,0,0,0,0,0,0,0,0,0,0,0,0,0,0,0,0,0,0,0,0,0,0,0,0,0,0,0,0,0,0,0,0,0,0,0,0,0,0,0,0,0,0,0,0,0,0,0,0,0,0,0,0,0,0,0,0,0,0,0,0,0,0,0,0,0,0,0,0,0,0,0,0,0,0,0,0,0,0,0,0,0,0,0,0,0,0,0,0,0,0,0,0,0,0,0,0,0,0,0,0,0,0,0,0,0,0,0,0,0,0,0,0,0,0,0,0,0,0,0,0,0,0,0,0,0],"id":1,"left_children":[1,3,5,7,9,11,13,15,17,19,21,23,25,27,29,31,33,35,37,39,41,43,45,47,49,51,53,55,57,59,61,63,65,67,69,71,73,75,77,79,81,83,85,87,89,91,93,95,97,99,101,103,105,107,109,111,113,115,117,119,121,123,125,-1,-1,-1,-1,-1,-1,-1,-1,-1,-1,-1,-1,-1,-1,-1,-1,-1,-1,-1,-1,-1,-1,-1,-1,-1,-1,-1,-1,-1,-1,-1,-1,-1,-1,-1,-1,-1,-1,-1,-1,-1,-1,-1,-1,-1,-1,-1,-1,-1,-1,-1,-1,-1,-1,-1,-1,-1,-1,-1,-1,-1,-1,-1,-1],"loss_changes":[3.8546736E8,1.076128E7,2.6771152E8,1.832896E6,4.065009E6,1.1181814E8,1.024082E7,4.4888E5,7.4082E5,1.0177635E6,2.5843E4,1.4872765E8,8.415038E7,4.501568E6,3.551832E6,1.19696E5,2.3836E5,2.84028E5,1.4261E4,1.2393162E6,2.082345E5,1.41866E5,4.845E2,2.4601382E7,1.2047094E8,8.07088E5,1.3187306E8,2.7571312E6,2.245072E6,3.3957415E6,6.1701975E5,8.1424E4,9.2732E4,1.3833E5,2.5644E4,1.48939E5,3.520825E5,5.95825E3,7.5E3,6.4615325E5,5.0180015E6,4.3311138E5,3.4845E4,2.0051E4,7.393945E4,3.0132812E2,1.67E2,1.7002316E7,4.7846685E6,1.107296E7,7.044952E6,1.63862E5,5.2525575E5,7.291781E8,4.8314656E7,8.3187185E6,8.96939E5,2.081584E6,2.25542E5,2.5526592E6,2.193938E6,5.288475E5,4.7123E4,0E0,0E0,0E0,0E0,0E0,0E0,0E0,0E0,0E0,0E0,0E0,0E0,0E0,0E0,0E0,0E0,0E0,0E0,0E0,0E0,0E0,0E0,0E0,0E0,0E0,0E0,0E0,0E0,0E0,0E0,0E0,0E0,0E0,0E0,0E0,0E0,0E0,0E0,0E0,0E0,0E0,0E0,0E0,0E0,0E0,0E0,0E0,0E0,0E0,0E0,0E0,0E0,0E0,0E0,0E0,0E0,0E0,0E0,0E0,0E0,0E0,0E0,0E0,0E0],"parents":[2147483647,0,0,1,1,2,2,3,3,4,4,5,5,6,6,7,7,8,8,9,9,10,10,11,11,12,12,13,13,14,14,15,15,16,16,17,17,18,18,19,19,20,20,21,21,22,22,23,23,24,24,25,25,26,26,27,27,28,28,29,29,30,30,31,31,32,32,33,33,34,34,35,35,36,36,37,37,38,38,39,39,40,40,41,41,42,42,43,43,44,44,45,45,46,46,47,47,48,48,49,49,50,50,51,51,52,52,53,53,54,54,55,55,56,56,57,57,58,58,59,59,60,60,61,61,62,62],"right_children":[2,4,6,8,10,12,14,16,18,20,22,24,26,28,30,32,34,36,38,40,42,44,46,48,50,52,54,56,58,60,62,64,66,68,70,72,74,76,78,80,82,84,86,88,90,92,94,96,98,100,102,104,106,108,110,112,114,116,118,120,122,124,126,-1,-1,-1,-1,-1,-1,-1,-1,-1,-1,-1,-1,-1,-1,-1,-1,-1,-1,-1,-1,-1,-1,-1,-1,-1,-1,-1,-1,-1,-1,-1,-1,-1,-1,-1,-1,-1,-1,-1,-1,-1,-1,-1,-1,-1,-1,-1,-1,-1,-1,-1,-1,-1,-1,-1,-1,-1,-1,-1,-1,-1,-1,-1,-1],"split_conditions":[7E0,6E0,1.9E1,5E0,5E0,2.85608E0,1.9E1,5E0,5E0,5.04474E0,5.3819795E0,1.85E1,5.080555E1,2E1,2.1E1,4E0,3E0,5.102805E1,3.80406E0,4.7087917E0,5.48927E0,5.341758E0,5.44375E0,5.113425E1,5.113425E1,5.075848E1,5.0887123E1,5.089132E1,2.3E1,2.85608E0,2.3E1,1E0,3.80406E0,5.47817E0,5.44377E0,5.079286E1,3.24095E0,3.24095E0,5.080555E1,5.079286E1,4.71526E0,5.341758E0,5.50161E0,5.079286E1,1.29E1,5.095589E1,6E0,1.22E1,1.25E1,2.13E1,5.113438E1,7.3E1,5.0779755E1,5.0887074E1,6.4E1,5.087549E1,1.24E1,5.08058E1,4.7153726E0,5.113425E1,5.080555E1,2.85608E0,5.080555E1,-1.6482521E0,-1.7403628E0,-1.4708346E0,-1.6615628E0,-1.4289445E0,-1.7469023E0,-1.6399733E0,-1.8034514E0,-1.7361119E0,-1.2621622E0,-1.4865756E0,-8.945052E-1,-1.5994533E0,-1.4665583E0,-1.8015054E0,-1.6409854E0,-1.4836727E0,-3.7800205E-1,8.226885E0,1.01244405E-1,-1.1048855E0,-1.2068798E-1,-1.7644037E0,-1.2361253E0,-1.7564394E0,-1.4873774E0,-7.6192737E-1,1.3800569E0,-1.5067987E0,-1.6950772E0,-1.6809479E0,-1.7374333E0,3.7900326E0,1.1990189E1,4.9438754E-1,3.029498E0,2.5021515E1,3.6859856E1,5.596099E0,1.1340313E1,-1.2839121E0,-1.5470841E0,-4.7747025E-1,-1.2020615E0,2.0989783E0,2.5844412E1,1.7816504E0,5.303143E-1,-4.3497902E-1,3.6142902E0,-9.7552025E-1,-3.6495796E-1,-1.7759398E0,-9.3621475E-1,-1.3419305E0,-1.5882643E0,9.877964E0,2.2039733E0,-1.6819012E0,3.777629E-1,1.4386114E0,-5.163047E-1,-1.782094E0,-1.1211629E0],"split_indices":[2,2,2,2,3,1,5,3,3,1,1,5,0,2,2,2,2,0,1,1,1,1,1,0,0,0,0,0,2,1,2,2,1,1,1,0,1,1,0,0,1,1,1,0,5,0,3,5,5,5,0,6,0,0,6,0,5,0,1,0,0,1,0,0,0,0,0,0,0,0,0,0,0,0,0,0,0,0,0,0,0,0,0,0,0,0,0,0,0,0,0,0,0,0,0,0,0,0,0,0,0,0,0,0,0,0,0,0,0,0,0,0,0,0,0,0,0,0,0,0,0,0,0,0,0,0,0],"split_type":[0,0,0,0,0,0,0,0,0,0,0,0,0,0,0,0,0,0,0,0,0,0,0,0,0,0,0,0,0,0,0,0,0,0,0,0,0,0,0,0,0,0,0,0,0,0,0,0,0,0,0,0,0,0,0,0,0,0,0,0,0,0,0,0,0,0,0,0,0,0,0,0,0,0,0,0,0,0,0,0,0,0,0,0,0,0,0,0,0,0,0,0,0,0,0,0,0,0,0,0,0,0,0,0,0,0,0,0,0,0,0,0,0,0,0,0,0,0,0,0,0,0,0,0,0,0,0],"sum_hessian":[4.309709E6,1.257562E6,3.052147E6,1.078117E6,1.79445E5,2.154875E6,8.97272E5,8.98375E5,1.79742E5,1.28175E5,5.127E4,5.5741E4,2.099134E6,7.47069E5,1.50203E5,6.41939E5,2.56436E5,1.28487E5,5.1255E4,9.7454E4,3.0721E4,4.4886E4,6.384E3,4.2836E4,1.2905E4,1.39314E5,1.95982E6,1.34496E5,6.12573E5,8.3364E4,6.6839E4,5.13542E5,1.28397E5,1.53855E5,1.02581E5,6.7267E4,6.122E4,1.4053E4,3.7202E4,8.1453E4,1.6001E4,1.9709E4,1.1012E4,4.4095E4,7.91E2,6.32E2,5.752E3,1.0667E4,3.2169E4,3.242E3,9.663E3,9.7617E4,4.1697E4,3.77134E5,1.582686E6,3.3816E4,1.0068E5,4.49593E5,1.6298E5,2.314E3,8.105E4,5.0514E4,1.6325E4,1.28459E5,3.85083E5,3.5228E4,9.3169E4,1.38649E5,1.5206E4,9.1736E4,1.0845E4,7.466E3,5.9801E4,1.2667E4,4.8553E4,7.331E3,6.722E3,3.311E3,3.3891E4,5.681E3,7.5772E4,7.99E2,1.5202E4,1.2852E4,6.857E3,1.443E3,9.569E3,3.005E3,4.109E4,5.67E2,2.24E2,3.52E2,2.8E2,2.908E3,2.844E3,6.547E3,4.12E3,2.0469E4,1.17E4,1.41E3,1.832E3,3.191E3,6.472E3,4.045E4,5.7167E4,1.6669E4,2.5028E4,3.63726E5,1.3408E4,4.20021E5,1.162665E6,2.7601E4,6.215E3,6.0905E4,3.9775E4,3.1765E4,4.17828E5,1.0552E5,5.746E4,5.77E2,1.737E3,5.551E3,7.5499E4,1.423E3,4.9091E4,1.164E3,1.5161E4],"tree_param":{"num_deleted":"0","num_feature":"10","num_nodes":"127","size_leaf_vector":"1"}},{"base_weights":[4.3220713E-5,-1.3260208E1,5.463606E0,-1.4334301E1,-6.8069477E0,1.0902686E1,-7.598805E0,-1.4859217E1,-1.17106285E1,-4.097655E0,-1.3579968E1,5.068913E1,9.846162E0,-8.962162E0,-8.178239E-1,-1.5261402E1,-1.3852368E1,-1.0556391E1,-1.4603831E1,-1.3838548E1,-3.4240532E0,-1.3337539E1,-1.5282137E1,2.7668152E1,1.4532886E2,1.3480819E1,7.364857E-1,-4.848849E0,-1.0260848E1,5.9186864E0,-3.7077758E0,-1.5455934E1,-1.448323E1,-1.2758664E1,-1.4582858E1,-9.7127075E0,-1.323552E1,-1.4417882E1,-1.5895848E1,-1.5471196E1,-9.989752E0,-2.4290688E0,-1.1203122E1,-1.3463405E1,8.234621E0,-1.4648527E1,-1.5442802E1,6.803969E1,1.4252535E1,3.0537878E2,9.19285E1,-1.1191989E1,1.5235074E1,-4.9749484E0,1.0137911E1,-7.7325325E0,1.0259002E2,-7.974144E0,-1.16003275E1,4.5372936E1,4.7974057E0,1.5982109E1,-4.2764916E0,-1.4834281E0,-1.566327E0,-1.3237554E0,-1.4954084E0,-1.5444373E0,-1.2368835E0,-1.6033261E0,-1.4373153E0,-1.0385116E0,1.0392028E0,-1.0561379E0,-1.4135233E0,-1.4513196E0,-8.917573E-1,-1.5586599E0,-1.606347E0,-1.4802417E0,-1.7019013E0,-5.159206E-1,-1.2375622E0,-4.6286654E-1,-3.314654E-2,-9.898947E-1,-1.3292353E0,-1.355185E0,-6.107097E-1,-6.9027704E-1,7.07004E0,-1.3565457E0,-1.5031922E0,-1.5669203E0,-1.5128763E0,4.422086E0,1.4285857E1,7.0372325E-1,3.7156804E0,2.1585846E1,3.433379E1,5.4719515E0,1.1029532E1,-1.2870744E0,-7.258705E-1,2.7829003E0,9.063736E-1,-1.4277242E0,-2.2547367E-1,1.3033527E0,-7.415657E-2,-1.3313882E0,-4.2201858E-2,1.6972765E1,8.775456E0,-9.940836E-1,-4.8569104E-1,-1.0588785E0,-1.351251E0,1.0304615E1,2.5831697E0,1.1636591E0,6.990573E-2,4.7890677E0,5.415442E-1,-1.5745131E0,-3.406646E-1],"categories":[],"categories_nodes":[],"categories_segments":[],"categories_sizes":[],"default_left":[0,0,0,0,0,0,0,0,0,0,0,0,0,0,0,0,0,0,0,0,0,0,0,0,0,0,0,0,0,0,0,0,0,0,0,0,0,0,0,0,0,0,0,0,0,0,0,0,0,0,0,0,0,0,0,0,0,0,0,0,0,0,0,0,0,0,0,0,0,0,0,0,0,0,0,0,0,0,0,0,0,0,0,0,0,0,0,0,0,0,0,0,0,0,0,0,0,0,0,0,0,0,0,0,0,0,0,0,0,0,0,0,0,0,0,0,0,0,0,0,0,0,0,0,0,0,0],"id":2,"left_children":[1,3,5,7,9,11,13,15,17,19,21,23,25,27,29,31,33,35,37,39,41,43,45,47,49,51,53,55,57,59,61,63,65,67,69,71,73,75,77,79,81,83,85,87,89,91,93,95,97,99,101,103,105,107,109,111,113,115,117,119,121,123,125,-1,-1,-1,-1,-1,-1,-1,-1,-1,-1,-1,-1,-1,-1,-1,-1,-1,-1,-1,-1,-1,-1,-1,-1,-1,-1,-1,-1,-1,-1,-1,-1,-1,-1,-1,-1,-1,-1,-1,-1,-1,-1,-1,-1,-1,-1,-1,-1,-1,-1,-1,-1,-1,-1,-1,-1,-1,-1,-1,-1,-1,-1,-1,-1],"loss_changes":[3.1223085E8,8.716576E6,2.1684755E8,1.484608E6,3.292796E6,9.058042E7,8.295184E6,3.63584E5,6.00086E5,8.4097725E5,2.0954E4,1.2144102E8,6.95035E7,3.990732E6,2.9242222E6,9.696E4,2.04692E5,2.90298E5,1.2086E4,5.19375E4,9.279046E5,1.21987E5,4.2375E2,2.428316E7,9.318251E7,6.4943936E7,3.2146006E7,5.5542796E7,1.739072E6,1.9946644E6,1.1771071E6,6.5952E4,7.5112E4,1.0733E5,4.6532E4,1.321145E6,7.38795E4,2.3367E4,8.35E1,5.771625E3,2.8426062E4,4.9042175E5,3.6911E4,2.8953E4,2.4728152E5,3.405E2,1.2375E2,1.9922896E7,5.561605E6,9.195936E6,5.583584E6,6.57588E5,1.0887683E8,9.423812E6,7.127484E6,7.123588E6,4.652444E6,1.28581E6,6.92432E5,1.4015878E6,1.2290236E6,9.94721E5,1.019109E6,0E0,0E0,0E0,0E0,0E0,0E0,0E0,0E0,0E0,0E0,0E0,0E0,0E0,0E0,0E0,0E0,0E0,0E0,0E0,0E0,0E0,0E0,0E0,0E0,0E0,0E0,0E0,0E0,0E0,0E0,0E0,0E0,0E0,0E0,0E0,0E0,0E0,0E0,0E0,0E0,0E0,0E0,0E0,0E0,0E0,0E0,0E0,0E0,0E0,0E0,0E0,0E0,0E0,0E0,0E0,0E0,0E0,0E0,0E0,0E0,0E0,0E0,0E0,0E0],"parents":[2147483647,0,0,1,1,2,2,3,3,4,4,5,5,6,6,7,7,8,8,9,9,10,10,11,11,12,12,13,13,14,14,15,15,16,16,17,17,18,18,19,19,20,20,21,21,22,22,23,23,24,24,25,25,26,26,27,27,28,28,29,29,30,30,31,31,32,32,33,33,34,34,35,35,36,36,37,37,38,38,39,39,40,40,41,41,42,42,43,43,44,44,45,45,46,46,47,47,48,48,49,49,50,50,51,51,52,52,53,53,54,54,55,55,56,56,57,57,58,58,59,59,60,60,61,61,62,62],"right_children":[2,4,6,8,10,12,14,16,18,20,22,24,26,28,30,32,34,36,38,40,42,44,46,48,50,52,54,56,58,60,62,64,66,68,70,72,74,76,78,80,82,84,86,88,90,92,94,96,98,100,102,104,106,108,110,112,114,116,118,120,122,124,126,-1,-1,-1,-1,-1,-1,-1,-1,-1,-1,-1,-1,-1,-1,-1,-1,-1,-1,-1,-1,-1,-1,-1,-1,-1,-1,-1,-1,-1,-1,-1,-1,-1,-1,-1,-1,-1,-1,-1,-1,-1,-1,-1,-1,-1,-1,-1,-1,-1,-1,-1,-1,-1,-1,-1,-1,-1,-1,-1,-1,-1,-1,-1,-1],"split_conditions":[7E0,6E0,1.9E1,5E0,5E0,2.85608E0,1.9E1,5E0,5E0,5.080555E1,5.3819795E0,1.94E1,5E0,5.0887123E1,2E1,4E0,2E0,5.04474E0,5.3819795E0,5.075848E1,5.44375E0,5.3438616E0,5.47817E0,5.113425E1,5.113425E1,5.080555E1,1.51E1,5.0887074E1,2.1E1,2.85608E0,2.85608E0,1E0,3.80406E0,5.081925E1,5.081925E1,4.939479E0,5.094366E1,5.341758E0,5.097043E1,4.34013E0,5.0766994E1,4.41497E0,5.63012E0,5.341758E0,1.58E1,5.095589E1,1.06E1,1.51E1,1.51E1,7E0,5.113438E1,5.075848E1,5.094366E1,9E0,7.6E1,5.083066E1,2E1,1.24E1,2.3E1,5.113425E1,5.094366E1,5.113425E1,5.080555E1,-1.4834281E0,-1.566327E0,-1.3237554E0,-1.4954084E0,-1.5444373E0,-1.2368835E0,-1.6033261E0,-1.4373153E0,-1.0385116E0,1.0392028E0,-1.0561379E0,-1.4135233E0,-1.4513196E0,-8.917573E-1,-1.5586599E0,-1.606347E0,-1.4802417E0,-1.7019013E0,-5.159206E-1,-1.2375622E0,-4.6286654E-1,-3.314654E-2,-9.898947E-1,-1.3292353E0,-1.355185E0,-6.107097E-1,-6.9027704E-1,7.07004E0,-1.3565457E0,-1.5031922E0,-1.5669203E0,-1.5128763E0,4.422086E0,1.4285857E1,7.0372325E-1,3.7156804E0,2.1585846E1,3.433379E1,5.4719515E0,1.1029532E1,-1.2870744E0,-7.258705E-1,2.7829003E0,9.063736E-1,-1.4277242E0,-2.2547367E-1,1.3033527E0,-7.415657E-2,-1.3313882E0,-4.2201858E-2,1.6972765E1,8.775456E0,-9.940836E-1,-4.8569104E-1,-1.0588785E0,-1.351251E0,1.0304615E1,2.5831697E0,1.1636591E0,6.990573E-2,4.7890677E0,5.415442E-1,-1.5745131E0,-3.406646E-1],"split_indices":[2,2,2,2,3,1,5,3,3,0,1,5,3,0,2,2,2,1,1,0,1,1,1,0,0,0,5,0,2,1,1,2,1,0,0,1,0,1,0,1,0,1,1,1,8,0,5,5,5,4,0,0,0,2,6,0,2,5,2,0,0,0,0,0,0,0,0,0,0,0,0,0,0,0,0,0,0,0,0,0,0,0,0,0,0,0,0,0,0,0,0,0,0,0,0,0,0,0,0,0,0,0,0,0,0,0,0,0,0,0,0,0,0,0,0,0,0,0,0,0,0,0,0,0,0,0,0],"split_type":[0,0,0,0,0,0,0,0,0,0,0,0,0,0,0,0,0,0,0,0,0,0,0,0,0,0,0,0,0,0,0,0,0,0,0,0,0,0,0,0,0,0,0,0,0,0,0,0,0,0,0,0,0,0,0,0,0,0,0,0,0,0,0,0,0,0,0,0,0,0,0,0,0,0,0,0,0,0,0,0,0,0,0,0,0,0,0,0,0,0,0,0,0,0,0,0,0,0,0,0,0,0,0,0,0,0,0,0,0,0,0,0,0,0,0,0,0,0,0,0,0,0,0,0,0,0,0],"sum_hessian":[4.309709E6,1.257562E6,3.052147E6,1.078117E6,1.79445E5,2.154875E6,8.97272E5,8.98375E5,1.79742E5,1.28175E5,5.127E4,5.5741E4,2.099134E6,7.47069E5,1.50203E5,6.41939E5,2.56436E5,1.28487E5,5.1255E4,8.289E3,1.19886E5,4.4886E4,6.384E3,4.4836E4,1.0905E4,1.500465E6,5.98669E5,1.79271E5,5.67798E5,4.5092E4,1.05111E5,5.13542E5,1.28397E5,1.02696E5,1.5374E5,9.7719E4,3.0768E4,4.4817E4,6.438E3,5.818E3,2.471E3,1.06292E5,1.3594E4,4.4626E4,2.6E2,1.31E3,5.074E3,1.1182E4,3.3654E4,2.727E3,8.178E3,9.9602E4,1.400863E6,3.72421E5,2.26248E5,1.74586E5,4.685E3,2.09742E5,3.58056E5,1.245E3,4.3847E4,2.95E3,1.02161E5,1.28459E5,3.85083E5,3.5228E4,9.3169E4,1.3012E4,8.9684E4,1.9411E4,1.34329E5,9.4557E4,3.162E3,7.749E3,2.3019E4,4.4052E4,7.65E2,2.296E3,4.142E3,4.07E3,1.748E3,8.18E2,1.653E3,5.1884E4,5.4408E4,8.373E3,5.221E3,4.4095E4,5.31E2,2.1E2,5E1,3.52E2,9.58E2,2.92E3,2.154E3,8.483E3,2.699E3,2.5593E4,8.061E3,8.14E2,1.913E3,2.704E3,5.474E3,6.9806E4,2.9796E4,4.60701E5,9.40162E5,8.4263E4,2.88158E5,1.78689E5,4.7559E4,9.9001E4,7.5585E4,8.46E2,3.839E3,1.28603E5,8.1139E4,2.34181E5,1.23875E5,3.14E2,9.31E2,1.6429E4,2.7418E4,7.33E2,2.217E3,7.201E3,9.496E4],"tree_param":{"num_deleted":"0","num_feature":"10","num_nodes":"127","size_leaf_vector":"1"}},{"base_weights":[6.31755E-5,-1.1934211E1,4.917289E0,-1.2900888E1,-6.126305E0,9.812462E0,-6.8388824E0,-1.3373308E1,-1.053961E1,-3.6879504E0,-1.2222002E1,4.562193E1,8.861546E0,-2.2135527E0,-8.56191E0,-1.37352705E1,-1.24671545E1,-9.5007715E0,-1.3143556E1,-2.3374348E0,-7.9718776E0,-1.1617458E1,-1.2829187E1,2.3383213E1,1.25199E2,-1.0751159E1,1.0255721E1,1.1368065E0,-6.614632E0,-5.015469E0,-9.676107E0,-1.3910346E1,-1.3034929E1,-1.1806961E1,-1.3457213E1,-8.721232E0,-1.1892124E1,-1.2372951E1,-1.3434311E1,-3.7004926E0,4.601002E0,-8.5932455E0,-1.23950176E-1,-1.4309507E1,-1.1429551E1,-8.591395E0,-1.2940426E1,5.800506E1,1.1902903E1,2.6301202E2,7.8884674E1,-1.2048297E1,-7.714206E0,2.019387E1,5.3868446E0,-1.4992961E1,2.2820616E0,-5.284691E0,-1.0569163E1,-7.5331597E0,8.676228E1,-9.131163E0,-1.3646078E1,-1.4087251E0,-1.3298897E0,-1.1913836E0,-1.3458692E0,-1.2566237E0,-1.0645263E0,-1.3284103E0,-1.4678473E0,-9.3466157E-1,1.6478449E0,-1.229113E0,-6.760724E-1,-1.2944177E0,-1.1748139E0,-1.4752225E0,-1.3305124E0,-1.2046031E0,-3.0746362E-1,5.2534895E0,-7.5379424E-2,-1.1716999E0,-6.7400146E-1,2.3714931E-1,-5.8110595E-1,-1.4581534E0,-1.3634596E0,-1.0179429E0,-1.201166E0,-1.073718E0,-5.645718E-1,-1.2578691E0,-1.3571376E0,3.406206E0,1.0962898E1,5.2331203E-1,2.8868997E0,2.8240614E1,1.0995793E1,4.6681266E0,9.478868E0,-1.315089E0,-1.1046166E0,-3.7984774E-1,-1.032188E0,9.1795397E-1,4.5009456E0,-8.790207E-1,8.9755344E-1,-1.5967649E0,-1.274673E0,1.4623721E0,-5.547852E-2,-1.3602616E0,-4.6119162E-1,-1.0067848E0,-1.3990341E0,-1.2403361E0,-1.1672536E-1,1.0177438E1,3.6344516E0,-9.7979784E-1,1.9496434E0,-1.4157028E0,-1.2130643E0],"categories":[],"categories_nodes":[],"categories_segments":[],"categories_sizes":[],"default_left":[0,0,0,0,0,0,0,0,0,0,0,0,0,0,0,0,0,0,0,0,0,0,0,0,0,0,0,0,0,0,0,0,0,0,0,0,0,0,0,0,0,0,0,0,0,0,0,0,0,0,0,0,0,0,0,0,0,0,0,0,0,0,0,0,0,0,0,0,0,0,0,0,0,0,0,0,0,0,0,0,0,0,0,0,0,0,0,0,0,0,0,0,0,0,0,0,0,0,0,0,0,0,0,0,0,0,0,0,0,0,0,0,0,0,0,0,0,0,0,0,0,0,0,0,0,0,0],"id":3,"left_children":[1,3,5,7,9,11,13,15,17,19,21,23,25,27,29,31,33,35,37,39,41,43,45,47,49,51,53,55,57,59,61,63,65,67,69,71,73,75,77,79,81,83,85,87,89,91,93,95,97,99,101,103,105,107,109,111,113,115,117,119,121,123,125,-1,-1,-1,-1,-1,-1,-1,-1,-1,-1,-1,-1,-1,-1,-1,-1,-1,-1,-1,-1,-1,-1,-1,-1,-1,-1,-1,-1,-1,-1,-1,-1,-1,-1,-1,-1,-1,-1,-1,-1,-1,-1,-1,-1,-1,-1,-1,-1,-1,-1,-1,-1,-1,-1,-1,-1,-1,-1,-1,-1,-1,-1,-1,-1],"loss_changes":[2.52909E8,7.060368E6,1.756466E8,1.202512E6,2.6671455E6,7.337699E7,7.15086E6,2.9448E5,4.86096E5,7.415451E5,1.86705E4,9.864323E7,5.7397936E7,3.5909495E6,2.583172E6,7.8528E4,1.67452E5,2.39417E5,1.1318E4,9.2169694E5,1.498135E5,1.283775E4,1.1943E4,1.7316262E7,7.768885E7,5.48717E5,9.483098E7,2.5543095E6,5.535425E5,3.611404E7,1.076072E6,5.5368E4,6.084E4,1.35576E5,2.1494E4,1.5273075E6,6.45855E4,4.86375E3,6.1375E3,4.2540625E5,4.107373E6,1.6472325E5,3.2016424E4,1.083125E2,1.73645E4,4.0921367E3,5.5155E3,1.3405976E7,3.7024495E6,9.058E6,4.663424E6,1.07717E5,4.25737E5,1.7614029E8,6.6923228E7,1.98665E4,4.5202245E6,4.4075225E5,4.5292E4,4.716104E6,3.154748E6,8.350136E6,4.6318E4,0E0,0E0,0E0,0E0,0E0,0E0,0E0,0E0,0E0,0E0,0E0,0E0,0E0,0E0,0E0,0E0,0E0,0E0,0E0,0E0,0E0,0E0,0E0,0E0,0E0,0E0,0E0,0E0,0E0,0E0,0E0,0E0,0E0,0E0,0E0,0E0,0E0,0E0,0E0,0E0,0E0,0E0,0E0,0E0,0E0,0E0,0E0,0E0,0E0,0E0,0E0,0E0,0E0,0E0,0E0,0E0,0E0,0E0,0E0,0E0,0E0,0E0,0E0,0E0],"parents":[2147483647,0,0,1,1,2,2,3,3,4,4,5,5,6,6,7,7,8,8,9,9,10,10,11,11,12,12,13,13,14,14,15,15,16,16,17,17,18,18,19,19,20,20,21,21,22,22,23,23,24,24,25,25,26,26,27,27,28,28,29,29,30,30,31,31,32,32,33,33,34,34,35,35,36,36,37,37,38,38,39,39,40,40,41,41,42,42,43,43,44,44,45,45,46,46,47,47,48,48,49,49,50,50,51,51,52,52,53,53,54,54,55,55,56,56,57,57,58,58,59,59,60,60,61,61,62,62],"right_children":[2,4,6,8,10,12,14,16,18,20,22,24,26,28,30,32,34,36,38,40,42,44,46,48,50,52,54,56,58,60,62,64,66,68,70,72,74,76,78,80,82,84,86,88,90,92,94,96,98,100,102,104,106,108,110,112,114,116,118,120,122,124,126,-1,-1,-1,-1,-1,-1,-1,-1,-1,-1,-1,-1,-1,-1,-1,-1,-1,-1,-1,-1,-1,-1,-1,-1,-1,-1,-1,-1,-1,-1,-1,-1,-1,-1,-1,-1,-1,-1,-1,-1,-1,-1,-1,-1,-1,-1,-1,-1,-1,-1,-1,-1,-1,-1,-1,-1,-1,-1,-1,-1,-1,-1,-1,-1],"split_conditions":[7E0,6E0,1.9E1,5E0,5E0,2.85608E0,6.9E1,5E0,5E0,5.04474E0,6E0,1.88E1,5.080555E1,2.1E1,5.0887123E1,4E0,3E0,4.99698E0,3.80406E0,4.7087917E0,5.123299E1,5.080555E1,2.85608E0,5.113425E1,5.113425E1,5.075848E1,5.094366E1,5.080555E1,2.3E1,5.0887074E1,5.3819795E0,1.48E1,3.80406E0,1.23E1,5.3819795E0,4.939479E0,5.123299E1,3.24095E0,5.080555E1,5.079286E1,4.7153726E0,5.341758E0,5.125484E1,5.075848E1,5.094366E1,1.06E1,4.7153726E0,1.35E1,1.41E1,1.8E1,5.113438E1,1.22E1,5.0779755E1,4.70796E0,5.0990395E1,5.075848E1,5.0887123E1,5.08058E1,5.3819795E0,5.083066E1,2.3E1,5.30314E0,5.11347E1,-1.4087251E0,-1.3298897E0,-1.1913836E0,-1.3458692E0,-1.2566237E0,-1.0645263E0,-1.3284103E0,-1.4678473E0,-9.3466157E-1,1.6478449E0,-1.229113E0,-6.760724E-1,-1.2944177E0,-1.1748139E0,-1.4752225E0,-1.3305124E0,-1.2046031E0,-3.0746362E-1,5.2534895E0,-7.5379424E-2,-1.1716999E0,-6.7400146E-1,2.3714931E-1,-5.8110595E-1,-1.4581534E0,-1.3634596E0,-1.0179429E0,-1.201166E0,-1.073718E0,-5.645718E-1,-1.2578691E0,-1.3571376E0,3.406206E0,1.0962898E1,5.2331203E-1,2.8868997E0,2.8240614E1,1.0995793E1,4.6681266E0,9.478868E0,-1.315089E0,-1.1046166E0,-3.7984774E-1,-1.032188E0,9.1795397E-1,4.5009456E0,-8.790207E-1,8.9755344E-1,-1.5967649E0,-1.274673E0,1.4623721E0,-5.547852E-2,-1.3602616E0,-4.6119162E-1,-1.0067848E0,-1.3990341E0,-1.2403361E0,-1.1672536E-1,1.0177438E1,3.6344516E0,-9.7979784E-1,1.9496434E0,-1.4157028E0,-1.2130643E0],"split_indices":[2,2,2,2,3,1,6,3,3,1,3,5,0,2,0,2,2,1,1,1,0,0,1,0,0,0,0,0,2,0,1,5,1,5,1,1,0,1,0,0,1,1,0,0,0,5,1,5,5,2,0,5,0,1,0,0,0,0,1,0,2,1,0,0,0,0,0,0,0,0,0,0,0,0,0,0,0,0,0,0,0,0,0,0,0,0,0,0,0,0,0,0,0,0,0,0,0,0,0,0,0,0,0,0,0,0,0,0,0,0,0,0,0,0,0,0,0,0,0,0,0,0,0,0,0,0,0],"split_type":[0,0,0,0,0,0,0,0,0,0,0,0,0,0,0,0,0,0,0,0,0,0,0,0,0,0,0,0,0,0,0,0,0,0,0,0,0,0,0,0,0,0,0,0,0,0,0,0,0,0,0,0,0,0,0,0,0,0,0,0,0,0,0,0,0,0,0,0,0,0,0,0,0,0,0,0,0,0,0,0,0,0,0,0,0,0,0,0,0,0,0,0,0,0,0,0,0,0,0,0,0,0,0,0,0,0,0,0,0,0,0,0,0,0,0,0,0,0,0,0,0,0,0,0,0,0,0],"sum_hessian":[4.309709E6,1.257562E6,3.052147E6,1.078117E6,1.79445E5,2.154875E6,8.97272E5,8.98375E5,1.79742E5,1.28175E5,5.127E4,5.5741E4,2.099134E6,2.43532E5,6.5374E5,6.41939E5,2.56436E5,1.28487E5,5.1255E4,9.7454E4,3.0721E4,2.5701E4,2.5569E4,4.3567E4,1.2174E4,1.39314E5,1.95982E6,1.38272E5,1.0526E5,1.56288E5,4.97452E5,5.13542E5,1.28397E5,1.53855E5,1.02581E5,9.6903E4,3.1584E4,1.4053E4,3.7202E4,8.1453E4,1.6001E4,2.8467E4,2.254E3,1.672E3,2.4029E4,6.56E2,2.4913E4,1.0848E4,3.2719E4,3.061E3,9.113E3,9.7617E4,4.1697E4,6.44431E5,1.315389E6,9.166E3,1.29106E5,7.8771E4,2.6489E4,1.52116E5,4.172E3,4.37413E5,6.0039E4,3.98287E5,1.15255E5,3.5228E4,9.3169E4,9.3037E4,6.0818E4,8.9856E4,1.2725E4,9.4557E4,2.346E3,2.9304E4,2.28E3,7.331E3,6.722E3,3.311E3,3.3891E4,5.681E3,7.5772E4,1.607E3,1.4394E4,1.0598E4,1.7869E4,1.567E3,6.87E2,1.177E3,4.95E2,7.64E3,1.6389E4,3.78E2,2.78E2,1.5848E4,9.065E3,7.412E3,3.436E3,2.3487E4,9.232E3,2.716E3,3.45E2,3.014E3,6.099E3,4.6473E4,5.1144E4,1.6669E4,2.5028E4,4.4633E5,1.98101E5,2.65709E5,1.04968E6,6.388E3,2.778E3,2.4129E4,1.04977E5,5.893E3,7.2878E4,2.3107E4,3.382E3,8.6182E4,6.5934E4,3.214E3,9.58E2,4.27457E5,9.956E3,4.4894E4,1.5145E4],"tree_param":{"num_deleted":"0","num_feature":"10","num_nodes":"127","size_leaf_vector":"1"}},{"base_weights":[6.9339396E-5,-1.0740809E1,4.4255857E0,-1.1610816E1,-5.5137186E0,8.83125E0,-6.154989E0,-1.203599E1,-9.485685E0,-3.3191442E0,-1.0999983E1,3.6655118E0,1.4890933E1,-9.0054816E-1,-7.4698186E0,-1.23617525E1,-1.1220458E1,-8.550703E0,-1.1829304E1,-2.1036541E0,-7.1747613E0,-1.0799854E1,-1.258153E1,7.423115E0,-5.708204E0,7.506639E1,1.3248848E1,-5.091107E0,2.6604521E0,-9.357109E0,-5.266281E0,-1.2239899E1,-1.3218335E1,-1.0303621E1,-1.1832821E1,-8.079144E0,-1.1877607E1,-1.1665323E1,-1.2968831E1,-3.330463E0,4.1412263E0,-5.2292504E0,-9.363789E0,-1.0980282E1,-5.2051063E0,-1.2783072E0,-1.2304015E1,2.54186E1,2.1960227E0,-1.3805209E1,-3.300706E0,1.6228546E2,4.596308E1,-8.256252E0,1.4802058E1,7.24282E-1,-6.9154363E0,-1.4260019E1,3.8461297E0,-8.796388E0,-1.3375862E1,-2.9804223E0,-7.889831E0,-1.2332938E0,-6.9890636E-1,-1.2845048E0,-1.328277E0,-9.938079E-1,-1.2887172E0,-1.1660483E0,-1.3289055E0,-9.3694764E-1,-4.7827968E-1,-6.6880125E-1,-1.2177312E0,-1.1751428E0,-6.698205E-1,-1.2677329E0,-1.3127317E0,-5.4823196E-1,-1.2636185E-1,6.8838425E0,7.365102E-2,-8.715685E-1,7.890295E-1,-1.082247E0,-7.919077E-1,-1.0757604E0,-1.2657733E0,8.6211914E-1,-8.3008605E-1,-1.2107201E0,-1.2673542E0,3.3105686E0,9.614049E-1,-1.9182426E-1,9.73745E-1,-1.672087E0,-1.0734123E0,2.179718E0,-3.948803E-1,1.0454354E1,2.552625E1,2.79024E0,8.134961E0,-9.8499626E-1,-4.4465405E-1,2.505353E0,9.8007315E-1,-2.3458128E-1,1.1510924E1,-4.8845777E-1,-9.271447E-1,-1.5329865E0,-1.1745528E0,1.8095633E0,5.8723997E-2,-9.098792E-1,8.7167996E-1,-1.2068878E0,-1.3699602E0,-1.3144625E0,-2.2594738E-1,-6.290412E-1,-9.578229E-1],"categories":[],"categories_nodes":[],"categories_segments":[],"categories_sizes":[],"default_left":[0,0,0,0,0,0,0,0,0,0,0,0,0,0,0,0,0,0,0,0,0,0,0,0,0,0,0,0,0,0,0,0,0,0,0,0,0,0,0,0,0,0,0,0,0,0,0,0,0,0,0,0,0,0,0,0,0,0,0,0,0,0,0,0,0,0,0,0,0,0,0,0,0,0,0,0,0,0,0,0,0,0,0,0,0,0,0,0,0,0,0,0,0,0,0,0,0,0,0,0,0,0,0,0,0,0,0,0,0,0,0,0,0,0,0,0,0,0,0,0,0,0,0,0,0],"id":4,"left_children":[1,3,5,7,9,11,13,15,17,19,21,23,25,27,29,31,33,35,37,39,41,43,45,47,49,51,53,55,57,59,61,63,65,67,69,71,73,75,77,79,81,83,85,87,89,-1,91,93,95,97,99,101,103,105,107,109,111,113,115,117,119,121,123,-1,-1,-1,-1,-1,-1,-1,-1,-1,-1,-1,-1,-1,-1,-1,-1,-1,-1,-1,-1,-1,-1,-1,-1,-1,-1,-1,-1,-1,-1,-1,-1,-1,-1,-1,-1,-1,-1,-1,-1,-1,-1,-1,-1,-1,-1,-1,-1,-1,-1,-1,-1,-1,-1,-1,-1,-1,-1,-1,-1,-1,-1],"loss_changes":[2.0485754E8,5.718848E6,1.4227427E8,9.74E5,2.160496E6,6.745347E7,6.198976E6,2.38528E5,3.93759E5,6.006771E5,1.6092E4,4.0972564E7,9.798568E7,2.6799452E6,2.9846E6,6.6848E4,1.4385E5,2.0148E5,9.426E3,7.466432E5,1.3078925E5,4.5892E4,1.644375E2,7.810829E7,6.488742E6,6.685557E7,3.2242832E7,8.7528375E5,1.9478559E6,8.71004E5,1.985629E6,2.74464E5,1.753E3,9.6858E4,3.8428E4,4.786315E5,2.47245E4,1.909E4,1.31125E2,3.62264E5,3.524799E6,7.4417406E5,3.0376375E4,1.6335E4,6.1022793E4,0E0,2.453125E1,2.2707056E7,1.9965208E7,6.82932E5,4.1735975E6,3.5352864E7,1.2621328E7,3.94748E5,4.6157616E7,6.919074E6,3.0044E5,1.6923625E4,4.213315E6,1.79677E6,1.9862E4,1.29657E6,4.16253E5,0E0,0E0,0E0,0E0,0E0,0E0,0E0,0E0,0E0,0E0,0E0,0E0,0E0,0E0,0E0,0E0,0E0,0E0,0E0,0E0,0E0,0E0,0E0,0E0,0E0,0E0,0E0,0E0,0E0,0E0,0E0,0E0,0E0,0E0,0E0,0E0,0E0,0E0,0E0,0E0,0E0,0E0,0E0,0E0,0E0,0E0,0E0,0E0,0E0,0E0,0E0,0E0,0E0,0E0,0E0,0E0,0E0,0E0,0E0,0E0,0E0,0E0],"parents":[2147483647,0,0,1,1,2,2,3,3,4,4,5,5,6,6,7,7,8,8,9,9,10,10,11,11,12,12,13,13,14,14,15,15,16,16,17,17,18,18,19,19,20,20,21,21,22,22,23,23,24,24,25,25,26,26,27,27,28,28,29,29,30,30,31,31,32,32,33,33,34,34,35,35,36,36,37,37,38,38,39,39,40,40,41,41,42,42,43,43,44,44,46,46,47,47,48,48,49,49,50,50,51,51,52,52,53,53,54,54,55,55,56,56,57,57,58,58,59,59,60,60,61,61,62,62],"right_children":[2,4,6,8,10,12,14,16,18,20,22,24,26,28,30,32,34,36,38,40,42,44,46,48,50,52,54,56,58,60,62,64,66,68,70,72,74,76,78,80,82,84,86,88,90,-1,92,94,96,98,100,102,104,106,108,110,112,114,116,118,120,122,124,-1,-1,-1,-1,-1,-1,-1,-1,-1,-1,-1,-1,-1,-1,-1,-1,-1,-1,-1,-1,-1,-1,-1,-1,-1,-1,-1,-1,-1,-1,-1,-1,-1,-1,-1,-1,-1,-1,-1,-1,-1,-1,-1,-1,-1,-1,-1,-1,-1,-1,-1,-1,-1,-1,-1,-1,-1,-1,-1,-1,-1,-1],"split_conditions":[7E0,6E0,1.9E1,5E0,5E0,1.34E1,2E1,5E0,5E0,5.04474E0,5.44375E0,5E0,2.85608E0,1.26E1,1.24E1,5.3819795E0,2E0,5.3819795E0,5.3819795E0,4.7087917E0,5.44375E0,5.341758E0,1.06E1,9E0,9E0,5.113425E1,5.080555E1,5.0887123E1,5.080555E1,5.3819795E0,2.2E1,5.341758E0,5.44377E0,5.3819795E0,5.44377E0,4.70796E0,5.080555E1,5.341758E0,5.097043E1,5.097025E1,4.71526E0,5.341758E0,5.09779E1,5.04474E0,5.093385E1,-1.2783072E0,1.31E1,4.81283E0,1.5E1,8E0,2.85608E0,1.98E1,2.04E1,5.075848E1,5.094366E1,5.0887074E1,4.47803E0,5.075848E1,5.0887123E1,5.341758E0,5.47817E0,5.080555E1,2.3E1,-1.2332938E0,-6.9890636E-1,-1.2845048E0,-1.328277E0,-9.938079E-1,-1.2887172E0,-1.1660483E0,-1.3289055E0,-9.3694764E-1,-4.7827968E-1,-6.6880125E-1,-1.2177312E0,-1.1751428E0,-6.698205E-1,-1.2677329E0,-1.3127317E0,-5.4823196E-1,-1.2636185E-1,6.8838425E0,7.365102E-2,-8.715685E-1,7.890295E-1,-1.082247E0,-7.919077E-1,-1.0757604E0,-1.2657733E0,8.6211914E-1,-8.3008605E-1,-1.2107201E0,-1.2673542E0,3.3105686E0,9.614049E-1,-1.9182426E-1,9.73745E-1,-1.672087E0,-1.0734123E0,2.179718E0,-3.948803E-1,1.0454354E1,2.552625E1,2.79024E0,8.134961E0,-9.8499626E-1,-4.4465405E-1,2.505353E0,9.8007315E-1,-2.3458128E-1,1.1510924E1,-4.8845777E-1,-9.271447E-1,-1.5329865E0,-1.1745528E0,1.8095633E0,5.8723997E-2,-9.098792E-1,8.7167996E-1,-1.2068878E0,-1.3699602E0,-1.3144625E0,-2.2594738E-1,-6.290412E-1,-9.578229E-1],"split_indices":[2,2,2,2,3,5,2,3,3,1,1,3,1,5,5,1,2,1,1,1,1,1,5,2,2,0,0,0,0,1,2,1,1,1,1,1,0,1,0,0,1,1,0,1,0,0,8,1,2,2,1,5,5,0,0,0,1,0,0,1,1,0,2,0,0,0,0,0,0,0,0,0,0,0,0,0,0,0,0,0,0,0,0,0,0,0,0,0,0,0,0,0,0,0,0,0,0,0,0,0,0,0,0,0,0,0,0,0,0,0,0,0,0,0,0,0,0,0,0,0,0,0,0,0,0],"split_type":[0,0,0,0,0,0,0,0,0,0,0,0,0,0,0,0,0,0,0,0,0,0,0,0,0,0,0,0,0,0,0,0,0,0,0,0,0,0,0,0,0,0,0,0,0,0,0,0,0,0,0,0,0,0,0,0,0,0,0,0,0,0,0,0,0,0,0,0,0,0,0,0,0,0,0,0,0,0,0,0,0,0,0,0,0,0,0,0,0,0,0,0,0,0,0,0,0,0,0,0,0,0,0,0,0,0,0,0,0,0,0,0,0,0,0,0,0,0,0,0,0,0,0,0,0],"sum_hessian":[4.309709E6,1.257562E6,3.052147E6,1.078117E6,1.79445E5,2.154875E6,8.97272E5,8.98375E5,1.79742E5,1.28175E5,5.127E4,1.163241E6,9.91634E5,1.79588E5,7.17684E5,6.41939E5,2.56436E5,1.28487E5,5.1255E4,9.7454E4,3.0721E4,4.5518E4,5.752E3,8.30373E5,3.32868E5,2.634E4,9.65294E5,8.2501E4,9.7087E4,3.86581E5,3.31103E5,5.62006E5,7.9933E4,1.02696E5,1.5374E5,1.12539E5,1.5948E4,4.4817E4,6.438E3,8.1453E4,1.6001E4,1.6267E4,1.4454E4,4.4095E4,1.423E3,3.306E3,2.446E3,1.86905E5,6.43468E5,7.6288E4,2.5658E5,6.589E3,1.9751E4,6.5022E4,9.00272E5,1.9701E4,6.28E4,6.357E3,9.073E4,3.3925E5,4.7331E4,1.7694E5,1.54163E5,5.5222E5,9.786E3,1.1796E4,6.8137E4,8.9971E4,1.2725E4,1.37479E5,1.6261E4,8.0878E4,3.1661E4,8.72E2,1.5076E4,4.4052E4,7.65E2,2.296E3,4.142E3,3.9905E4,4.1548E4,7.99E2,1.5202E4,1.2852E4,3.415E3,7.189E3,7.265E3,3.8934E4,5.161E3,2.6E2,1.163E3,1.618E3,8.28E2,1.25744E5,6.1161E4,4.16335E5,2.27133E5,3.9132E4,3.7156E4,6.458E3,2.50122E5,4.066E3,2.523E3,1.3078E4,6.673E3,4.5843E4,1.9179E4,2.95194E5,6.05078E5,1.9187E4,5.14E2,3.3729E4,2.9071E4,4.456E3,1.901E3,1.6887E4,7.3843E4,3.33492E5,5.758E3,9.404E3,3.7927E4,1.1718E4,1.65222E5,7.917E4,7.4993E4],"tree_param":{"num_deleted":"0","num_feature":"10","num_nodes":"125","size_leaf_vector":"1"}},{"base_weights":[7.108452E-5,-9.666743E0,3.9830458E0,-1.044975E1,-4.9623566E0,8.59996E0,-4.485164E0,-1.0832401E1,-8.53716E0,-2.9871962E0,-9.900103E0,1.9336802E1,5.668391E0,1.3119799E0,-6.353685E0,-1.1125585E1,-1.0098432E1,-7.695658E0,-1.064646E1,-1.064107E1,-2.4579177E0,-9.355803E0,-1.0446826E1,9.723485E1,1.7260979E1,8.7576685E0,-2.0883346E0,5.395652E0,-3.3541892E0,-2.2577968E0,-7.6400166E0,-1.1283151E1,-1.0495292E1,-1.0356698E1,-8.007533E0,-1.2750372E1,-7.3837214E0,-9.960772E0,-1.0905203E1,-1.2084845E1,-7.2381725E0,-1.6282343E0,-8.224603E0,-9.105244E0,-1.109804E1,-6.660626E0,-1.0546251E1,2.0380316E2,6.1151146E1,1.0581603E1,2.432748E1,2.1977932E1,4.8492107E0,3.3439064E1,-3.028436E0,9.67598E0,-2.2617867E0,-1.6500962E0,-6.591209E0,-5.0285234E0,9.952898E1,-8.893308E0,-5.431912E0,-1.0726206E0,-1.1468914E0,-9.489228E-1,-1.0875587E0,-9.8732466E-1,-1.1246889E0,-1.2544215E0,-7.6753855E-1,-1.1876944E0,-1.3176867E0,-6.6448337E-1,-9.644432E-1,-1.0474954E0,-9.3985313E-1,-1.2093184E0,-1.0788789E0,-1.1570134E0,-1.3275985E0,-2.8932202E-1,-9.385258E-1,-1.9792192E-1,1.7062371E0,-7.122482E-1,-1.0303591E0,-9.305772E-1,2.5704877E0,-1.0502166E0,-1.1354387E0,-8.771621E-1,-4.210526E-1,-1.1952105E0,-1.0422555E0,1.3150531E1,2.8909653E1,3.4909112E0,9.211974E0,-1.9610247E-1,1.2630541E0,2.9674776E0,1.0791131E0,2.8726623E0,8.146476E-1,3.691124E-2,1.6531729E0,2.0240207E0,9.390721E0,-1.2713526E0,-1.8321285E-2,5.9631264E-1,1.9474552E1,9.073551E-1,-6.319129E-1,1.5068077E0,-2.1089105E-1,-5.9276766E-1,-1.1099198E0,-1.0289098E0,1.8458788E-1,2.2708874E1,8.11831E0,-8.4102625E-1,-1.245394E0,-4.6621987E-1,-1.0889645E0],"categories":[],"categories_nodes":[],"categories_segments":[],"categories_sizes":[],"default_left":[0,0,0,0,0,0,0,0,0,0,0,0,0,0,0,0,0,0,0,0,0,0,0,0,0,0,0,0,0,0,0,0,0,0,0,0,0,0,0,0,0,0,0,0,0,0,0,0,0,0,0,0,0,0,0,0,0,0,0,0,0,0,0,0,0,0,0,0,0,0,0,0,0,0,0,0,0,0,0,0,0,0,0,0,0,0,0,0,0,0,0,0,0,0,0,0,0,0,0,0,0,0,0,0,0,0,0,0,0,0,0,0,0,0,0,0,0,0,0,0,0,0,0,0,0,0,0],"id":5,"left_children":[1,3,5,7,9,11,13,15,17,19,21,23,25,27,29,31,33,35,37,39,41,43,45,47,49,51,53,55,57,59,61,63,65,67,69,71,73,75,77,79,81,83,85,87,89,91,93,95,97,99,101,103,105,107,109,111,113,115,117,119,121,123,125,-1,-1,-1,-1,-1,-1,-1,-1,-1,-1,-1,-1,-1,-1,-1,-1,-1,-1,-1,-1,-1,-1,-1,-1,-1,-1,-1,-1,-1,-1,-1,-1,-1,-1,-1,-1,-1,-1,-1,-1,-1,-1,-1,-1,-1,-1,-1,-1,-1,-1,-1,-1,-1,-1,-1,-1,-1,-1,-1,-1,-1,-1,-1,-1],"loss_changes":[1.6593542E8,4.632264E6,1.19329864E8,7.88928E5,1.750078E6,6.217205E7,1.1665198E7,1.93216E5,3.18958E5,5.1921888E5,1.51595E4,6.850266E7,3.718038E7,5.0019825E6,4.290852E6,6.3624E4,1.38396E5,2.025E5,8.9855E3,4.0641438E4,5.7358875E5,1.111875E4,9.55525E3,4.227133E7,1.9476704E7,5.73366E7,1.4760713E7,4.5883175E6,6.757931E5,5.4894372E7,1.715104E6,5.3008E4,4.9022E4,9.8114E4,4.239225E4,2.625125E3,2.020925E5,3.9645E3,5.0145E3,3.413875E3,2.3034086E4,6.875933E5,3.4477062E4,1.5713075E5,3.736875E2,3.36117E3,4.20825E3,1.7111096E7,6.673752E6,5.451746E6,1.4513376E7,2.363472E7,4.482569E7,9.090971E6,1.1864365E7,6.170022E7,2.3085465E6,6.156844E5,1.2631825E5,6.85246E6,1.2052296E7,6.799E5,9.426585E5,0E0,0E0,0E0,0E0,0E0,0E0,0E0,0E0,0E0,0E0,0E0,0E0,0E0,0E0,0E0,0E0,0E0,0E0,0E0,0E0,0E0,0E0,0E0,0E0,0E0,0E0,0E0,0E0,0E0,0E0,0E0,0E0,0E0,0E0,0E0,0E0,0E0,0E0,0E0,0E0,0E0,0E0,0E0,0E0,0E0,0E0,0E0,0E0,0E0,0E0,0E0,0E0,0E0,0E0,0E0,0E0,0E0,0E0,0E0,0E0,0E0,0E0,0E0,0E0],"parents":[2147483647,0,0,1,1,2,2,3,3,4,4,5,5,6,6,7,7,8,8,9,9,10,10,11,11,12,12,13,13,14,14,15,15,16,16,17,17,18,18,19,19,20,20,21,21,22,22,23,23,24,24,25,25,26,26,27,27,28,28,29,29,30,30,31,31,32,32,33,33,34,34,35,35,36,36,37,37,38,38,39,39,40,40,41,41,42,42,43,43,44,44,45,45,46,46,47,47,48,48,49,49,50,50,51,51,52,52,53,53,54,54,55,55,56,56,57,57,58,58,59,59,60,60,61,61,62,62],"right_children":[2,4,6,8,10,12,14,16,18,20,22,24,26,28,30,32,34,36,38,40,42,44,46,48,50,52,54,56,58,60,62,64,66,68,70,72,74,76,78,80,82,84,86,88,90,92,94,96,98,100,102,104,106,108,110,112,114,116,118,120,122,124,126,-1,-1,-1,-1,-1,-1,-1,-1,-1,-1,-1,-1,-1,-1,-1,-1,-1,-1,-1,-1,-1,-1,-1,-1,-1,-1,-1,-1,-1,-1,-1,-1,-1,-1,-1,-1,-1,-1,-1,-1,-1,-1,-1,-1,-1,-1,-1,-1,-1,-1,-1,-1,-1,-1,-1,-1,-1,-1,-1,-1,-1,-1,-1,-1],"split_conditions":[7E0,6E0,1.8E1,5E0,5E0,6.1E1,6.5E1,5E0,5E0,5.080555E1,6E0,2.85608E0,5E0,2E1,5.0887123E1,4E0,1.7E1,5.079286E1,3.80406E0,5.075848E1,5.3819795E0,5.3819795E0,2.85608E0,5.113425E1,1.5E1,9E0,2.85608E0,4.7153726E0,2.2E1,5.0887074E1,1.28E1,1E0,3.80406E0,4.7153726E0,5.080555E1,4.24951E0,4.99698E0,3.24095E0,5.080555E1,4.34013E0,5.0766994E1,5.30314E0,5.63012E0,5.3438616E0,5.095589E1,1.01E1,5.081324E1,7E0,7E0,5.083066E1,5E0,4.81283E0,1.5E1,1.69E1,9E0,4.7087917E0,5.094366E1,2.85608E0,5.3819795E0,5.083066E1,1.9E1,5.3819795E0,5.3819795E0,-1.0726206E0,-1.1468914E0,-9.489228E-1,-1.0875587E0,-9.8732466E-1,-1.1246889E0,-1.2544215E0,-7.6753855E-1,-1.1876944E0,-1.3176867E0,-6.6448337E-1,-9.644432E-1,-1.0474954E0,-9.3985313E-1,-1.2093184E0,-1.0788789E0,-1.1570134E0,-1.3275985E0,-2.8932202E-1,-9.385258E-1,-1.9792192E-1,1.7062371E0,-7.122482E-1,-1.0303591E0,-9.305772E-1,2.5704877E0,-1.0502166E0,-1.1354387E0,-8.771621E-1,-4.210526E-1,-1.1952105E0,-1.0422555E0,1.3150531E1,2.8909653E1,3.4909112E0,9.211974E0,-1.9610247E-1,1.2630541E0,2.9674776E0,1.0791131E0,2.8726623E0,8.146476E-1,3.691124E-2,1.6531729E0,2.0240207E0,9.390721E0,-1.2713526E0,-1.8321285E-2,5.9631264E-1,1.9474552E1,9.073551E-1,-6.319129E-1,1.5068077E0,-2.1089105E-1,-5.9276766E-1,-1.1099198E0,-1.0289098E0,1.8458788E-1,2.2708874E1,8.11831E0,-8.4102625E-1,-1.245394E0,-4.6621987E-1,-1.0889645E0],"split_indices":[2,2,2,2,3,6,6,3,3,0,3,1,3,2,0,2,5,0,1,0,1,1,1,0,2,2,1,1,2,0,5,2,1,1,0,1,1,1,0,1,0,1,1,1,0,5,0,4,4,0,3,1,2,5,2,1,0,1,1,0,2,1,1,0,0,0,0,0,0,0,0,0,0,0,0,0,0,0,0,0,0,0,0,0,0,0,0,0,0,0,0,0,0,0,0,0,0,0,0,0,0,0,0,0,0,0,0,0,0,0,0,0,0,0,0,0,0,0,0,0,0,0,0,0,0,0,0],"split_type":[0,0,0,0,0,0,0,0,0,0,0,0,0,0,0,0,0,0,0,0,0,0,0,0,0,0,0,0,0,0,0,0,0,0,0,0,0,0,0,0,0,0,0,0,0,0,0,0,0,0,0,0,0,0,0,0,0,0,0,0,0,0,0,0,0,0,0,0,0,0,0,0,0,0,0,0,0,0,0,0,0,0,0,0,0,0,0,0,0,0,0,0,0,0,0,0,0,0,0,0,0,0,0,0,0,0,0,0,0,0,0,0,0,0,0,0,0,0,0,0,0,0,0,0,0,0,0],"sum_hessian":[4.309709E6,1.257562E6,3.052147E6,1.078117E6,1.79445E5,1.975237E6,1.07691E6,8.98375E5,1.79742E5,1.28175E5,5.127E4,4.23643E5,1.551594E6,2.62499E5,8.14411E5,6.41939E5,2.56436E5,1.28487E5,5.1255E4,8.289E3,1.19886E5,2.5701E4,2.5569E4,1.0995E4,4.12648E5,1.109652E6,4.41942E5,1.39987E5,1.22512E5,1.94642E5,6.19769E5,5.13542E5,1.28397E5,2.2824E5,2.8196E4,7.466E3,1.21021E5,1.4053E4,3.7202E4,5.818E3,2.471E3,1.04808E5,1.5078E4,2.2475E4,3.226E3,6.56E2,2.4913E4,2.78E3,8.215E3,2.12136E5,2.00512E5,2.53201E5,8.56451E5,1.1392E4,4.3055E5,8.9794E4,5.0193E4,8.0261E4,4.2251E4,1.89485E5,5.157E3,3.95363E5,2.24406E5,1.28459E5,3.85083E5,3.5228E4,9.3169E4,1.47919E5,8.0321E4,1.921E3,2.6275E4,2.459E3,5.007E3,9.1213E4,2.9808E4,7.331E3,6.722E3,3.311E3,3.3891E4,4.07E3,1.748E3,8.18E2,1.653E3,1.02877E5,1.931E3,9.857E3,5.221E3,2.2347E4,1.28E2,9.83E2,2.243E3,3.51E2,3.05E2,2.007E3,2.2906E4,1.506E3,1.274E3,4.448E3,3.767E3,2.9788E4,1.82348E5,1.43732E5,5.678E4,1.7017E5,8.3031E4,6.19053E5,2.37398E5,9.352E3,2.04E3,9.7763E4,3.32787E5,8.8029E4,1.765E3,1.323E4,3.6963E4,2.143E3,7.8118E4,3.6832E4,5.419E3,1.07342E5,8.2143E4,6.47E2,4.51E3,3.48137E5,4.7226E4,1.96671E5,2.7735E4],"tree_param":{"num_deleted":"0","num_feature":"10","num_nodes":"127","size_leaf_vector":"1"}},{"base_weights":[8.653482E-5,-8.7000885E0,3.5847812E0,-9.404791E0,-4.4661655E0,7.740002E0,-4.036605E0,-9.74917E0,-7.6834908E0,-2.6885076E0,-8.910172E0,1.53631115E1,4.236011E0,-5.2753015E0,3.1021779E0,-1.0013032E1,-9.088604E0,-6.9261246E0,-9.581898E0,-1.6484568E0,-5.987624E0,-1.0836084E1,-8.775226E0,7.905176E1,1.365838E1,7.2255545E0,-3.3457487E0,-4.3854036E0,-1.1553782E1,2.8875628E1,2.3622057E0,-1.1163993E1,-9.933638E0,-7.746061E0,-9.425296E0,-8.066665E0,-5.6728168E0,-8.819985E0,-9.780023E0,-3.844716E0,1.4164566E0,-6.5375338E0,9.5730793E-1,-1.1025329E1,-1.0372589E1,-9.327139E0,-8.246578E0,1.685979E2,4.9039253E1,8.426693E0,2.0298286E1,1.9819445E1,2.9203749E0,-1.1406746E1,-5.832707E-1,-4.92722E0,2.6186165E1,-1.5953171E1,-1.0782344E1,7.172957E1,1.4637976E1,6.4208207E0,-1.7311455E0,-1.0943252E0,-1.1218017E0,-9.8143625E-1,-1.0762182E0,-5.6693596E-1,-8.398903E-1,-9.859005E-1,-8.688387E-1,-9.0942764E-1,-6.348557E-1,-9.8049754E-1,-4.5945978E-1,-9.3137884E-1,-6.197969E-1,-9.627984E-1,-1.0586771E0,-2.531763E-1,-9.7272205E-1,1.0506395E0,-9.038198E-2,-3.015171E-1,-7.841258E-1,3.2033026E-1,-4.1628623E-1,-1.0529284E0,-1.1213981E0,-9.7518015E-1,-1.067005E0,-8.407864E-1,-9.5552725E-1,-4.3462348E-1,-8.36102E-1,1.1194647E1,2.4912466E1,3.093269E0,7.9165063E0,-2.9885063E-1,1.0266728E0,-7.2264236E-1,2.2517202E0,2.5893335E0,7.36417E-1,-7.829918E-2,1.3265829E0,-1.4483646E0,-8.320083E-1,3.421665E0,-1.5008368E-1,6.88151E-2,-6.721558E-1,4.8654604E0,1.6394151E0,-1.8132571E0,-1.2740422E0,-1.2662362E0,-1.0142926E0,2.5643373E0,9.184034E0,-3.3006167E-1,2.230434E0,-1.0220476E0,7.8014964E-1,1.6663717E-1,-3.7495914E-1],"categories":[],"categories_nodes":[],"categories_segments":[],"categories_sizes":[],"default_left":[0,0,0,0,0,0,0,0,0,0,0,0,0,0,0,0,0,0,0,0,0,0,0,0,0,0,0,0,0,0,0,0,0,0,0,0,0,0,0,0,0,0,0,0,0,0,0,0,0,0,0,0,0,0,0,0,0,0,0,0,0,0,0,0,0,0,0,0,0,0,0,0,0,0,0,0,0,0,0,0,0,0,0,0,0,0,0,0,0,0,0,0,0,0,0,0,0,0,0,0,0,0,0,0,0,0,0,0,0,0,0,0,0,0,0,0,0,0,0,0,0,0,0,0,0,0,0],"id":6,"left_children":[1,3,5,7,9,11,13,15,17,19,21,23,25,27,29,31,33,35,37,39,41,43,45,47,49,51,53,55,57,59,61,63,65,67,69,71,73,75,77,79,81,83,85,87,89,91,93,95,97,99,101,103,105,107,109,111,113,115,117,119,121,123,125,-1,-1,-1,-1,-1,-1,-1,-1,-1,-1,-1,-1,-1,-1,-1,-1,-1,-1,-1,-1,-1,-1,-1,-1,-1,-1,-1,-1,-1,-1,-1,-1,-1,-1,-1,-1,-1,-1,-1,-1,-1,-1,-1,-1,-1,-1,-1,-1,-1,-1,-1,-1,-1,-1,-1,-1,-1,-1,-1,-1,-1,-1,-1,-1],"loss_changes":[1.34409E8,3.752088E6,9.665711E7,6.39008E5,1.4175858E6,5.276112E7,9.522908E6,1.56496E5,2.58366E5,4.397938E5,1.323025E4,6.753226E7,3.0672218E7,5.127212E6,3.036766E6,5.8548E4,1.15842E5,1.83621E5,7.6515E3,6.5600856E5,1.1733625E5,1.7975E2,1.3904E4,4.3569616E7,2.1044056E7,5.262139E7,8.521859E6,1.3313711E7,3.86463E5,2.71041E6,2.5715895E6,3.71E2,5.924E4,6.966825E4,6.5438E4,1.18707E5,2.7271725E5,1.36511875E4,4.8865E3,4.3845906E5,8.5806156E5,1.30707E5,2.5945553E4,1.0325E2,7.8578125E1,4.834625E3,1.0892375E4,1.8539264E7,6.622888E6,7.116986E6,1.6305288E7,1.8704928E7,2.771124E7,9.27524E5,9.100993E6,7.957548E6,3.0787E6,1.18759E5,1.16392E5,1.0245715E6,4.5899038E5,1.7859078E6,5.285021E5,0E0,0E0,0E0,0E0,0E0,0E0,0E0,0E0,0E0,0E0,0E0,0E0,0E0,0E0,0E0,0E0,0E0,0E0,0E0,0E0,0E0,0E0,0E0,0E0,0E0,0E0,0E0,0E0,0E0,0E0,0E0,0E0,0E0,0E0,0E0,0E0,0E0,0E0,0E0,0E0,0E0,0E0,0E0,0E0,0E0,0E0,0E0,0E0,0E0,0E0,0E0,0E0,0E0,0E0,0E0,0E0,0E0,0E0,0E0,0E0,0E0,0E0,0E0,0E0],"parents":[2147483647,0,0,1,1,2,2,3,3,4,4,5,5,6,6,7,7,8,8,9,9,10,10,11,11,12,12,13,13,14,14,15,15,16,16,17,17,18,18,19,19,20,20,21,21,22,22,23,23,24,24,25,25,26,26,27,27,28,28,29,29,30,30,31,31,32,32,33,33,34,34,35,35,36,36,37,37,38,38,39,39,40,40,41,41,42,42,43,43,44,44,45,45,46,46,47,47,48,48,49,49,50,50,51,51,52,52,53,53,54,54,55,55,56,56,57,57,58,58,59,59,60,60,61,61,62,62],"right_children":[2,4,6,8,10,12,14,16,18,20,22,24,26,28,30,32,34,36,38,40,42,44,46,48,50,52,54,56,58,60,62,64,66,68,70,72,74,76,78,80,82,84,86,88,90,92,94,96,98,100,102,104,106,108,110,112,114,116,118,120,122,124,126,-1,-1,-1,-1,-1,-1,-1,-1,-1,-1,-1,-1,-1,-1,-1,-1,-1,-1,-1,-1,-1,-1,-1,-1,-1,-1,-1,-1,-1,-1,-1,-1,-1,-1,-1,-1,-1,-1,-1,-1,-1,-1,-1,-1,-1,-1,-1,-1,-1,-1,-1,-1,-1,-1,-1,-1,-1,-1,-1,-1,-1,-1,-1,-1],"split_conditions":[7E0,6E0,1.8E1,5E0,5E0,6.8E1,2E1,5E0,5E0,5.04474E0,5.080555E1,2.85608E0,5E0,5.3819795E0,2.85608E0,5.080555E1,1E0,5.102805E1,3.555502E0,4.41497E0,5.123299E1,5.075848E1,9.1E0,5.113425E1,1.5E1,9E0,9E0,5.341758E0,1.9E1,5.113425E1,2E1,5.075486E1,5.3819795E0,5.0887123E1,1.22E1,4.70796E0,3.24095E0,3.26286E0,5.3819795E0,4.1491694E0,4.47222E0,5.094366E1,5.125484E1,5.075486E1,5.0766994E1,5.089132E1,2.85608E0,2.04E1,2.1E1,5.083066E1,5.08058E1,4.81283E0,1.5E1,8E0,2.85608E0,5.0887123E1,2E1,1.33E1,5.088298E1,7E0,7E0,5.08058E1,5.094366E1,-1.0943252E0,-1.1218017E0,-9.8143625E-1,-1.0762182E0,-5.6693596E-1,-8.398903E-1,-9.859005E-1,-8.688387E-1,-9.0942764E-1,-6.348557E-1,-9.8049754E-1,-4.5945978E-1,-9.3137884E-1,-6.197969E-1,-9.627984E-1,-1.0586771E0,-2.531763E-1,-9.7272205E-1,1.0506395E0,-9.038198E-2,-3.015171E-1,-7.841258E-1,3.2033026E-1,-4.1628623E-1,-1.0529284E0,-1.1213981E0,-9.7518015E-1,-1.067005E0,-8.407864E-1,-9.5552725E-1,-4.3462348E-1,-8.36102E-1,1.1194647E1,2.4912466E1,3.093269E0,7.9165063E0,-2.9885063E-1,1.0266728E0,-7.2264236E-1,2.2517202E0,2.5893335E0,7.36417E-1,-7.829918E-2,1.3265829E0,-1.4483646E0,-8.320083E-1,3.421665E0,-1.5008368E-1,6.88151E-2,-6.721558E-1,4.8654604E0,1.6394151E0,-1.8132571E0,-1.2740422E0,-1.2662362E0,-1.0142926E0,2.5643373E0,9.184034E0,-3.3006167E-1,2.230434E0,-1.0220476E0,7.8014964E-1,1.6663717E-1,-3.7495914E-1],"split_indices":[2,2,2,2,3,6,5,3,3,1,0,1,3,1,1,0,2,0,1,1,0,0,5,0,2,2,2,1,2,0,2,0,1,0,5,1,1,1,1,1,1,0,0,0,0,0,1,5,5,0,0,1,2,2,1,0,2,5,0,4,4,0,0,0,0,0,0,0,0,0,0,0,0,0,0,0,0,0,0,0,0,0,0,0,0,0,0,0,0,0,0,0,0,0,0,0,0,0,0,0,0,0,0,0,0,0,0,0,0,0,0,0,0,0,0,0,0,0,0,0,0,0,0,0,0,0,0],"split_type":[0,0,0,0,0,0,0,0,0,0,0,0,0,0,0,0,0,0,0,0,0,0,0,0,0,0,0,0,0,0,0,0,0,0,0,0,0,0,0,0,0,0,0,0,0,0,0,0,0,0,0,0,0,0,0,0,0,0,0,0,0,0,0,0,0,0,0,0,0,0,0,0,0,0,0,0,0,0,0,0,0,0,0,0,0,0,0,0,0,0,0,0,0,0,0,0,0,0,0,0,0,0,0,0,0,0,0,0,0,0,0,0,0,0,0,0,0,0,0,0,0,0,0,0,0,0,0],"sum_hessian":[4.309709E6,1.257562E6,3.052147E6,1.078117E6,1.79445E5,1.975237E6,1.07691E6,8.98375E5,1.79742E5,1.28175E5,5.127E4,6.22013E5,1.353224E6,9.17678E5,1.59232E5,6.41939E5,2.56436E5,1.28487E5,5.1255E4,9.7454E4,3.0721E4,3.352E3,4.7918E4,1.6214E4,6.05799E5,9.70535E5,3.82689E5,8.03757E5,1.13921E5,4.443E3,1.54789E5,4.1415E4,6.00524E5,5.1421E4,2.05015E5,6.7267E4,6.122E4,1.0587E4,4.0668E4,5.6772E4,4.0682E4,2.8467E4,2.254E3,2.364E3,9.88E2,2.3435E4,2.4483E4,4.069E3,1.2145E4,3.38831E5,2.66968E5,2.47251E5,7.23284E5,9.7673E4,2.85016E5,7.89761E5,1.3996E4,1.6993E4,9.6928E4,1.107E3,3.336E3,7.7724E4,7.7065E4,8.183E3,3.3232E4,5.24964E5,7.556E4,1.2301E4,3.912E4,1.2905E5,7.5965E4,4.2089E4,2.5178E4,1.2667E4,4.8553E4,8.907E3,1.68E3,3.423E4,6.438E3,4.6414E4,1.0358E4,8.272E3,3.241E4,7.691E3,2.0776E4,1.567E3,6.87E2,6.67E2,1.697E3,3.31E2,6.57E2,4.667E3,1.8768E4,6.99E2,2.3784E4,2.39E3,1.679E3,7.587E3,4.558E3,4.7035E4,2.91796E5,1.9916E4,2.47052E5,1.66201E5,8.105E4,5.32622E5,1.90662E5,4.8912E4,4.8761E4,7.321E3,2.77695E5,1.91249E5,5.98512E5,4.247E3,9.749E3,1.0122E4,6.871E3,2.4595E4,7.2333E4,3.37E2,7.7E2,9.99E2,2.337E3,5.954E3,7.177E4,2.8721E4,4.8344E4],"tree_param":{"num_deleted":"0","num_feature":"10","num_nodes":"127","size_leaf_vector":"1"}},{"base_weights":[8.838591E-5,-7.8300977E0,3.2263253E0,-8.464325E0,-4.019598E0,6.9660296E0,-3.632932E0,-8.774261E0,-6.9151783E0,-2.4196684E0,-8.019297E0,-5.2675886E0,8.837259E0,3.8842693E-1,-5.6457605E0,-9.7918625E0,-8.627329E0,-6.233536E0,-8.623777E0,-8.922665E0,-1.9699761E0,-7.5300384E0,-8.510768E0,-1.0105203E1,-6.724063E-1,2.4231078E2,7.647772E0,3.7622187E0,-5.818197E0,-6.5376744E0,-2.4238214E0,-1.0201033E1,-9.36253E0,-1.4664685E0,-8.716952E0,-5.5519304E0,-8.32453E0,-8.423128E0,-9.2579E0,-1.0105859E1,-6.1338573E0,-1.3005896E0,-6.861111E0,-7.30457E0,-9.098086E0,-6.409594E0,-8.644879E0,-1.2032554E1,-7.898511E0,7.5827866E0,-5.192151E0,2.8228983E2,1.4173145E2,2.3083796E1,5.564219E0,8.1913143E-1,1.5235149E2,1.8318369E0,-8.564701E0,-1.235234E1,-6.1845155E0,-4.5238328E-1,-5.4322906E0,-1.0047648E0,-1.0582922E0,-8.902845E-1,-9.6584195E-1,-8.681429E-1,8.927289E-1,-7.452124E-1,-8.8874453E-1,-6.0975504E-1,1.6432847E0,-5.7974166E-1,-9.145843E-1,-8.6205256E-1,-7.4861676E-1,-8.238985E-1,-9.5901346E-1,-9.440922E-1,-1.16478E0,-1.6327171E-1,-8.3589476E-1,-1.604908E-1,1.083938E0,-5.8450985E-1,-8.6519253E-1,-7.485166E-1,2.4038558E0,-8.566095E-1,-9.3273115E-1,-7.2143424E-1,-2.799743E-1,-8.354751E-1,-9.122929E-1,-1.2896523E0,-1.0047808E0,-9.3404907E-1,-4.450274E-1,1.1511132E0,-2.255281E-1,3.6500847E-1,-7.1761894E-1,2.4668026E1,4.4294624E1,5.3368926E0,1.7530012E1,1.0401174E0,2.1941818E1,2.70142E0,4.1199628E-1,-3.2575244E-1,4.5916578E-1,1.8525938E1,6.8452387E0,-8.733706E-1,5.543296E0,-1.0511496E0,-4.7746202E-1,-1.2520822E0,-1.1744871E0,-2.1349359E-1,-7.1607864E-1,1.8260866E0,-9.844689E-2,-1.1963803E0,-5.002307E-1],"categories":[],"categories_nodes":[],"categories_segments":[],"categories_sizes":[],"default_left":[0,0,0,0,0,0,0,0,0,0,0,0,0,0,0,0,0,0,0,0,0,0,0,0,0,0,0,0,0,0,0,0,0,0,0,0,0,0,0,0,0,0,0,0,0,0,0,0,0,0,0,0,0,0,0,0,0,0,0,0,0,0,0,0,0,0,0,0,0,0,0,0,0,0,0,0,0,0,0,0,0,0,0,0,0,0,0,0,0,0,0,0,0,0,0,0,0,0,0,0,0,0,0,0,0,0,0,0,0,0,0,0,0,0,0,0,0,0,0,0,0,0,0,0,0,0,0],"id":7,"left_children":[1,3,5,7,9,11,13,15,17,19,21,23,25,27,29,31,33,35,37,39,41,43,45,47,49,51,53,55,57,59,61,63,65,67,69,71,73,75,77,79,81,83,85,87,89,91,93,95,97,99,101,103,105,107,109,111,113,115,117,119,121,123,125,-1,-1,-1,-1,-1,-1,-1,-1,-1,-1,-1,-1,-1,-1,-1,-1,-1,-1,-1,-1,-1,-1,-1,-1,-1,-1,-1,-1,-1,-1,-1,-1,-1,-1,-1,-1,-1,-1,-1,-1,-1,-1,-1,-1,-1,-1,-1,-1,-1,-1,-1,-1,-1,-1,-1,-1,-1,-1,-1,-1,-1,-1,-1,-1],"loss_changes":[1.0887208E8,3.039136E6,7.829248E7,5.17584E5,1.1482982E6,4.521703E7,8.71685E6,1.3424E5,2.09284E5,3.7481356E5,1.226425E4,5.825224E6,4.757754E8,7.5221845E6,2.06239E6,1.9815E4,5.03804E5,1.83079E5,6.44325E3,2.7292562E4,3.9250828E5,9.020375E3,7.149875E3,5.42835E5,5.0143885E6,3.4878944E7,5.4819896E7,1.0177269E8,2.6579715E6,1.154164E6,9.228687E5,3.2925E3,7.4385E3,7.2786075E5,1.67132E5,1.1624958E6,6.5503E4,7.139E3,4.088125E3,5.8561875E3,2.4744523E4,3.896158E5,2.6208312E4,1.27404E5,3.13625E2,4.4477266E3,3.257125E3,1.16712E5,2.95899E5,1.8376288E6,1.5235772E6,3.543472E7,7.323124E6,5.0475773E8,4.65245E7,3.5096458E6,1.2466776E7,1.892706E7,6.86778E5,3.1465E3,2.09495E6,9.360106E5,1.7293725E5,0E0,0E0,0E0,0E0,0E0,0E0,0E0,0E0,0E0,0E0,0E0,0E0,0E0,0E0,0E0,0E0,0E0,0E0,0E0,0E0,0E0,0E0,0E0,0E0,0E0,0E0,0E0,0E0,0E0,0E0,0E0,0E0,0E0,0E0,0E0,0E0,0E0,0E0,0E0,0E0,0E0,0E0,0E0,0E0,0E0,0E0,0E0,0E0,0E0,0E0,0E0,0E0,0E0,0E0,0E0,0E0,0E0,0E0,0E0,0E0,0E0,0E0,0E0,0E0],"parents":[2147483647,0,0,1,1,2,2,3,3,4,4,5,5,6,6,7,7,8,8,9,9,10,10,11,11,12,12,13,13,14,14,15,15,16,16,17,17,18,18,19,19,20,20,21,21,22,22,23,23,24,24,25,25,26,26,27,27,28,28,29,29,30,30,31,31,32,32,33,33,34,34,35,35,36,36,37,37,38,38,39,39,40,40,41,41,42,42,43,43,44,44,45,45,46,46,47,47,48,48,49,49,50,50,51,51,52,52,53,53,54,54,55,55,56,56,57,57,58,58,59,59,60,60,61,61,62,62],"right_children":[2,4,6,8,10,12,14,16,18,20,22,24,26,28,30,32,34,36,38,40,42,44,46,48,50,52,54,56,58,60,62,64,66,68,70,72,74,76,78,80,82,84,86,88,90,92,94,96,98,100,102,104,106,108,110,112,114,116,118,120,122,124,126,-1,-1,-1,-1,-1,-1,-1,-1,-1,-1,-1,-1,-1,-1,-1,-1,-1,-1,-1,-1,-1,-1,-1,-1,-1,-1,-1,-1,-1,-1,-1,-1,-1,-1,-1,-1,-1,-1,-1,-1,-1,-1,-1,-1,-1,-1,-1,-1,-1,-1,-1,-1,-1,-1,-1,-1,-1,-1,-1,-1,-1,-1,-1,-1],"split_conditions":[7E0,6E0,1.8E1,5E0,5E0,5.083066E1,2E1,5.081925E1,5E0,5.080555E1,6E0,5.080555E1,5.083332E1,4.7153726E0,1.74E1,5.080555E1,5.083332E1,4.99698E0,5.04474E0,5.075848E1,5.41001E0,5.3819795E0,3.08244E0,1.32E1,5.081331E1,5E0,5.0887123E1,4.7087917E0,5.094366E1,5.079286E1,2.2E1,5E0,5.081331E1,5.083066E1,5.0887123E1,4.939479E0,5.094366E1,4.70796E0,5.094366E1,4.34013E0,5.0766994E1,5.30314E0,5.63012E0,5.3438616E0,5.095589E1,5.121378E1,4.7153726E0,5.075848E1,5.075848E1,5E0,5.8E1,1.6E1,1E1,5.0887074E1,3.08244E0,1.32E1,5E0,5.088298E1,1.74E1,5.075848E1,5.0887123E1,2.85608E0,5.079286E1,-1.0047648E0,-1.0582922E0,-8.902845E-1,-9.6584195E-1,-8.681429E-1,8.927289E-1,-7.452124E-1,-8.8874453E-1,-6.0975504E-1,1.6432847E0,-5.7974166E-1,-9.145843E-1,-8.6205256E-1,-7.4861676E-1,-8.238985E-1,-9.5901346E-1,-9.440922E-1,-1.16478E0,-1.6327171E-1,-8.3589476E-1,-1.604908E-1,1.083938E0,-5.8450985E-1,-8.6519253E-1,-7.485166E-1,2.4038558E0,-8.566095E-1,-9.3273115E-1,-7.2143424E-1,-2.799743E-1,-8.354751E-1,-9.122929E-1,-1.2896523E0,-1.0047808E0,-9.3404907E-1,-4.450274E-1,1.1511132E0,-2.255281E-1,3.6500847E-1,-7.1761894E-1,2.4668026E1,4.4294624E1,5.3368926E0,1.7530012E1,1.0401174E0,2.1941818E1,2.70142E0,4.1199628E-1,-3.2575244E-1,4.5916578E-1,1.8525938E1,6.8452387E0,-8.733706E-1,5.543296E0,-1.0511496E0,-4.7746202E-1,-1.2520822E0,-1.1744871E0,-2.1349359E-1,-7.1607864E-1,1.8260866E0,-9.844689E-2,-1.1963803E0,-5.002307E-1],"split_indices":[2,2,2,2,3,0,2,0,3,0,3,0,0,1,5,0,0,1,1,0,1,1,1,5,0,3,0,1,0,0,2,3,0,0,0,1,0,1,0,1,0,1,1,1,0,0,1,0,0,3,6,2,2,0,1,5,3,0,5,0,0,1,0,0,0,0,0,0,0,0,0,0,0,0,0,0,0,0,0,0,0,0,0,0,0,0,0,0,0,0,0,0,0,0,0,0,0,0,0,0,0,0,0,0,0,0,0,0,0,0,0,0,0,0,0,0,0,0,0,0,0,0,0,0,0,0,0],"split_type":[0,0,0,0,0,0,0,0,0,0,0,0,0,0,0,0,0,0,0,0,0,0,0,0,0,0,0,0,0,0,0,0,0,0,0,0,0,0,0,0,0,0,0,0,0,0,0,0,0,0,0,0,0,0,0,0,0,0,0,0,0,0,0,0,0,0,0,0,0,0,0,0,0,0,0,0,0,0,0,0,0,0,0,0,0,0,0,0,0,0,0,0,0,0,0,0,0,0,0,0,0,0,0,0,0,0,0,0,0,0,0,0,0,0,0,0,0,0,0,0,0,0,0,0,0,0,0],"sum_hessian":[4.309709E6,1.257562E6,3.052147E6,1.078117E6,1.79445E5,1.975237E6,1.07691E6,8.98375E5,1.79742E5,1.28175E5,5.127E4,2.62046E5,1.713191E6,3.59226E5,7.17684E5,1.13342E5,7.85033E5,1.28487E5,5.1255E4,8.289E3,1.19886E5,2.5701E4,2.5569E4,1.27655E5,1.34391E5,8.683E3,1.704508E6,2.32723E5,1.26503E5,5.62084E5,1.556E5,5.8022E4,5.532E4,9.704E3,7.75329E5,9.6903E4,3.1584E4,3.8946E4,1.2309E4,5.818E3,2.471E3,1.05455E5,1.4431E4,2.2475E4,3.226E3,1.537E3,2.4032E4,6.8138E4,5.9517E4,4.7547E4,8.6844E4,6.212E3,2.471E3,2.02711E5,1.501797E6,2.28204E5,4.519E3,3.3419E4,9.3084E4,3.2182E4,5.29902E5,9.4002E4,6.1598E4,4.1415E4,1.6607E4,2.1676E4,3.3644E4,5.728E3,3.976E3,9.2102E4,6.83227E5,9.4557E4,2.346E3,7.749E3,2.3835E4,3.2162E4,6.784E3,3.033E3,9.276E3,4.07E3,1.748E3,8.18E2,1.653E3,1.02877E5,2.578E3,9.21E3,5.221E3,2.2347E4,1.28E2,9.83E2,2.243E3,1.256E3,2.81E2,1.4967E4,9.065E3,4.7469E4,2.0669E4,4.1966E4,1.7551E4,3.3979E4,1.3568E4,1.5915E4,7.0929E4,5.087E3,1.125E3,6.81E2,1.79E3,1.90412E5,1.2299E4,9.4738E4,1.407059E6,1.09681E5,1.18523E5,3.245E3,1.274E3,2.7917E4,5.502E3,6.1495E4,3.1589E4,2.5179E4,7.003E3,1.02934E5,4.26968E5,2.598E3,9.1404E4,3.803E3,5.7795E4],"tree_param":{"num_deleted":"0","num_feature":"10","num_nodes":"127","size_leaf_vector":"1"}},{"base_weights":[1.0818169E-4,-7.047101E0,2.9037385E0,-7.617901E0,-3.6176748E0,6.2694845E0,-3.269615E0,-7.8968415E0,-6.223682E0,-1.6017212E0,-6.2960963E0,1.310411E1,3.1279237E0,2.6536697E-1,-5.2499766E0,-8.135334E0,-7.2997913E0,-5.610186E0,-7.7614655E0,-6.354096E-1,-4.6695027E0,-4.464308E0,-7.2174234E0,6.8448235E1,1.1622733E1,5.7900424E0,-3.6234558E0,3.696306E0,-2.830845E0,-3.9753568E0,-7.910739E0,-8.277179E0,-7.567947E0,-7.5518875E0,-5.6611333E0,-1.0029136E1,-5.3374925E0,-7.076162E0,-7.9396906E0,-1.7775809E0,5.1823125E0,-5.1732183E0,1.7004172E0,-3.3455348E0,-5.6892333E0,-7.6440706E0,-6.718503E0,1.4904622E2,4.1435036E1,6.939906E0,1.7566044E1,1.714254E1,1.9092304E0,-1.0837536E1,-1.1512113E0,7.091148E0,-2.4084687E0,-1.0268149E1,-2.2351234E0,-5.495971E0,1.762008E1,-4.9847074E0,-9.080271E0,-8.466067E-1,-7.8089076E-1,-7.9883873E-1,-6.833979E-1,-7.1268505E-1,-8.33426E-1,-4.9347416E-1,-7.3554486E-1,-9.1711664E-1,-1.044858E0,-4.881904E-1,-8.338631E-1,-7.5205576E-1,-4.717E-1,-9.133814E-1,-7.845305E-1,-3.6088592E-1,-1.7321719E-3,6.7144504E0,1.9419327E-1,-8.04872E-1,-3.458983E-1,3.8574016E-1,-3.1881797E-1,-6.895346E-1,-2.8268847E-1,-5.264558E-1,-9.577098E-1,-7.4196744E-1,-8.3612365E-1,-2.8735074E-1,-6.8239856E-1,9.093074E0,2.1394796E1,2.1609578E0,6.4000144E0,5.270338E-1,1.6492274E0,2.2499664E0,5.5547374E-1,2.0017805E0,-3.0024797E-1,-1.40694E-1,1.1173046E0,-1.36063E0,-8.0599755E-1,2.8094401E0,-1.9223252E-1,4.085965E-1,1.5776705E1,6.579628E-1,-5.635264E-1,-1.0941395E0,-7.400519E-1,3.9867753E-1,-3.6129922E-1,-7.511995E-1,-3.6258984E-1,4.849926E0,-5.481404E-1,-9.3628734E-1,1.7472366E0,-1.3114934E0,-8.539142E-1],"categories":[],"categories_nodes":[],"categories_segments":[],"categories_sizes":[],"default_left":[0,0,0,0,0,0,0,0,0,0,0,0,0,0,0,0,0,0,0,0,0,0,0,0,0,0,0,0,0,0,0,0,0,0,0,0,0,0,0,0,0,0,0,0,0,0,0,0,0,0,0,0,0,0,0,0,0,0,0,0,0,0,0,0,0,0,0,0,0,0,0,0,0,0,0,0,0,0,0,0,0,0,0,0,0,0,0,0,0,0,0,0,0,0,0,0,0,0,0,0,0,0,0,0,0,0,0,0,0,0,0,0,0,0,0,0,0,0,0,0,0,0,0,0,0,0,0],"id":8,"left_children":[1,3,5,7,9,11,13,15,17,19,21,23,25,27,29,31,33,35,37,39,41,43,45,47,49,51,53,55,57,59,61,63,65,67,69,71,73,75,77,79,81,83,85,87,89,91,93,95,97,99,101,103,105,107,109,111,113,115,117,119,121,123,125,-1,-1,-1,-1,-1,-1,-1,-1,-1,-1,-1,-1,-1,-1,-1,-1,-1,-1,-1,-1,-1,-1,-1,-1,-1,-1,-1,-1,-1,-1,-1,-1,-1,-1,-1,-1,-1,-1,-1,-1,-1,-1,-1,-1,-1,-1,-1,-1,-1,-1,-1,-1,-1,-1,-1,-1,-1,-1,-1,-1,-1,-1,-1,-1],"loss_changes":[8.8187416E7,2.461676E6,6.3417372E7,4.19236E5,9.6892175E5,4.2411056E7,7.538963E6,1.27856E5,1.695305E5,3.0351347E5,1.30022E5,5.099533E7,2.43215E7,4.10769E6,2.34086E6,5.1604E4,1.05891E5,1.547765E5,6.204E3,5.1738934E5,7.8700375E4,3.5325312E4,1.08625E4,3.529728E7,1.6860208E7,4.2758784E7,6.825252E6,3.8014745E6,9.00516E5,1.532496E7,7.64984E5,4.5356E4,3.9568E4,7.3845E4,4.204875E4,2.591375E3,1.6543075E5,1.1065E4,4.51225E3,2.09803E5,2.5654495E6,1.1200494E5,1.8971537E4,2.480236E4,2.0274344E4,4.384375E3,9.569125E3,1.5331752E7,5.432296E6,5.403717E6,1.5820248E7,1.4321464E7,2.2219612E7,7.51043E5,6.4276705E6,5.337463E7,1.901196E6,2.901925E4,1.6133082E6,1.643658E6,2.1899548E7,6.277062E6,3.48591E5,0E0,0E0,0E0,0E0,0E0,0E0,0E0,0E0,0E0,0E0,0E0,0E0,0E0,0E0,0E0,0E0,0E0,0E0,0E0,0E0,0E0,0E0,0E0,0E0,0E0,0E0,0E0,0E0,0E0,0E0,0E0,0E0,0E0,0E0,0E0,0E0,0E0,0E0,0E0,0E0,0E0,0E0,0E0,0E0,0E0,0E0,0E0,0E0,0E0,0E0,0E0,0E0,0E0,0E0,0E0,0E0,0E0,0E0,0E0,0E0,0E0,0E0,0E0,0E0],"parents":[2147483647,0,0,1,1,2,2,3,3,4,4,5,5,6,6,7,7,8,8,9,9,10,10,11,11,12,12,13,13,14,14,15,15,16,16,17,17,18,18,19,19,20,20,21,21,22,22,23,23,24,24,25,25,26,26,27,27,28,28,29,29,30,30,31,31,32,32,33,33,34,34,35,35,36,36,37,37,38,38,39,39,40,40,41,41,42,42,43,43,44,44,45,45,46,46,47,47,48,48,49,49,50,50,51,51,52,52,53,53,54,54,55,55,56,56,57,57,58,58,59,59,60,60,61,61,62,62],"right_children":[2,4,6,8,10,12,14,16,18,20,22,24,26,28,30,32,34,36,38,40,42,44,46,48,50,52,54,56,58,60,62,64,66,68,70,72,74,76,78,80,82,84,86,88,90,92,94,96,98,100,102,104,106,108,110,112,114,116,118,120,122,124,126,-1,-1,-1,-1,-1,-1,-1,-1,-1,-1,-1,-1,-1,-1,-1,-1,-1,-1,-1,-1,-1,-1,-1,-1,-1,-1,-1,-1,-1,-1,-1,-1,-1,-1,-1,-1,-1,-1,-1,-1,-1,-1,-1,-1,-1,-1,-1,-1,-1,-1,-1,-1,-1,-1,-1,-1,-1,-1,-1,-1,-1,-1,-1,-1],"split_conditions":[7E0,6E0,1.8E1,5E0,4E0,6.8E1,7.2E1,5E0,5E0,5.04474E0,5E0,2.85608E0,5E0,2E1,4.81283E0,4E0,1.65E1,5.079286E1,3.555502E0,4.7087917E0,5.123299E1,1.14E1,9.8E0,5.113425E1,1.5E1,9E0,9E0,4.7153726E0,5.08058E1,4.70796E0,5.094366E1,1.36E1,5.108763E1,4.7153726E0,3E0,4.24951E0,5.3819795E0,3.26286E0,5.079286E1,5.097025E1,4.71526E0,5.341758E0,5.125484E1,5.081925E1,1.2E1,5.04474E0,2.85608E0,1.95E1,7E0,5.341758E0,5E0,5.3819795E0,1.5E1,8E0,2.85608E0,4.7087917E0,5.094366E1,5.079286E1,5.0887123E1,5.097025E1,4.7153726E0,5.088298E1,1.9E1,-8.466067E-1,-7.8089076E-1,-7.9883873E-1,-6.833979E-1,-7.1268505E-1,-8.33426E-1,-4.9347416E-1,-7.3554486E-1,-9.1711664E-1,-1.044858E0,-4.881904E-1,-8.338631E-1,-7.5205576E-1,-4.717E-1,-9.133814E-1,-7.845305E-1,-3.6088592E-1,-1.7321719E-3,6.7144504E0,1.9419327E-1,-8.04872E-1,-3.458983E-1,3.8574016E-1,-3.1881797E-1,-6.895346E-1,-2.8268847E-1,-5.264558E-1,-9.577098E-1,-7.4196744E-1,-8.3612365E-1,-2.8735074E-1,-6.8239856E-1,9.093074E0,2.1394796E1,2.1609578E0,6.4000144E0,5.270338E-1,1.6492274E0,2.2499664E0,5.5547374E-1,2.0017805E0,-3.0024797E-1,-1.40694E-1,1.1173046E0,-1.36063E0,-8.0599755E-1,2.8094401E0,-1.9223252E-1,4.085965E-1,1.5776705E1,6.579628E-1,-5.635264E-1,-1.0941395E0,-7.400519E-1,3.9867753E-1,-3.6129922E-1,-7.511995E-1,-3.6258984E-1,4.849926E0,-5.481404E-1,-9.3628734E-1,1.7472366E0,-1.3114934E0,-8.539142E-1],"split_indices":[2,2,2,2,3,6,6,3,3,1,3,1,3,2,1,2,5,0,1,1,0,8,5,0,2,2,2,1,0,1,0,5,0,1,2,1,1,1,0,0,1,1,0,0,4,1,1,5,4,1,3,1,2,2,1,1,0,0,0,0,1,0,2,0,0,0,0,0,0,0,0,0,0,0,0,0,0,0,0,0,0,0,0,0,0,0,0,0,0,0,0,0,0,0,0,0,0,0,0,0,0,0,0,0,0,0,0,0,0,0,0,0,0,0,0,0,0,0,0,0,0,0,0,0,0,0,0],"split_type":[0,0,0,0,0,0,0,0,0,0,0,0,0,0,0,0,0,0,0,0,0,0,0,0,0,0,0,0,0,0,0,0,0,0,0,0,0,0,0,0,0,0,0,0,0,0,0,0,0,0,0,0,0,0,0,0,0,0,0,0,0,0,0,0,0,0,0,0,0,0,0,0,0,0,0,0,0,0,0,0,0,0,0,0,0,0,0,0,0,0,0,0,0,0,0,0,0,0,0,0,0,0,0,0,0,0,0,0,0,0,0,0,0,0,0,0,0,0,0,0,0,0,0,0,0,0,0],"sum_hessian":[4.309709E6,1.257562E6,3.052147E6,1.078117E6,1.79445E5,1.975237E6,1.07691E6,8.98375E5,1.79742E5,1.02385E5,7.706E4,6.22013E5,1.353224E6,3.8668E5,6.9023E5,6.41939E5,2.56436E5,1.28487E5,5.1255E4,7.7861E4,2.4524E4,2.579E4,5.127E4,1.6214E4,6.05799E5,9.70535E5,3.82689E5,1.83425E5,2.03255E5,4.66675E5,2.23555E5,5.13542E5,1.28397E5,2.22242E5,3.4194E4,7.466E3,1.21021E5,1.0587E4,4.0668E4,6.5084E4,1.2777E4,2.2727E4,1.797E3,1.3481E4,1.2309E4,2.7629E4,2.3641E4,4.069E3,1.2145E4,3.38831E5,2.66968E5,2.47251E5,7.23284E5,9.7673E4,2.85016E5,1.17875E5,6.555E4,1.5072E4,1.88183E5,4.35977E5,3.0698E4,6.384E4,1.59715E5,3.65922E5,1.4762E5,8.1628E4,4.6769E4,1.44014E5,7.8228E4,2.3936E4,1.0258E4,2.459E3,5.007E3,1.05073E5,1.5948E4,8.907E3,1.68E3,2.972E3,3.7696E4,3.1898E4,3.3186E4,6.34E2,1.2143E4,8.487E3,1.424E4,1.247E3,5.5E2,1.717E3,1.1764E4,1.1099E4,1.21E3,2.1053E4,6.576E3,6.32E2,2.3009E4,2.148E3,1.921E3,6.466E3,5.679E3,2.88422E5,5.0409E4,1.89238E5,7.773E4,2.16369E5,3.0882E4,5.32622E5,1.90662E5,4.8912E4,4.8761E4,7.321E3,2.77695E5,1.15571E5,2.304E3,1.7316E4,4.8234E4,1.2204E4,2.868E3,3.4118E4,1.54065E5,2.098E5,2.26177E5,1.3137E4,1.7561E4,5.3425E4,1.0415E4,1.8885E4,1.4083E5],"tree_param":{"num_deleted":"0","num_feature":"10","num_nodes":"127","size_leaf_vector":"1"}},{"base_weights":[1.0927104E-4,-6.3424E0,2.6133854E0,-6.856122E0,-3.2559052E0,5.2692986E0,-3.7650146E0,-7.107164E0,-5.601348E0,-1.4414959E0,-5.6665516E0,1.0382686E0,9.699026E0,-2.156157E0,-6.1823583E0,-6.974968E0,-8.037898E0,-5.049193E0,-6.985376E0,-7.8695583E-1,-5.268062E0,-4.0179725E0,-6.495731E0,2.6333313E0,-1.0440514E1,4.928586E1,8.619349E0,-1.085114E1,-1.5557175E0,-4.922857E0,-7.4413753E0,-7.1028996E0,2.3967572E-1,-8.133696E0,-7.240661E0,-6.017977E0,-3.984636E0,-6.639683E0,-7.3324046E0,-7.25976E0,-3.3240157E-1,-4.3603888E0,-8.01312E0,-6.820934E0,-3.5929124E0,-8.214967E0,-6.3752966E0,1.3350232E0,7.777918E1,-1.4632771E1,-6.1441307E0,1.1250944E2,2.815868E1,-2.9447753E0,1.0450752E1,-1.2714474E1,-9.927654E0,5.232116E0,-3.1183052E0,-6.3797283E0,-3.5641534E0,-9.686158E0,-7.1149473E0,-6.8892896E-1,-7.7530617E-1,-2.0834899E-1,1.7647437E0,-8.0118555E-1,-8.2906646E-1,-7.59077E-1,-6.368219E-1,-7.0191604E-1,-4.3441296E-1,-7.726697E-1,-3.0082303E-1,-5.947959E-1,-6.8996364E-1,-8.114753E-1,-7.2194827E-1,-8.4660095E-1,-4.4702092E-1,3.4190595E-2,-5.0283974E-1,-3.660476E-1,-6.556999E-1,-8.7287873E-1,-4.3415594E-1,-8.735823E-2,-7.4523985E-1,5.1774073E0,-3.8734993E-1,-8.391706E-1,-7.784026E-1,-6.193071E-1,-7.638229E-1,3.8924393E-1,-7.883823E-1,9.608186E0,3.1538637E0,-5.286537E-1,-1.5698045E0,-1.2524728E0,6.51304E-2,7.293093E0,1.7446196E1,1.5403345E0,5.544064E0,-8.081403E-1,2.0453127E-1,2.2284077E1,9.393964E-1,-1.3537607E0,-1.0777625E0,-1.0426852E0,-8.7574E-1,1.6217507E-1,1.0172532E1,-4.0960962E-1,1.5692957E-1,-8.251489E-1,-4.0603948E-1,1.9662704E0,-4.1352725E-1,-1.0198898E0,-9.017481E-1,1.1052196E0,-7.3460746E-1],"categories":[],"categories_nodes":[],"categories_segments":[],"categories_sizes":[],"default_left":[0,0,0,0,0,0,0,0,0,0,0,0,0,0,0,0,0,0,0,0,0,0,0,0,0,0,0,0,0,0,0,0,0,0,0,0,0,0,0,0,0,0,0,0,0,0,0,0,0,0,0,0,0,0,0,0,0,0,0,0,0,0,0,0,0,0,0,0,0,0,0,0,0,0,0,0,0,0,0,0,0,0,0,0,0,0,0,0,0,0,0,0,0,0,0,0,0,0,0,0,0,0,0,0,0,0,0,0,0,0,0,0,0,0,0,0,0,0,0,0,0,0,0,0,0,0,0],"id":9,"left_children":[1,3,5,7,9,11,13,15,17,19,21,23,25,27,29,31,33,35,37,39,41,43,45,47,49,51,53,55,57,59,61,63,65,67,69,71,73,75,77,79,81,83,85,87,89,91,93,95,97,99,101,103,105,107,109,111,113,115,117,119,121,123,125,-1,-1,-1,-1,-1,-1,-1,-1,-1,-1,-1,-1,-1,-1,-1,-1,-1,-1,-1,-1,-1,-1,-1,-1,-1,-1,-1,-1,-1,-1,-1,-1,-1,-1,-1,-1,-1,-1,-1,-1,-1,-1,-1,-1,-1,-1,-1,-1,-1,-1,-1,-1,-1,-1,-1,-1,-1,-1,-1,-1,-1,-1,-1,-1],"loss_changes":[7.143229E7,1.993964E6,5.170486E7,3.39572E5,7.8487075E5,4.0387336E7,3.489625E6,1.10476E5,1.37324E5,2.5643598E5,1.0531375E5,2.0179854E7,4.4993856E7,2.812575E6,5.68524E5,7.26068E5,8.4745E3,1.32489E5,6.10025E3,2.5724356E5,3.722722E4,3.0703594E4,1.05635E4,9.441022E7,2.421887E6,3.7329304E7,2.170324E7,5.975475E4,5.3449825E6,3.54779E5,1.31319E5,1.07292E5,5.543631E5,1.8405E3,3.61525E3,1.1269925E5,2.2366412E5,4.578E3,2.20025E3,1.9266562E4,2.5869578E5,1.7258297E4,9.723703E3,1.2743531E4,3.4814344E5,1.9007812E2,1.098075E4,2.2427272E7,1.3906328E7,6.77523E5,2.8795178E6,1.7151192E7,7.289549E6,3.5912195E6,1.9856269E8,1.8233E4,1.350375E4,3.285132E7,1.8775475E6,3.75462E5,1.2304115E6,7.71175E3,6.57406E5,0E0,0E0,0E0,0E0,0E0,0E0,0E0,0E0,0E0,0E0,0E0,0E0,0E0,0E0,0E0,0E0,0E0,0E0,0E0,0E0,0E0,0E0,0E0,0E0,0E0,0E0,0E0,0E0,0E0,0E0,0E0,0E0,0E0,0E0,0E0,0E0,0E0,0E0,0E0,0E0,0E0,0E0,0E0,0E0,0E0,0E0,0E0,0E0,0E0,0E0,0E0,0E0,0E0,0E0,0E0,0E0,0E0,0E0,0E0,0E0,0E0,0E0,0E0,0E0],"parents":[2147483647,0,0,1,1,2,2,3,3,4,4,5,5,6,6,7,7,8,8,9,9,10,10,11,11,12,12,13,13,14,14,15,15,16,16,17,17,18,18,19,19,20,20,21,21,22,22,23,23,24,24,25,25,26,26,27,27,28,28,29,29,30,30,31,31,32,32,33,33,34,34,35,35,36,36,37,37,38,38,39,39,40,40,41,41,42,42,43,43,44,44,45,45,46,46,47,47,48,48,49,49,50,50,51,51,52,52,53,53,54,54,55,55,56,56,57,57,58,58,59,59,60,60,61,61,62,62],"right_children":[2,4,6,8,10,12,14,16,18,20,22,24,26,28,30,32,34,36,38,40,42,44,46,48,50,52,54,56,58,60,62,64,66,68,70,72,74,76,78,80,82,84,86,88,90,92,94,96,98,100,102,104,106,108,110,112,114,116,118,120,122,124,126,-1,-1,-1,-1,-1,-1,-1,-1,-1,-1,-1,-1,-1,-1,-1,-1,-1,-1,-1,-1,-1,-1,-1,-1,-1,-1,-1,-1,-1,-1,-1,-1,-1,-1,-1,-1,-1,-1,-1,-1,-1,-1,-1,-1,-1,-1,-1,-1,-1,-1,-1,-1,-1,-1,-1,-1,-1,-1,-1,-1,-1,-1,-1,-1],"split_conditions":[7E0,6E0,1.9E1,5E0,4E0,1.28E1,2.2E1,5.3819795E0,5E0,1E-1,5E0,5.3819795E0,2.85608E0,5.080555E1,2.3E1,5.341758E0,5.11481E1,5.102805E1,6E0,5.080555E1,2.21E1,5.083066E1,5.080555E1,5.341758E0,5.09779E1,5.113425E1,5.083066E1,2E1,5.0887123E1,4.46883E0,5.081925E1,4.7153726E0,1.7E1,5.09779E1,5E0,4.70796E0,3.24095E0,3.80406E0,5.081925E1,5.075848E1,5.3819795E0,5.04474E0,1.23E1,3.16252E0,5.083332E1,5.075848E1,5.3819795E0,4.81283E0,5E0,5.44375E0,5.48927E0,1.94E1,2.04E1,5.080555E1,5.083332E1,5.075848E1,5.075848E1,5.0887074E1,1.99E1,5.102805E1,4.47169E0,5.08058E1,5.083332E1,-6.8892896E-1,-7.7530617E-1,-2.0834899E-1,1.7647437E0,-8.0118555E-1,-8.2906646E-1,-7.59077E-1,-6.368219E-1,-7.0191604E-1,-4.3441296E-1,-7.726697E-1,-3.0082303E-1,-5.947959E-1,-6.8996364E-1,-8.114753E-1,-7.2194827E-1,-8.4660095E-1,-4.4702092E-1,3.4190595E-2,-5.0283974E-1,-3.660476E-1,-6.556999E-1,-8.7287873E-1,-4.3415594E-1,-8.735823E-2,-7.4523985E-1,5.1774073E0,-3.8734993E-1,-8.391706E-1,-7.784026E-1,-6.193071E-1,-7.638229E-1,3.8924393E-1,-7.883823E-1,9.608186E0,3.1538637E0,-5.286537E-1,-1.5698045E0,-1.2524728E0,6.51304E-2,7.293093E0,1.7446196E1,1.5403345E0,5.544064E0,-8.081403E-1,2.0453127E-1,2.2284077E1,9.393964E-1,-1.3537607E0,-1.0777625E0,-1.0426852E0,-8.7574E-1,1.6217507E-1,1.0172532E1,-4.0960962E-1,1.5692957E-1,-8.251489E-1,-4.0603948E-1,1.9662704E0,-4.1352725E-1,-1.0198898E0,-9.017481E-1,1.1052196E0,-7.3460746E-1],"split_indices":[2,2,2,2,3,5,2,1,3,7,3,1,1,0,2,1,0,0,3,0,8,0,0,1,0,0,0,2,0,1,0,1,5,0,3,1,1,1,0,0,1,1,5,1,0,0,1,1,3,1,1,5,5,0,0,0,0,0,5,0,1,0,0,0,0,0,0,0,0,0,0,0,0,0,0,0,0,0,0,0,0,0,0,0,0,0,0,0,0,0,0,0,0,0,0,0,0,0,0,0,0,0,0,0,0,0,0,0,0,0,0,0,0,0,0,0,0,0,0,0,0,0,0,0,0,0,0],"split_type":[0,0,0,0,0,0,0,0,0,0,0,0,0,0,0,0,0,0,0,0,0,0,0,0,0,0,0,0,0,0,0,0,0,0,0,0,0,0,0,0,0,0,0,0,0,0,0,0,0,0,0,0,0,0,0,0,0,0,0,0,0,0,0,0,0,0,0,0,0,0,0,0,0,0,0,0,0,0,0,0,0,0,0,0,0,0,0,0,0,0,0,0,0,0,0,0,0,0,0,0,0,0,0,0,0,0,0,0,0,0,0,0,0,0,0,0,0,0,0,0,0,0,0,0,0,0,0],"sum_hessian":[4.309709E6,1.257562E6,3.052147E6,1.078117E6,1.79445E5,2.154875E6,8.97272E5,8.98375E5,1.79742E5,1.02385E5,7.706E4,1.102157E6,1.052718E6,5.38726E5,3.58546E5,7.86652E5,1.11723E5,1.28487E5,5.1255E4,8.7431E4,1.4954E4,2.579E4,5.127E4,9.6769E5,1.34467E5,2.7948E4,1.02477E6,3.4798E4,5.03928E5,1.79241E5,1.79305E5,7.72946E5,1.3706E4,9.973E4,1.1993E4,6.7267E4,6.122E4,2.5687E4,2.5568E4,5.736E3,8.1695E4,1.124E4,3.714E3,3.394E3,2.2396E4,3.352E3,4.7918E4,9.51256E5,1.6434E4,6.8057E4,6.641E4,6.999E3,2.0949E4,1.40104E5,8.84666E5,1.1527E4,2.3271E4,9.4298E4,4.0963E5,8.6494E4,9.2747E4,2.276E4,1.56545E5,5.81806E5,1.9114E5,1.2093E4,1.613E3,5.6177E4,4.3553E4,8.553E3,3.44E3,4.2089E4,2.5178E4,1.2667E4,4.8553E4,7.023E3,1.8664E4,3.216E3,2.2352E4,4.003E3,1.733E3,7.1438E4,1.0257E4,8.526E3,2.714E3,3.107E3,6.07E2,3.26E2,3.068E3,1.12E2,2.2284E4,2.364E3,9.88E2,4.1881E4,6.037E3,7.44675E5,2.06581E5,1.1773E4,4.661E3,6.964E3,6.1093E4,3.425E4,3.216E4,4.272E3,2.727E3,1.4276E4,6.673E3,6.9038E4,7.1066E4,4.379E3,8.80287E5,8.085E3,3.442E3,1.6307E4,6.964E3,9.0898E4,3.4E3,3.38932E5,7.0698E4,4.7864E4,3.863E4,2.225E3,9.0522E4,1.2874E4,9.886E3,1.966E3,1.54579E5],"tree_param":{"num_deleted":"0","num_feature":"10","num_nodes":"127","size_leaf_vector":"1"}},{"base_weights":[1.11578294E-4,-5.708169E0,2.3520691E0,-6.1705174E0,-2.9303322E0,5.1221495E0,-2.7287319E0,-6.396451E0,-5.041241E0,-1.2973865E0,-5.099884E0,1.380377E1,3.238818E0,-4.9442067E0,-4.7373286E-1,-6.697091E0,-5.995465E0,-4.5548263E0,-6.5316973E0,-6.130322E-1,-4.6136994E0,-3.6160219E0,-5.8462157E0,6.577096E1,1.2424742E1,-6.382698E0,4.6999645E0,-3.776642E0,-7.376349E0,3.0592527E0,-2.6354635E0,-6.8448133E0,-6.1064496E0,-7.370451E0,-5.796869E0,-4.9143267E0,9.895533E0,-4.521906E0,-7.179537E0,-6.544534E0,-1.976997E-1,-3.8667145E0,-7.26823E0,-3.20788E0,-6.4527693E0,-5.4064336E0,-6.28804E0,1.3847586E2,4.1109207E1,-5.3374543E0,1.38721E1,-9.927956E0,-3.0195844E0,2.0332745E2,3.670602E0,-5.0619802E0,1.46917095E1,-6.494602E0,-9.417174E0,5.9575E0,-2.1990068E0,-1.9564724E0,-7.294334E0,-6.419591E-1,-6.9865376E-1,-7.875391E-1,-5.951655E-1,-7.8837854E-1,-6.831626E-1,5.8541733E-1,-5.941538E-1,-5.523223E-1,-1.0605259E-1,3.2931027E0,-1.4543289E-1,-6.801779E-1,6.7692333E-1,-7.5824744E-1,-3.346655E-1,-7.649496E-1,-4.000679E-1,4.0399168E-2,-4.584674E-1,-4.720865E-1,-1.362339E-1,-1.0719227E0,-6.537929E-1,-3.4676525E-1,1.163822E0,-6.986608E-1,-5.19092E-1,-7.560543E-1,-5.272613E-1,-3.4492815E-1,-6.3626474E-1,8.05442E0,2.1280579E1,2.088577E0,6.652257E0,-7.790934E-1,-1.271817E-1,2.365064E0,9.127146E-1,-1.1321424E0,-7.814897E-1,3.9855632E-1,-6.8604726E-1,2.4100805E1,1.0870936E1,1.7334356E0,1.8257977E-1,-3.2784906E-1,-6.4278954E-1,4.1200747E0,-5.009752E-1,-7.7505475E-1,-4.518431E-2,-1.4364009E0,-8.6244553E-1,3.2131192E-1,1.4267982E1,6.8524975E-1,-5.428989E-1,-2.6070327E-1,3.3258412E0,-7.823483E-1,-5.041257E-1],"categories":[],"categories_nodes":[],"categories_segments":[],"categories_sizes":[],"default_left":[0,0,0,0,0,0,0,0,0,0,0,0,0,0,0,0,0,0,0,0,0,0,0,0,0,0,0,0,0,0,0,0,0,0,0,0,0,0,0,0,0,0,0,0,0,0,0,0,0,0,0,0,0,0,0,0,0,0,0,0,0,0,0,0,0,0,0,0,0,0,0,0,0,0,0,0,0,0,0,0,0,0,0,0,0,0,0,0,0,0,0,0,0,0,0,0,0,0,0,0,0,0,0,0,0,0,0,0,0,0,0,0,0,0,0,0,0,0,0,0,0,0,0,0,0,0,0],"id":10,"left_children":[1,3,5,7,9,11,13,15,17,19,21,23,25,27,29,31,33,35,37,39,41,43,45,47,49,51,53,55,57,59,61,63,65,67,69,71,73,75,77,79,81,83,85,87,89,91,93,95,97,99,101,103,105,107,109,111,113,115,117,119,121,123,125,-1,-1,-1,-1,-1,-1,-1,-1,-1,-1,-1,-1,-1,-1,-1,-1,-1,-1,-1,-1,-1,-1,-1,-1,-1,-1,-1,-1,-1,-1,-1,-1,-1,-1,-1,-1,-1,-1,-1,-1,-1,-1,-1,-1,-1,-1,-1,-1,-1,-1,-1,-1,-1,-1,-1,-1,-1,-1,-1,-1,-1,-1,-1,-1],"loss_changes":[5.78606E7,1.615104E6,4.295664E7,2.75044E5,6.357276E5,3.2295832E7,5.3801305E6,1.0826E5,1.302805E5,2.3236558E5,8.532025E4,2.5232872E7,2.2818704E7,1.542533E6,4.076038E6,4.4754E4,1.05076E5,7.0406325E5,5.7548125E4,2.0908722E5,3.470028E4,2.9839969E4,9.9285E3,1.6314472E7,8.818244E6,2.551455E6,2.8811053E8,8.712566E6,3.16993E5,3.0874772E6,1.0473775E6,2.4704E4,2.808225E4,1.338325E4,5.67012E5,3.1028275E5,8.602174E5,2.7762597E5,5.162275E4,1.5580922E4,2.0937528E5,2.9235234E4,9.620344E3,8.700305E4,2.1482969E3,7.369125E3,5.3935625E3,9.908312E6,3.492412E6,2.5779288E5,1.4715836E7,3.06655E5,2.954843E6,2.5875456E7,3.533687E7,8.35913E5,1.2472982E7,9.3377E5,2.08321E5,4.9005276E7,2.1046925E6,6.620627E6,5.017325E4,0E0,0E0,0E0,0E0,0E0,0E0,0E0,0E0,0E0,0E0,0E0,0E0,0E0,0E0,0E0,0E0,0E0,0E0,0E0,0E0,0E0,0E0,0E0,0E0,0E0,0E0,0E0,0E0,0E0,0E0,0E0,0E0,0E0,0E0,0E0,0E0,0E0,0E0,0E0,0E0,0E0,0E0,0E0,0E0,0E0,0E0,0E0,0E0,0E0,0E0,0E0,0E0,0E0,0E0,0E0,0E0,0E0,0E0,0E0,0E0,0E0,0E0,0E0,0E0],"parents":[2147483647,0,0,1,1,2,2,3,3,4,4,5,5,6,6,7,7,8,8,9,9,10,10,11,11,12,12,13,13,14,14,15,15,16,16,17,17,18,18,19,19,20,20,21,21,22,22,23,23,24,24,25,25,26,26,27,27,28,28,29,29,30,30,31,31,32,32,33,33,34,34,35,35,36,36,37,37,38,38,39,39,40,40,41,41,42,42,43,43,44,44,45,45,46,46,47,47,48,48,49,49,50,50,51,51,52,52,53,53,54,54,55,55,56,56,57,57,58,58,59,59,60,60,61,61,62,62],"right_children":[2,4,6,8,10,12,14,16,18,20,22,24,26,28,30,32,34,36,38,40,42,44,46,48,50,52,54,56,58,60,62,64,66,68,70,72,74,76,78,80,82,84,86,88,90,92,94,96,98,100,102,104,106,108,110,112,114,116,118,120,122,124,126,-1,-1,-1,-1,-1,-1,-1,-1,-1,-1,-1,-1,-1,-1,-1,-1,-1,-1,-1,-1,-1,-1,-1,-1,-1,-1,-1,-1,-1,-1,-1,-1,-1,-1,-1,-1,-1,-1,-1,-1,-1,-1,-1,-1,-1,-1,-1,-1,-1,-1,-1,-1,-1,-1,-1,-1,-1,-1,-1,-1,-1,-1,-1,-1],"split_conditions":[7E0,6E0,1.8E1,5E0,4E0,5.8E1,1.24E1,4E0,4.99698E0,1.82E1,5E0,2.85608E0,5.083066E1,4.81283E0,2E1,4E0,5.081925E1,4.939479E0,5.094366E1,5.080555E1,2.61E1,5.3819795E0,6E0,5.113425E1,5.08058E1,5.080555E1,5.083332E1,4.70796E0,5.47817E0,4.7153726E0,5.3819795E0,1E0,3.0921E0,5.080555E1,5.083332E1,4.7087917E0,4.940042E0,5.093385E1,5.123299E1,5.075848E1,5.41001E0,1.23E1,5.6E1,5.341758E0,5.109612E1,5.079286E1,2.85608E0,7E0,7E0,5.075848E1,5.094366E1,1.28E1,5.081331E1,5E0,5.0887123E1,3.80406E0,4.7153726E0,5.341758E0,1.9E1,4.7087917E0,5.094366E1,5.341758E0,5.11347E1,-6.419591E-1,-6.9865376E-1,-7.875391E-1,-5.951655E-1,-7.8837854E-1,-6.831626E-1,5.8541733E-1,-5.941538E-1,-5.523223E-1,-1.0605259E-1,3.2931027E0,-1.4543289E-1,-6.801779E-1,6.7692333E-1,-7.5824744E-1,-3.346655E-1,-7.649496E-1,-4.000679E-1,4.0399168E-2,-4.584674E-1,-4.720865E-1,-1.362339E-1,-1.0719227E0,-6.537929E-1,-3.4676525E-1,1.163822E0,-6.986608E-1,-5.19092E-1,-7.560543E-1,-5.272613E-1,-3.4492815E-1,-6.3626474E-1,8.05442E0,2.1280579E1,2.088577E0,6.652257E0,-7.790934E-1,-1.271817E-1,2.365064E0,9.127146E-1,-1.1321424E0,-7.814897E-1,3.9855632E-1,-6.8604726E-1,2.4100805E1,1.0870936E1,1.7334356E0,1.8257977E-1,-3.2784906E-1,-6.4278954E-1,4.1200747E0,-5.009752E-1,-7.7505475E-1,-4.518431E-2,-1.4364009E0,-8.6244553E-1,3.2131192E-1,1.4267982E1,6.8524975E-1,-5.428989E-1,-2.6070327E-1,3.3258412E0,-7.823483E-1,-5.041257E-1],"split_indices":[2,2,2,2,3,6,5,3,1,8,3,1,0,1,2,2,0,1,0,0,8,1,3,0,0,0,0,1,1,1,1,2,1,0,0,1,1,0,0,0,1,5,9,1,0,0,1,4,4,0,0,5,0,3,0,1,1,1,2,1,0,1,0,0,0,0,0,0,0,0,0,0,0,0,0,0,0,0,0,0,0,0,0,0,0,0,0,0,0,0,0,0,0,0,0,0,0,0,0,0,0,0,0,0,0,0,0,0,0,0,0,0,0,0,0,0,0,0,0,0,0,0,0,0,0,0,0],"split_type":[0,0,0,0,0,0,0,0,0,0,0,0,0,0,0,0,0,0,0,0,0,0,0,0,0,0,0,0,0,0,0,0,0,0,0,0,0,0,0,0,0,0,0,0,0,0,0,0,0,0,0,0,0,0,0,0,0,0,0,0,0,0,0,0,0,0,0,0,0,0,0,0,0,0,0,0,0,0,0,0,0,0,0,0,0,0,0,0,0,0,0,0,0,0,0,0,0,0,0,0,0,0,0,0,0,0,0,0,0,0,0,0,0,0,0,0,0,0,0,0,0,0,0,0,0,0,0],"sum_hessian":[4.309709E6,1.257562E6,3.052147E6,1.078117E6,1.79445E5,1.975237E6,1.07691E6,8.98375E5,1.79742E5,1.02385E5,7.706E4,3.52109E5,1.623128E6,5.43215E5,5.33695E5,5.13421E5,3.84954E5,1.35519E5,4.4223E4,8.4872E4,1.7513E4,2.579E4,5.127E4,9.101E3,3.43008E5,2.13994E5,1.409134E6,3.67025E5,1.7619E5,2.02592E5,3.31103E5,4.10694E5,1.02727E5,4.8579E4,3.36375E5,1.3223E5,3.289E3,1.0782E4,3.3441E4,5.553E3,7.9319E4,1.3669E4,3.844E3,2.2548E4,3.242E3,2.5701E4,2.5569E4,2.304E3,6.797E3,2.5844E4,3.17164E5,1.04175E5,1.09819E5,7.264E3,1.40187E6,3.43144E5,2.3881E4,1.23036E5,5.3154E4,1.30605E5,7.1987E4,2.88987E5,4.2116E4,1.02676E5,3.08018E5,8.262E3,9.4465E4,2.4871E4,2.3708E4,4.125E3,3.3225E5,1.14188E5,1.8042E4,1.085E3,2.204E3,8.971E3,1.811E3,3.0259E4,3.182E3,3.87E3,1.683E3,6.9753E4,9.566E3,1.0192E4,3.477E3,6.69E2,3.175E3,2.2161E4,3.87E2,2.275E3,9.67E2,1.5E3,2.4201E4,6.56E2,2.4913E4,1.296E3,1.008E3,3.786E3,3.011E3,1.6117E4,9.727E3,1.03619E5,2.13545E5,6.2774E4,4.1401E4,3.889E4,7.0929E4,5.194E3,2.07E3,1.66757E5,1.235113E6,1.48825E5,1.94319E5,1.0181E4,1.37E4,1.01864E5,2.1172E4,7.339E3,4.5815E4,1.28036E5,2.569E3,1.8932E4,5.3055E4,2.83746E5,5.241E3,3.4104E4,8.012E3],"tree_param":{"num_deleted":"0","num_feature":"10","num_nodes":"127","size_leaf_vector":"1"}},{"base_weights":[1.19582575E-4,5.1781054E0,-2.1573021E0,3.2807476E1,4.438536E0,-5.5874877E0,-5.7876444E-1,7.6147545E1,1.828767E1,-6.888167E0,5.353304E0,-5.8014975E0,-4.5665584E0,1.2551844E0,-5.197112E0,5.0861042E1,1.4248029E2,9.8024E0,4.261898E1,-8.381514E0,-4.3349404E0,1.2054433E1,2.1314387E0,-5.69694E0,-6.6869516E0,-4.07108E0,-5.8168197E0,9.2284565E0,-1.3049122E0,-8.630905E0,-4.1033263E0,2.9651106E1,7.912119E1,7.054066E1,1.7566995E2,1.8015265E0,1.7334234E1,1.3887887E1,5.699811E1,-6.5457225E0,-9.867006E0,-1.9834286E0,-7.021983E0,9.294363E0,8.684118E1,-9.4736805E0,5.12673E0,-5.799972E0,-3.0544918E0,-6.630001E0,-6.8312E0,-3.5008402E0,-5.762299E0,-5.1578145E0,-5.9885426E0,-1.6255366E0,1.4676803E1,-2.0797154E-1,-9.185652E0,-5.301186E0,-1.03079405E1,-1.5515963E0,-6.3194337E0,4.3636603E0,5.83813E-1,1.0429066E1,3.952969E0,9.836784E0,3.0657966E0,2.1016645E1,9.558465E0,-6.600689E-1,5.948761E-1,2.645594E-1,2.4662998E0,5.9877258E-2,1.979076E0,9.8319645E0,1.6379757E0,-7.890536E-1,-3.5400438E-1,-1.0451663E0,-9.146611E-1,-3.289185E-2,-5.752689E-1,-9.4834375E-1,-5.762375E-1,2.9681838E-1,2.476651E0,4.6385074E-1,9.595904E0,3.6749158E-2,-1.3153017E0,2.6528854E0,7.572432E-2,-5.677638E-1,-6.671154E-1,6.722699E-2,-6.150002E-1,-6.696636E-1,-6.5196365E-1,-6.884118E-1,-6.040349E-1,-3.9615193E-1,2.4832406E0,-3.5471722E-1,-6.4604825E-1,-5.564708E-1,-3.0102035E-1,-5.7065755E-1,-6.275038E-1,-1.03846565E-1,-4.4938326E-1,-1.2185575E0,1.6538413E0,-1.2042626E-1,5.6547356E0,-1.3766248E0,-7.635762E-1,-4.5246735E-1,-5.501798E-1,-1.2774477E0,-7.84181E-1,2.4816017E0,-2.2469845E-1,-4.978672E-1,-7.654066E-1],"categories":[],"categories_nodes":[],"categories_segments":[],"categories_sizes":[],"default_left":[0,0,0,0,0,0,0,0,0,0,0,0,0,0,0,0,0,0,0,0,0,0,0,0,0,0,0,0,0,0,0,0,0,0,0,0,0,0,0,0,0,0,0,0,0,0,0,0,0,0,0,0,0,0,0,0,0,0,0,0,0,0,0,0,0,0,0,0,0,0,0,0,0,0,0,0,0,0,0,0,0,0,0,0,0,0,0,0,0,0,0,0,0,0,0,0,0,0,0,0,0,0,0,0,0,0,0,0,0,0,0,0,0,0,0,0,0,0,0,0,0,0,0,0,0,0,0],"id":11,"left_children":[1,3,5,7,9,11,13,15,17,19,21,23,25,27,29,31,33,35,37,39,41,43,45,47,49,51,53,55,57,59,61,63,65,67,69,71,73,75,77,79,81,83,85,87,89,91,93,95,97,99,101,103,105,107,109,111,113,115,117,119,121,123,125,-1,-1,-1,-1,-1,-1,-1,-1,-1,-1,-1,-1,-1,-1,-1,-1,-1,-1,-1,-1,-1,-1,-1,-1,-1,-1,-1,-1,-1,-1,-1,-1,-1,-1,-1,-1,-1,-1,-1,-1,-1,-1,-1,-1,-1,-1,-1,-1,-1,-1,-1,-1,-1,-1,-1,-1,-1,-1,-1,-1,-1,-1,-1,-1],"loss_changes":[4.814421E7,2.5900388E7,1.6472415E7,2.0792844E7,1.2790948E7,2.09454E5,1.7646134E7,1.390112E7,5.1100315E6,3.516995E5,2.4661088E7,7.3342E4,1.0290525E5,3.0439764E7,2.224068E6,3.597027E6,5.450556E6,1.1060038E6,2.643229E6,1.5866375E5,2.1510956E5,7.655294E7,2.6813452E7,1.9299E5,6.425E2,1.147435E5,5.3055E3,2.1433446E7,9.758158E6,7.98789E5,2.5397E6,1.1427258E6,2.560861E6,8.0049625E5,4.303476E6,3.1020312E5,1.01765375E6,1.6754447E5,7.156818E6,1.05211625E5,1.345375E4,1.13236484E5,4.9208688E4,3.500861E7,9.89312E6,5.730006E6,5.7337064E7,7.2676E4,3.06937E5,3.9775E2,9.485E2,1.1617215E6,4.6381812E4,8.507625E3,2.98575E3,2.0396703E5,1.2067496E7,5.602921E7,9.79067E5,7.44E3,5.78611E5,3.8276758E6,4.30077E5,0E0,0E0,0E0,0E0,0E0,0E0,0E0,0E0,0E0,0E0,0E0,0E0,0E0,0E0,0E0,0E0,0E0,0E0,0E0,0E0,0E0,0E0,0E0,0E0,0E0,0E0,0E0,0E0,0E0,0E0,0E0,0E0,0E0,0E0,0E0,0E0,0E0,0E0,0E0,0E0,0E0,0E0,0E0,0E0,0E0,0E0,0E0,0E0,0E0,0E0,0E0,0E0,0E0,0E0,0E0,0E0,0E0,0E0,0E0,0E0,0E0,0E0,0E0,0E0],"parents":[2147483647,0,0,1,1,2,2,3,3,4,4,5,5,6,6,7,7,8,8,9,9,10,10,11,11,12,12,13,13,14,14,15,15,16,16,17,17,18,18,19,19,20,20,21,21,22,22,23,23,24,24,25,25,26,26,27,27,28,28,29,29,30,30,31,31,32,32,33,33,34,34,35,35,36,36,37,37,38,38,39,39,40,40,41,41,42,42,43,43,44,44,45,45,46,46,47,47,48,48,49,49,50,50,51,51,52,52,53,53,54,54,55,55,56,56,57,57,58,58,59,59,60,60,61,61,62,62],"right_children":[2,4,6,8,10,12,14,16,18,20,22,24,26,28,30,32,34,36,38,40,42,44,46,48,50,52,54,56,58,60,62,64,66,68,70,72,74,76,78,80,82,84,86,88,90,92,94,96,98,100,102,104,106,108,110,112,114,116,118,120,122,124,126,-1,-1,-1,-1,-1,-1,-1,-1,-1,-1,-1,-1,-1,-1,-1,-1,-1,-1,-1,-1,-1,-1,-1,-1,-1,-1,-1,-1,-1,-1,-1,-1,-1,-1,-1,-1,-1,-1,-1,-1,-1,-1,-1,-1,-1,-1,-1,-1,-1,-1,-1,-1,-1,-1,-1,-1,-1,-1,-1,-1,-1,-1,-1,-1],"split_conditions":[7.2E1,2.85608E0,6E0,5.113425E1,5.08058E1,5E0,5E0,2.13E1,2.16E1,5.075848E1,5.094366E1,5.44377E0,5E0,9E0,9E0,1.65E1,7E0,1.55E1,5.113438E1,1.5E1,4.45444E0,5.0940533E1,5.0990395E1,5.341758E0,5E0,4.99643E0,3.555502E0,7E0,5.3819795E0,7E0,1.6E1,1.7E1,1.7E1,1.7E1,1.8E1,9.6E0,5.113438E1,7E0,5.113529E1,4.34013E0,4.33336E0,1.8E1,4.4975767E0,4.70796E0,7E0,5.095983E1,5.1060406E1,4.99698E0,5.094366E1,1.17E1,5.11481E1,4.939479E0,5.094366E1,3.26286E0,6E0,1.82E1,5.080555E1,5.341758E0,5.088298E1,3.555502E0,8E0,2.85608E0,6E0,4.3636603E0,5.83813E-1,1.0429066E1,3.952969E0,9.836784E0,3.0657966E0,2.1016645E1,9.558465E0,-6.600689E-1,5.948761E-1,2.645594E-1,2.4662998E0,5.9877258E-2,1.979076E0,9.8319645E0,1.6379757E0,-7.890536E-1,-3.5400438E-1,-1.0451663E0,-9.146611E-1,-3.289185E-2,-5.752689E-1,-9.4834375E-1,-5.762375E-1,2.9681838E-1,2.476651E0,4.6385074E-1,9.595904E0,3.6749158E-2,-1.3153017E0,2.6528854E0,7.572432E-2,-5.677638E-1,-6.671154E-1,6.722699E-2,-6.150002E-1,-6.696636E-1,-6.5196365E-1,-6.884118E-1,-6.040349E-1,-3.9615193E-1,2.4832406E0,-3.5471722E-1,-6.4604825E-1,-5.564708E-1,-3.0102035E-1,-5.7065755E-1,-6.275038E-1,-1.03846565E-1,-4.4938326E-1,-1.2185575E0,1.6538413E0,-1.2042626E-1,5.6547356E0,-1.3766248E0,-7.635762E-1,-4.5246735E-1,-5.501798E-1,-1.2774477E0,-7.84181E-1,2.4816017E0,-2.2469845E-1,-4.978672E-1,-7.654066E-1],"split_indices":[6,1,2,0,0,2,3,5,5,0,0,1,3,2,2,5,4,5,0,2,1,0,0,1,3,1,1,2,1,2,2,2,2,2,2,5,0,4,0,1,1,2,1,1,2,0,0,1,0,5,0,1,0,1,3,8,0,1,0,1,2,1,3,0,0,0,0,0,0,0,0,0,0,0,0,0,0,0,0,0,0,0,0,0,0,0,0,0,0,0,0,0,0,0,0,0,0,0,0,0,0,0,0,0,0,0,0,0,0,0,0,0,0,0,0,0,0,0,0,0,0,0,0,0,0,0,0],"split_type":[0,0,0,0,0,0,0,0,0,0,0,0,0,0,0,0,0,0,0,0,0,0,0,0,0,0,0,0,0,0,0,0,0,0,0,0,0,0,0,0,0,0,0,0,0,0,0,0,0,0,0,0,0,0,0,0,0,0,0,0,0,0,0,0,0,0,0,0,0,0,0,0,0,0,0,0,0,0,0,0,0,0,0,0,0,0,0,0,0,0,0,0,0,0,0,0,0,0,0,0,0,0,0,0,0,0,0,0,0,0,0,0,0,0,0,0,0,0,0,0,0,0,0,0,0,0,0],"sum_hessian":[4.309709E6,1.267531E6,3.042178E6,3.3043E4,1.234488E6,9.58765E5,2.083413E6,8.291E3,2.4752E4,9.2249E4,1.142239E6,7.92611E5,1.66154E5,1.491241E6,5.92172E5,6.004E3,2.287E3,1.8353E4,6.399E3,5.8204E4,3.4045E4,3.70869E5,7.7137E5,7.08908E5,8.3703E4,1.18999E5,4.7155E4,3.6244E5,1.128801E6,1.43057E5,4.49115E5,3.431E3,2.573E3,7.23E2,1.564E3,8.9E3,9.453E3,2.135E3,4.264E3,2.6035E4,3.2169E4,1.8157E4,1.5888E4,3.5767E5,1.3199E4,1.58247E5,6.13123E5,6.82303E5,2.6605E4,6.0044E4,2.3659E4,8.8995E4,3.0004E4,9.754E3,3.7401E4,1.2113E5,2.4131E5,9.90879E5,1.37922E5,4.7919E4,9.5138E4,2.08751E5,2.40364E5,2.161E3,1.27E3,1.572E3,1.001E3,4.25E2,2.98E2,1.092E3,4.72E2,2.941E3,5.959E3,3.147E3,6.306E3,6.57E2,1.478E3,2.113E3,2.151E3,1.7986E4,8.049E3,1.775E4,1.4419E4,1.2619E4,5.538E3,5.376E3,1.0512E4,2.5387E5,1.038E5,1.318E3,1.1881E4,4.3064E4,1.15183E5,1.03952E5,5.09171E5,5.98296E5,8.4007E4,1.2072E4,1.4533E4,3.7402E4,2.2642E4,2.2168E4,1.491E3,8.7572E4,1.423E3,7.192E3,2.2812E4,8.199E3,1.555E3,1.886E4,1.8541E4,1.00551E5,2.0579E4,1.5639E4,2.25671E5,9.73786E5,1.7093E4,3.4867E4,1.03055E5,9.843E3,3.8076E4,4.7563E4,4.7575E4,5.363E3,2.03388E5,1.19909E5,1.20455E5],"tree_param":{"num_deleted":"0","num_feature":"10","num_nodes":"127","size_leaf_vector":"1"}},{"base_weights":[1.2710056E-4,-4.7192116E0,1.9446154E0,-5.1035733E0,-2.4099264E0,4.3430276E0,-2.4544828E0,-5.2951574E0,-4.1459875E0,-1.0364158E0,-4.2347903E0,1.1967524E0,8.689056E0,-5.3739035E-1,-4.374656E0,-6.1022983E0,-5.1718264E0,-6.080394E0,-3.8655474E0,-4.8164257E-1,-4.279739E0,-3.1255224E0,-4.7927065E0,2.6216414E0,-9.014908E0,4.6935623E1,7.640378E0,1.5682178E0,-4.4094067E0,-3.4775634E0,-6.169348E0,-6.91986E0,-5.989819E0,1.0107472E1,-5.250194E0,-6.902816E0,-4.951309E0,2.358883E0,-4.0272217E0,3.0996925E-1,-2.9954662E0,-3.6296585E0,-6.245626E0,-2.6514218E0,-5.437402E0,-5.04418E0,-4.1795635E0,1.3920845E0,7.2965195E1,-1.3469541E1,-4.463474E0,1.0521946E2,2.7491976E1,3.820786E0,1.4940302E1,-3.611159E-1,9.8794815E1,-7.826225E-2,-5.967426E0,-2.715974E0,-5.810244E0,-7.1854687E0,-5.405457E0,-6.264715E-1,-7.8797764E-1,-6.396572E-1,-5.676997E-1,3.0716643E-1,2.7700481E0,-4.1834998E-1,-5.3939825E-1,-6.39699E-1,-8.062145E-1,-7.993607E-1,-3.9045593E-1,-4.7587395E-1,5.3222394E-1,-3.73384E-1,-6.428649E-1,-1.7614087E-1,3.1995466E-1,-7.0508993E-3,-3.974736E-1,-1.7660931E-1,-4.3985644E-1,-6.833913E-1,-3.2281238E-1,-5.984465E-1,-2.2545171E-1,-4.240937E-1,-6.7449206E-1,-4.3044063E-1,-5.232941E-1,-1.02866486E-1,-4.4795185E-1,9.4713396E-1,-1.1970891E-1,8.925826E0,3.2305114E0,-4.5540687E-1,-1.4491488E0,-1.1002858E0,2.5223437E-1,1.3338765E1,4.719183E0,4.6459243E-1,3.8845565E0,-1.5894886E-2,7.2872007E-1,1.9234707E0,3.880262E-1,-8.9930344E-1,3.913596E-2,1.2247301E1,3.8865337E0,-7.19914E-1,3.6085498E0,-6.649829E-1,-1.5196313E-1,-3.9737996E-1,3.5929692E-1,-2.3450847E-1,-6.9413495E-1,-8.2785714E-1,-6.9012564E-1,-4.7282878E-1,-7.4382883E-1],"categories":[],"categories_nodes":[],"categories_segments":[],"categories_sizes":[],"default_left":[0,0,0,0,0,0,0,0,0,0,0,0,0,0,0,0,0,0,0,0,0,0,0,0,0,0,0,0,0,0,0,0,0,0,0,0,0,0,0,0,0,0,0,0,0,0,0,0,0,0,0,0,0,0,0,0,0,0,0,0,0,0,0,0,0,0,0,0,0,0,0,0,0,0,0,0,0,0,0,0,0,0,0,0,0,0,0,0,0,0,0,0,0,0,0,0,0,0,0,0,0,0,0,0,0,0,0,0,0,0,0,0,0,0,0,0,0,0,0,0,0,0,0,0,0,0,0],"id":12,"left_children":[1,3,5,7,9,11,13,15,17,19,21,23,25,27,29,31,33,35,37,39,41,43,45,47,49,51,53,55,57,59,61,63,65,67,69,71,73,75,77,79,81,83,85,87,89,91,93,95,97,99,101,103,105,107,109,111,113,115,117,119,121,123,125,-1,-1,-1,-1,-1,-1,-1,-1,-1,-1,-1,-1,-1,-1,-1,-1,-1,-1,-1,-1,-1,-1,-1,-1,-1,-1,-1,-1,-1,-1,-1,-1,-1,-1,-1,-1,-1,-1,-1,-1,-1,-1,-1,-1,-1,-1,-1,-1,-1,-1,-1,-1,-1,-1,-1,-1,-1,-1,-1,-1,-1,-1,-1,-1],"loss_changes":[3.954892E7,1.1162E6,3.220277E7,1.97768E5,4.4977188E5,2.7009004E7,3.9642685E6,8.9398E4,9.7484E4,1.8422195E5,4.767625E4,1.6671515E7,3.3268312E7,4.3935415E6,8.66198E5,1.0908E4,9.33194E5,2.1097625E4,1.5799025E5,1.739882E5,1.9089594E4,2.8254156E4,7.884375E3,8.69645E7,2.844498E6,2.508274E7,2.2510644E7,6.5478916E7,1.280926E6,6.372635E5,1.3914E5,9.0028125E3,1.328325E4,4.9219206E5,1.18896E5,7.668E3,3.052111E4,8.386625E4,1.0777875E5,3.9799925E5,5.9975766E4,1.6099516E4,6.5726406E3,2.830186E4,6.835992E3,5.0539375E3,1.40948125E4,2.0671746E7,1.1440096E7,6.45941E5,3.1702865E6,9.044112E6,4.305604E6,7.3117615E6,1.3171696E7,2.223191E6,9.63324E6,1.29328E7,4.237145E5,2.1460175E6,3.46033E5,2.384775E4,1.40872E5,0E0,0E0,0E0,0E0,0E0,0E0,0E0,0E0,0E0,0E0,0E0,0E0,0E0,0E0,0E0,0E0,0E0,0E0,0E0,0E0,0E0,0E0,0E0,0E0,0E0,0E0,0E0,0E0,0E0,0E0,0E0,0E0,0E0,0E0,0E0,0E0,0E0,0E0,0E0,0E0,0E0,0E0,0E0,0E0,0E0,0E0,0E0,0E0,0E0,0E0,0E0,0E0,0E0,0E0,0E0,0E0,0E0,0E0,0E0,0E0,0E0,0E0,0E0,0E0],"parents":[2147483647,0,0,1,1,2,2,3,3,4,4,5,5,6,6,7,7,8,8,9,9,10,10,11,11,12,12,13,13,14,14,15,15,16,16,17,17,18,18,19,19,20,20,21,21,22,22,23,23,24,24,25,25,26,26,27,27,28,28,29,29,30,30,31,31,32,32,33,33,34,34,35,35,36,36,37,37,38,38,39,39,40,40,41,41,42,42,43,43,44,44,45,45,46,46,47,47,48,48,49,49,50,50,51,51,52,52,53,53,54,54,55,55,56,56,57,57,58,58,59,59,60,60,61,61,62,62],"right_children":[2,4,6,8,10,12,14,16,18,20,22,24,26,28,30,32,34,36,38,40,42,44,46,48,50,52,54,56,58,60,62,64,66,68,70,72,74,76,78,80,82,84,86,88,90,92,94,96,98,100,102,104,106,108,110,112,114,116,118,120,122,124,126,-1,-1,-1,-1,-1,-1,-1,-1,-1,-1,-1,-1,-1,-1,-1,-1,-1,-1,-1,-1,-1,-1,-1,-1,-1,-1,-1,-1,-1,-1,-1,-1,-1,-1,-1,-1,-1,-1,-1,-1,-1,-1,-1,-1,-1,-1,-1,-1,-1,-1,-1,-1,-1,-1,-1,-1,-1,-1,-1,-1,-1,-1,-1,-1],"split_conditions":[7E0,6E0,1.8E1,5E0,4E0,1.41E1,2.1E1,5.083066E1,5.081925E1,1E-1,5E0,5.3819795E0,2.85608E0,4.7153726E0,2.3E1,7.2E1,5.083332E1,4.5613627E0,5.083339E1,5.04474E0,2.21E1,1.1E1,1.28E1,5.341758E0,5.09779E1,5.113425E1,1.5E1,4.7087917E0,5.094366E1,4.99698E0,3E0,5.081324E1,5.079286E1,5E0,5.0887123E1,5.08058E1,5.075509E1,5.083066E1,5.47817E0,4.41497E0,5.094366E1,9.1E1,1.23E1,2E0,1.15E1,3.555502E0,1.3E1,5.0887123E1,5E0,5.44375E0,5.48927E0,1.6E1,5.113438E1,4.46883E0,5E0,5.08058E1,5E0,5.088298E1,2.2E1,4.70796E0,5.094366E1,5.087549E1,6E0,-6.264715E-1,-7.8797764E-1,-6.396572E-1,-5.676997E-1,3.0716643E-1,2.7700481E0,-4.1834998E-1,-5.3939825E-1,-6.39699E-1,-8.062145E-1,-7.993607E-1,-3.9045593E-1,-4.7587395E-1,5.3222394E-1,-3.73384E-1,-6.428649E-1,-1.7614087E-1,3.1995466E-1,-7.0508993E-3,-3.974736E-1,-1.7660931E-1,-4.3985644E-1,-6.833913E-1,-3.2281238E-1,-5.984465E-1,-2.2545171E-1,-4.240937E-1,-6.7449206E-1,-4.3044063E-1,-5.232941E-1,-1.02866486E-1,-4.4795185E-1,9.4713396E-1,-1.1970891E-1,8.925826E0,3.2305114E0,-4.5540687E-1,-1.4491488E0,-1.1002858E0,2.5223437E-1,1.3338765E1,4.719183E0,4.6459243E-1,3.8845565E0,-1.5894886E-2,7.2872007E-1,1.9234707E0,3.880262E-1,-8.9930344E-1,3.913596E-2,1.2247301E1,3.8865337E0,-7.19914E-1,3.6085498E0,-6.649829E-1,-1.5196313E-1,-3.9737996E-1,3.5929692E-1,-2.3450847E-1,-6.9413495E-1,-8.2785714E-1,-6.9012564E-1,-4.7282878E-1,-7.4382883E-1],"split_indices":[2,2,2,2,3,5,2,0,0,7,3,1,1,1,2,6,0,1,0,1,8,4,5,1,0,0,2,1,0,1,3,0,0,3,0,0,0,0,1,1,0,6,5,4,8,1,5,0,3,1,1,8,0,1,3,0,3,0,5,1,0,0,3,0,0,0,0,0,0,0,0,0,0,0,0,0,0,0,0,0,0,0,0,0,0,0,0,0,0,0,0,0,0,0,0,0,0,0,0,0,0,0,0,0,0,0,0,0,0,0,0,0,0,0,0,0,0,0,0,0,0,0,0,0,0,0,0],"split_type":[0,0,0,0,0,0,0,0,0,0,0,0,0,0,0,0,0,0,0,0,0,0,0,0,0,0,0,0,0,0,0,0,0,0,0,0,0,0,0,0,0,0,0,0,0,0,0,0,0,0,0,0,0,0,0,0,0,0,0,0,0,0,0,0,0,0,0,0,0,0,0,0,0,0,0,0,0,0,0,0,0,0,0,0,0,0,0,0,0,0,0,0,0,0,0,0,0,0,0,0,0,0,0,0,0,0,0,0,0,0,0,0,0,0,0,0,0,0,0,0,0,0,0,0,0,0,0],"sum_hessian":[4.309709E6,1.257562E6,3.052147E6,1.078117E6,1.79445E5,1.975237E6,1.07691E6,8.98375E5,1.79742E5,1.02385E5,7.706E4,1.145768E6,8.29469E5,5.38888E5,5.38022E5,1.1907E5,7.79305E5,2.2756E4,1.56986E5,8.7431E4,1.4954E4,2.579E4,5.127E4,1.00547E6,1.40298E5,2.2135E4,8.07334E5,3.49066E5,1.89822E5,3.58717E5,1.79305E5,1.4393E4,1.04677E5,3.976E3,7.75329E5,1.3163E4,9.593E3,3.974E3,1.53012E5,6.6493E4,2.0938E4,1.124E4,3.714E3,2.1403E4,4.387E3,3.6353E4,1.4917E4,9.88198E5,1.7272E4,7.0902E4,6.9396E4,5.536E3,1.6599E4,5.30013E5,2.77321E5,3.42275E5,6.791E3,5.0219E4,1.39603E5,2.70428E5,8.8289E4,7.6945E4,1.0236E5,8.559E3,5.834E3,4.5498E4,5.9179E4,2.841E3,1.135E3,9.2102E4,6.83227E5,9.169E3,3.994E3,2.454E3,7.139E3,1.168E3,2.806E3,1.36356E5,1.6656E4,3.873E4,2.7763E4,5.252E3,1.5686E4,3.284E3,7.956E3,3.107E3,6.07E2,2.276E3,1.9127E4,2.293E3,2.094E3,7.395E3,2.8958E4,1.297E3,1.362E4,2.3983E5,7.48368E5,1.233E4,4.942E3,7.292E3,6.361E4,3.5843E4,3.3553E4,3.726E3,1.81E3,5.511E3,1.1088E4,2.46738E5,2.83275E5,1.99758E5,7.7563E4,2.7444E4,3.14831E5,4.867E3,1.924E3,4.1958E4,8.261E3,1.21033E5,1.857E4,2.25475E5,4.4953E4,2.1728E4,6.6561E4,1.5872E4,6.1073E4,7.6785E4,2.5575E4],"tree_param":{"num_deleted":"0","num_feature":"10","num_nodes":"127","size_leaf_vector":"1"}},{"base_weights":[1.2366772E-4,5.2429833E0,-1.5131857E0,3.1035835E1,4.5518026E0,-4.554623E0,-2.048417E-1,7.030566E1,1.7828999E1,-3.598274E0,5.8643537E0,-4.728222E0,-3.714335E0,1.3566606E0,-4.137089E0,3.5831093E1,1.1208123E2,5.3229213E0,3.258752E1,-6.725586E0,-5.580705E-1,1.7423354E2,5.0318503E0,-4.912879E0,-4.2636237E0,-3.2660744E0,-4.8525214E0,8.282651E0,-6.229169E-1,-1.6895189E0,-5.9519033E0,5.15655E1,1.1820675E1,1.5177638E2,2.9938837E1,1.0539088E1,-6.5343184E0,4.4931232E1,6.083164E0,-7.695302E0,-4.540931E0,2.9338193E0,-8.064759E0,6.184998E1,1.9821132E2,1.7516447E1,3.2908375E0,-5.0378E0,-4.4271126E0,-3.7809892E0,-4.967998E0,-3.94831E0,-2.1070223E0,-4.5445237E0,-5.1627965E0,3.346446E0,1.8255213E1,2.2278743E0,-3.2173877E0,1.7117687E1,-2.1867228E0,-5.0470905E0,-9.653781E0,-1.296542E0,6.588403E0,9.1075844E-1,5.1944575E0,-7.758226E-1,1.6677668E1,6.76381E0,-1.3924141E0,-7.6208395E-1,1.4492412E0,-3.324332E-1,-8.058781E-1,1.7825857E0,5.837972E0,1.8393748E0,-1.0108093E0,-5.763872E-1,-9.092285E-1,-1.4270125E-1,-6.402923E-1,7.646444E-1,-9.474849E-1,-4.6651736E-1,-1.1490558E0,1.0015329E0,1.0702309E1,2.306256E1,1.0603838E1,5.829008E-1,2.0260483E1,1.5048937E-1,1.317708E0,-4.7944853E-1,-5.27436E-1,-4.8317644E-1,-3.721643E-1,-5.625222E-1,-3.5147583E-1,-4.646786E-1,-5.285326E-1,-5.001912E-1,-2.8073475E-1,1.0051041E0,-3.4906933E-1,-3.8558602E-1,-4.7239003E-1,-5.122298E-1,-6.689572E-1,-1.2933646E-1,7.948057E-1,3.0457704E0,1.0867866E0,-5.503761E-1,3.402456E-1,-2.4224703E-1,-8.9896774E-1,5.3297515E0,5.243579E-1,7.5002894E-2,-4.1493893E-1,-7.4632794E-1,-3.8477066E-1,-1.0961998E0,-6.346093E-1],"categories":[],"categories_nodes":[],"categories_segments":[],"categories_sizes":[],"default_left":[0,0,0,0,0,0,0,0,0,0,0,0,0,0,0,0,0,0,0,0,0,0,0,0,0,0,0,0,0,0,0,0,0,0,0,0,0,0,0,0,0,0,0,0,0,0,0,0,0,0,0,0,0,0,0,0,0,0,0,0,0,0,0,0,0,0,0,0,0,0,0,0,0,0,0,0,0,0,0,0,0,0,0,0,0,0,0,0,0,0,0,0,0,0,0,0,0,0,0,0,0,0,0,0,0,0,0,0,0,0,0,0,0,0,0,0,0,0,0,0,0,0,0,0,0,0,0],"id":13,"left_children":[1,3,5,7,9,11,13,15,17,19,21,23,25,27,29,31,33,35,37,39,41,43,45,47,49,51,53,55,57,59,61,63,65,67,69,71,73,75,77,79,81,83,85,87,89,91,93,95,97,99,101,103,105,107,109,111,113,115,117,119,121,123,125,-1,-1,-1,-1,-1,-1,-1,-1,-1,-1,-1,-1,-1,-1,-1,-1,-1,-1,-1,-1,-1,-1,-1,-1,-1,-1,-1,-1,-1,-1,-1,-1,-1,-1,-1,-1,-1,-1,-1,-1,-1,-1,-1,-1,-1,-1,-1,-1,-1,-1,-1,-1,-1,-1,-1,-1,-1,-1,-1,-1,-1,-1,-1,-1],"loss_changes":[3.4193544E7,1.720928E7,1.3308121E7,1.3064594E7,1.0057032E7,1.4672E5,1.4358568E7,9.126816E6,3.4797325E6,1.2398529E6,1.1349757E8,7.1504E4,8.7863E4,2.2948494E7,2.952347E6,1.3122095E6,9.340496E6,6.313651E5,2.829024E6,1.3614625E5,1.7333271E6,1.0723464E7,1.7513578E7,3.6179E4,8.0592E4,9.770975E4,4.62725E3,1.8315094E7,9.627971E6,2.6463555E6,1.278345E6,1.9403055E6,1.4942683E5,4.624696E6,1.5470598E6,5.0904444E5,1.5236031E4,2.149664E6,5.4812706E5,1.2006775E5,1.1458434E5,2.6392742E6,2.4444875E5,1.6426835E6,9.784216E6,2.1331723E8,1.2485402E7,2.7288E4,3.482125E4,6.9069125E4,9.8025E3,9.34965E4,7.70349E5,2.99975E3,1.4643125E3,5.313599E6,1.1104152E7,5.632571E6,3.1270455E6,3.1310975E6,1.589158E6,8.88781E5,3.24308E5,0E0,0E0,0E0,0E0,0E0,0E0,0E0,0E0,0E0,0E0,0E0,0E0,0E0,0E0,0E0,0E0,0E0,0E0,0E0,0E0,0E0,0E0,0E0,0E0,0E0,0E0,0E0,0E0,0E0,0E0,0E0,0E0,0E0,0E0,0E0,0E0,0E0,0E0,0E0,0E0,0E0,0E0,0E0,0E0,0E0,0E0,0E0,0E0,0E0,0E0,0E0,0E0,0E0,0E0,0E0,0E0,0E0,0E0,0E0,0E0,0E0,0E0,0E0,0E0],"parents":[2147483647,0,0,1,1,2,2,3,3,4,4,5,5,6,6,7,7,8,8,9,9,10,10,11,11,12,12,13,13,14,14,15,15,16,16,17,17,18,18,19,19,20,20,21,21,22,22,23,23,24,24,25,25,26,26,27,27,28,28,29,29,30,30,31,31,32,32,33,33,34,34,35,35,36,36,37,37,38,38,39,39,40,40,41,41,42,42,43,43,44,44,45,45,46,46,47,47,48,48,49,49,50,50,51,51,52,52,53,53,54,54,55,55,56,56,57,57,58,58,59,59,60,60,61,61,62,62],"right_children":[2,4,6,8,10,12,14,16,18,20,22,24,26,28,30,32,34,36,38,40,42,44,46,48,50,52,54,56,58,60,62,64,66,68,70,72,74,76,78,80,82,84,86,88,90,92,94,96,98,100,102,104,106,108,110,112,114,116,118,120,122,124,126,-1,-1,-1,-1,-1,-1,-1,-1,-1,-1,-1,-1,-1,-1,-1,-1,-1,-1,-1,-1,-1,-1,-1,-1,-1,-1,-1,-1,-1,-1,-1,-1,-1,-1,-1,-1,-1,-1,-1,-1,-1,-1,-1,-1,-1,-1,-1,-1,-1,-1,-1,-1,-1,-1,-1,-1,-1,-1,-1,-1,-1,-1,-1,-1],"split_conditions":[6.7E1,2.85608E0,6E0,5.113425E1,5.083066E1,5E0,5E0,7E0,7E0,5.080555E1,5.083332E1,5E0,5E0,