{"learner":{"attributes":{"scikit_learn":"{\"_estimator_type\": \"regressor\"}"},"feature_names":["lat","lon","hour","day_of_week","month","temperature","humidity","precipitation","wind_speed","cloud_cover"],"feature_types":["float","float","int","int","int","float","int","float","float","int"],"gradient_booster":{"model":{"cats":{"enc":[],"feature_segments":[],"sorted_idx":[]},"gbtree_model_param":{"num_parallel_tree":"1","num_trees":"150"},"iteration_indptr":[0,1,2,3,4,5,6,7,8,9,10,11,12,13,14,15,16,17,18,19,20,21,22,23,24,25,26,27,28,29,30,31,32,33,34,35,36,37,38,39,40,41,42,43,44,45,46,47,48,49,50,51,52,53,54,55,56,57,58,59,60,61,62,63,64,65,66,67,68,69,70,71,72,73,74,75,76,77,78,79,80,81,82,83,84,85,86,87,88,89,90,91,92,93,94,95,96,97,98,99,100,101,102,103,104,105,106,107,108,109,110,111,112,113,114,115,116,117,118,119,120,121,122,123,124,125,126,127,128,129,130,131,132,133,134,135,136,137,138,139,140,141,142,143,144,145,146,147,148,149,150],"tree_info":[0,0,0,0,0,0,0,0,0,0,0,0,0,0,0,0,0,0,0,0,0,0,0,0,0,0,0,0,0,0,0,0,0,0,0,0,0,0,0,0,0,0,0,0,0,0,0,0,0,0,0,0,0,0,0,0,0,0,0,0,0,0,0,0,0,0,0,0,0,0,0,0,0,0,0,0,0,0,0,0,0,0,0,0,0,0,0,0,0,0,0,0,0,0,0,0,0,0,0,0,0,0,0,0,0,0,0,0,0,0,0,0,0,0,0,0,0,0,0,0,0,0,0,0,0,0,0,0,0,0,0,0,0,0,0,0,0,0,0,0,0,0,0,0,0,0,0,0,0,0],"trees":[{"base_weights":[-1.5259877E-2,-1.6386742E1,6.7253833E0,-1.7717773E1,-8.390463E0,1.3443188E1,-9.397579E0,-1.8372478E1,-1.4448836E1,-5.033134E0,-1.678535E1,6.2691235E1,1.2083314E1,-4.9019175E0,-1.2389463E1,-1.8865833E1,-1.7140606E1,-1.3013555E1,-1.8042355E1,-3.201913E0,-1.0577273E1,-1.6494715E1,-1.8989746E1,3.1681232E1,1.6790771E2,-1.4231625E1,1.4031181E1,-8.371337E0,1.370943E0,-1.0779902E1,-1.5615845E1,-1.9107668E1,-1.7900208E1,-1.5817642E1,-1.8022894E1,-1.2067929E1,-1.5874163E1,-1.7827469E1,-1.3636659E0,-5.0776677E0,5.2584004E0,-1.1314947E1,-1.3700354E0,-1.6758783E1,-8.582442E0,-1.3082291E0,-1.3497205E0,7.779578E1,1.63753E1,3.5685965E2,1.0558586E2,-1.5969826E1,-1.01331415E1,2.7677729E1,7.725068E0,-1.3252164E0,-1.0705162E1,3.3720222E1,4.3413392E-1,-1.2259943E1,-7.2514005E0,-1.3841952E1,-1.658543E1,-1.2842784E0,-1.3553144E0,-1.156626E0,-1.2906985E0,-1.3128963E0,-1.0761503E0,-1.3711194E0,-1.2451172E0,-8.973887E-1,6.3891697E-1,-1.1415173E0,-7.2882843E-1,-1.2559904E0,-8.0503345E-1,-1.1548959E0,-2.9023877E-1,2.846189E0,-5.1928386E-2,-1.024569E0,-6.545522E-1,1.00376815E-1,-5.352973E-1,-1.3689064E0,-1.158332E0,-1.1126418E-1,-1.2333671E0,3.323323E0,1.0154955E1,4.8419258E-1,2.6101868E0,1.8183483E1,2.8068317E1,4.402506E0,8.876601E0,-1.2212721E0,-1.024383E0,-3.7177578E-1,-9.343254E-1,1.0490912E0,3.720516E0,-4.4390303E-1,7.967149E-1,-3.6918256E-1,1.0246192E1,-8.398957E-1,-5.01998E-1,6.0535545E0,1.131777E0,4.7868106E-1,-2.2595619E-1,-6.083955E-1,-9.4110537E-1,-1.228936E0,-4.4775856E-1,-1.285303E0,-7.66875E-1,-1.0627953E0,-1.2577322E0],"categories":[],"categories_nodes":[],"categories_segments":[],"categories_sizes":[],"default_left":[0,0,0,0,0,0,0,0,0,0,0,0,0,0,0,0,0,0,0,0,0,0,0,0,0,0,0,0,0,0,0,0,0,0,0,0,0,0,0,0,0,0,0,0,0,0,0,0,0,0,0,0,0,0,0,0,0,0,0,0,0,0,0,0,0,0,0,0,0,0,0,0,0,0,0,0,0,0,0,0,0,0,0,0,0,0,0,0,0,0,0,0,0,0,0,0,0,0,0,0,0,0,0,0,0,0,0,0,0,0,0,0,0,0,0,0,0,0,0,0,0],"id":0,"left_children":[1,3,5,7,9,11,13,15,17,19,21,23,25,27,29,31,33,35,37,39,41,43,45,47,49,51,53,55,57,59,61,63,65,67,69,71,73,75,-1,77,79,81,83,85,87,-1,-1,89,91,93,95,97,99,101,103,105,107,109,111,113,115,117,119,-1,-1,-1,-1,-1,-1,-1,-1,-1,-1,-1,-1,-1,-1,-1,-1,-1,-1,-1,-1,-1,-1,-1,-1,-1,-1,-1,-1,-1,-1,-1,-1,-1,-1,-1,-1,-1,-1,-1,-1,-1,-1,-1,-1,-1,-1,-1,-1,-1,-1,-1,-1,-1,-1,-1,-1,-1,-1],"loss_changes":[4.5788675E8,1.2879584E7,3.1833853E8,2.220032E6,4.867079E6,1.3894291E8,1.1627056E7,5.24992E5,8.92632E5,1.2523638E6,3.1294E4,1.8188723E8,1.0348669E8,7.5173405E6,2.695144E6,1.4376E5,2.88224E5,3.34448E5,1.4925E4,1.4716188E6,2.08008E5,9.0941E4,1.4375E2,3.0390896E7,1.4939766E8,9.91106E5,1.617682E8,3.657322E6,3.7278155E6,1.808296E6,2.96884E5,9.5024E4,9.1332E4,1.28744E5,5.4288E4,1.481903E6,7.2553E4,3.1147E4,0E0,8.0734025E5,3.5747948E6,1.8487425E5,4.0017668E4,2.4595E4,8.907827E4,0E0,0E0,2.1879736E7,6.394663E6,1.3376E7,8.639456E6,1.925E5,6.422585E5,1.9205494E8,6.612924E7,3.227601E7,7.63484E5,3.2045078E6,2.803753E6,1.030992E6,9.013125E5,7.96349E5,2.16262E5,0E0,0E0,0E0,0E0,0E0,0E0,0E0,0E0,0E0,0E0,0E0,0E0,0E0,0E0,0E0,0E0,0E0,0E0,0E0,0E0,0E0,0E0,0E0,0E0,0E0,0E0,0E0,0E0,0E0,0E0,0E0,0E0,0E0,0E0,0E0,0E0,0E0,0E0,0E0,0E0,0E0,0E0,0E0,0E0,0E0,0E0,0E0,0E0,0E0,0E0,0E0,0E0,0E0,0E0,0E0,0E0,0E0,0E0],"parents":[2147483647,0,0,1,1,2,2,3,3,4,4,5,5,6,6,7,7,8,8,9,9,10,10,11,11,12,12,13,13,14,14,15,15,16,16,17,17,18,18,19,19,20,20,21,21,22,22,23,23,24,24,25,25,26,26,27,27,28,28,29,29,30,30,31,31,32,32,33,33,34,34,35,35,36,36,37,37,39,39,40,40,41,41,42,42,43,43,44,44,47,47,48,48,49,49,50,50,51,51,52,52,53,53,54,54,55,55,56,56,57,57,58,58,59,59,60,60,61,61,62,62],"right_children":[2,4,6,8,10,12,14,16,18,20,22,24,26,28,30,32,34,36,38,40,42,44,46,48,50,52,54,56,58,60,62,64,66,68,70,72,74,76,-1,78,80,82,84,86,88,-1,-1,90,92,94,96,98,100,102,104,106,108,110,112,114,116,118,120,-1,-1,-1,-1,-1,-1,-1,-1,-1,-1,-1,-1,-1,-1,-1,-1,-1,-1,-1,-1,-1,-1,-1,-1,-1,-1,-1,-1,-1,-1,-1,-1,-1,-1,-1,-1,-1,-1,-1,-1,-1,-1,-1,-1,-1,-1,-1,-1,-1,-1,-1,-1,-1,-1,-1,-1,-1,-1],"split_conditions":[7E0,6E0,1.9E1,5E0,5E0,2.85608E0,2.1E1,5E0,5E0,5.04474E0,5.44375E0,1.86E1,5.080555E1,1.6E1,2.3E1,4E0,2E0,5.04474E0,5.3819795E0,4.70796E0,5.123299E1,5.341758E0,6E0,5.113425E1,5.113425E1,5.075848E1,5.094366E1,5.0887123E1,2.85608E0,1.56E1,5.094366E1,1E0,3.80406E0,5.081925E1,5.081925E1,4.939479E0,5.123299E1,5.341758E0,-1.3636659E0,5.079286E1,4.73852E0,5.341758E0,5.125484E1,5.079286E1,5.094366E1,-1.3082291E0,-1.3497205E0,1.36E1,1.35E1,7E0,5.113438E1,1.22E1,5.0779755E1,4.70796E0,5.0990395E1,5.0887074E1,1.24E1,5.113425E1,5.094366E1,5.0887123E1,5.08058E1,5.083066E1,4.59318E0,-1.2842784E0,-1.3553144E0,-1.156626E0,-1.2906985E0,-1.3128963E0,-1.0761503E0,-1.3711194E0,-1.2451172E0,-8.973887E-1,6.3891697E-1,-1.1415173E0,-7.2882843E-1,-1.2559904E0,-8.0503345E-1,-1.1548959E0,-2.9023877E-1,2.846189E0,-5.1928386E-2,-1.024569E0,-6.545522E-1,1.00376815E-1,-5.352973E-1,-1.3689064E0,-1.158332E0,-1.1126418E-1,-1.2333671E0,3.323323E0,1.0154955E1,4.8419258E-1,2.6101868E0,1.8183483E1,2.8068317E1,4.402506E0,8.876601E0,-1.2212721E0,-1.024383E0,-3.7177578E-1,-9.343254E-1,1.0490912E0,3.720516E0,-4.4390303E-1,7.967149E-1,-3.6918256E-1,1.0246192E1,-8.398957E-1,-5.01998E-1,6.0535545E0,1.131777E0,4.7868106E-1,-2.2595619E-1,-6.083955E-1,-9.4110537E-1,-1.228936E0,-4.4775856E-1,-1.285303E0,-7.66875E-1,-1.0627953E0,-1.2577322E0],"split_indices":[2,2,2,2,3,1,2,3,3,1,1,5,0,5,2,2,2,1,1,1,0,1,3,0,0,0,0,0,1,5,0,2,1,0,0,1,0,1,0,0,1,1,0,0,0,0,0,5,5,4,0,5,0,1,0,0,5,0,0,0,0,0,1,0,0,0,0,0,0,0,0,0,0,0,0,0,0,0,0,0,0,0,0,0,0,0,0,0,0,0,0,0,0,0,0,0,0,0,0,0,0,0,0,0,0,0,0,0,0,0,0,0,0,0,0,0,0,0,0,0,0],"split_type":[0,0,0,0,0,0,0,0,0,0,0,0,0,0,0,0,0,0,0,0,0,0,0,0,0,0,0,0,0,0,0,0,0,0,0,0,0,0,0,0,0,0,0,0,0,0,0,0,0,0,0,0,0,0,0,0,0,0,0,0,0,0,0,0,0,0,0,0,0,0,0,0,0,0,0,0,0,0,0,0,0,0,0,0,0,0,0,0,0,0,0,0,0,0,0,0,0,0,0,0,0,0,0,0,0,0,0,0,0,0,0,0,0,0,0,0,0,0,0,0,0],"sum_hessian":[4.14924E6,1.210124E6,2.939116E6,1.037435E6,1.72689E5,2.074679E6,8.64437E5,8.64323E5,1.73112E5,1.23357E5,4.9332E4,5.5747E4,2.018932E6,3.45414E5,5.19023E5,6.17147E5,2.47176E5,1.23707E5,4.9405E4,9.273E4,3.0627E4,4.3593E4,5.739E3,4.3058E4,1.2689E4,1.39144E5,1.879788E6,2.22405E5,1.23009E5,3.46278E5,1.72745E5,4.93527E5,1.2362E5,9.8899E4,1.48277E5,9.2977E4,3.073E4,4.2996E4,6.409E3,7.5902E4,1.6828E4,2.8355E4,2.272E3,4.2184E4,1.409E3,2.859E3,2.88E3,1.0729E4,3.2329E4,3.146E3,9.543E3,9.7704E4,4.144E4,5.94113E5,1.285675E6,5.5337E4,1.67068E5,3.461E3,1.19548E5,2.4395E5,1.02328E5,6.1056E4,1.11689E5,1.23529E5,3.69998E5,3.4755E4,8.8865E4,1.298E4,8.5919E4,1.9389E4,1.28888E5,8.9792E4,3.185E3,2.847E4,2.26E3,4.2225E4,7.71E2,5.722E3,7.018E4,2.438E3,1.439E4,1.0534E4,1.7821E4,1.571E3,7.01E2,2.955E3,3.9229E4,7.95E2,6.14E2,7.397E3,3.332E3,2.2262E4,1.0067E4,9.85E2,2.161E3,3.17E3,6.373E3,4.6395E4,5.1309E4,1.6576E4,2.4864E4,3.96549E5,1.97564E5,2.65256E5,1.020419E6,5.3897E4,1.44E3,1.22303E5,4.4765E4,8.63E2,2.598E3,4.3491E4,7.6057E4,6.0793E4,1.83157E5,7.837E3,9.4491E4,2.3795E4,3.7261E4,5.544E4,5.6249E4],"tree_param":{"num_deleted":"0","num_feature":"10","num_nodes":"121","size_leaf_vector":"1"}},{"base_weights":[1.7424013E-2,-1.5235543E1,6.29309E0,-1.6478039E1,-7.7940335E0,1.25436945E1,-8.725364E0,-1.7088072E1,-1.3432906E1,-4.6425366E0,-1.5692632E1,5.8591743E1,1.1274738E1,-1.0252922E1,-1.1098673E0,-1.7545933E1,-1.5942538E1,-1.2087473E1,-1.679603E1,-2.9312289E0,-9.827533E0,-1.5429022E1,-1.7659998E1,3.0189425E1,1.584339E2,-1.32158165E1,1.3089412E1,-4.848353E0,-1.1438414E1,2.7604912E1,-1.9732184E0,-1.7768885E1,-1.6653015E1,-1.4713016E1,-1.6764336E1,-1.8361341E1,-1.1687486E1,-1.6598085E1,-1.2681001E0,-4.6593823E0,5.2632284E0,-7.87691E0,-1.33349495E1,-1.5573017E1,-1.1131222E1,-1.7374125E1,-1.2558752E0,7.482529E1,1.5290647E1,3.35298E2,1.0004708E2,-1.482627E1,-9.435111E0,2.582997E1,7.19736E0,3.0208752E0,-7.6368036E0,-1.0233204E1,-1.4766386E1,7.239065E1,1.2832453E1,2.17472E0,-7.1217775E0,-1.1942168E0,-1.2603577E0,-1.075182E0,-1.2012063E0,-1.0010701E0,-1.223896E0,-1.1591345E0,-1.2890496E0,-1.2301563E0,-1.3116504E0,-7.711208E-1,-1.1134413E0,-1.1694716E0,-7.617552E-1,-1.075607E0,-2.6685265E-1,5.867468E0,8.241763E-2,-7.996567E-1,-9.3543105E-2,-1.2518057E0,-8.854846E-1,-1.2691436E0,-1.0765975E0,-4.9236363E-1,-1.1472273E0,-1.1780525E0,-1.2308204E0,2.774111E0,9.132189E0,4.454479E-1,2.4464302E0,1.9554672E1,2.787455E1,4.1288047E0,8.437317E0,-1.1311976E0,-9.4438064E-1,-3.464336E-1,-8.6943746E-1,9.7963387E-1,3.4720013E0,-4.0905106E-1,7.413337E-1,-3.1128037E-1,2.5376105E0,-7.039123E-1,-2.7620733E-1,-5.041632E-1,-8.320502E-1,-8.7207234E-1,-1.087141E0,7.1927786E0,2.560199E0,1.565662E0,9.844596E-2,-1.1689582E0,2.5460023E-1,-3.8271606E-1,-8.5795516E-1],"categories":[],"categories_nodes":[],"categories_segments":[],"categories_sizes":[],"default_left":[0,0,0,0,0,0,0,0,0,0,0,0,0,0,0,0,0,0,0,0,0,0,0,0,0,0,0,0,0,0,0,0,0,0,0,0,0,0,0,0,0,0,0,0,0,0,0,0,0,0,0,0,0,0,0,0,0,0,0,0,0,0,0,0,0,0,0,0,0,0,0,0,0,0,0,0,0,0,0,0,0,0,0,0,0,0,0,0,0,0,0,0,0,0,0,0,0,0,0,0,0,0,0,0,0,0,0,0,0,0,0,0,0,0,0,0,0,0,0,0,0,0,0],"id":1,"left_children":[1,3,5,7,9,11,13,15,17,19,21,23,25,27,29,31,33,35,37,39,41,43,45,47,49,51,53,55,57,59,61,63,65,67,69,71,73,75,-1,77,79,81,83,85,87,89,-1,91,93,95,97,99,101,103,105,107,109,111,113,115,117,119,121,-1,-1,-1,-1,-1,-1,-1,-1,-1,-1,-1,-1,-1,-1,-1,-1,-1,-1,-1,-1,-1,-1,-1,-1,-1,-1,-1,-1,-1,-1,-1,-1,-1,-1,-1,-1,-1,-1,-1,-1,-1,-1,-1,-1,-1,-1,-1,-1,-1,-1,-1,-1,-1,-1,-1,-1,-1,-1,-1,-1],"loss_changes":[3.972493E8,1.1185216E7,2.7601606E8,1.925472E6,4.308554E6,1.2131638E8,1.0052092E7,4.52688E5,7.8268E5,1.0978072E6,2.5329E4,1.5788685E8,8.979578E7,4.61128E6,3.5790725E6,1.22544E5,2.48948E5,3.09912E5,1.2613E4,1.3173779E6,2.0994725E5,2.6772E4,1.56375E2,2.88268E7,1.2730294E8,8.48528E5,1.4121126E8,2.8410655E6,2.367304E6,2.7870345E6,2.9931525E6,8.2336E4,8.0592E4,1.12572E5,4.978E4,1.867E3,3.2894E5,2.6523E4,0E0,6.96774E5,5.2003195E6,4.5772462E5,3.3961E4,2.0521E4,3.0368578E4,3.6625E1,0E0,2.1235924E7,5.7036255E6,1.0658496E7,7.792888E6,1.73832E5,5.5761425E5,1.6734445E8,5.6916624E7,8.406768E6,8.535455E5,2.171212E6,2.76612E5,1.132684E6,3.4530175E5,2.1425562E6,5.311625E5,0E0,0E0,0E0,0E0,0E0,0E0,0E0,0E0,0E0,0E0,0E0,0E0,0E0,0E0,0E0,0E0,0E0,0E0,0E0,0E0,0E0,0E0,0E0,0E0,0E0,0E0,0E0,0E0,0E0,0E0,0E0,0E0,0E0,0E0,0E0,0E0,0E0,0E0,0E0,0E0,0E0,0E0,0E0,0E0,0E0,0E0,0E0,0E0,0E0,0E0,0E0,0E0,0E0,0E0,0E0,0E0,0E0,0E0,0E0,0E0],"parents":[2147483647,0,0,1,1,2,2,3,3,4,4,5,5,6,6,7,7,8,8,9,9,10,10,11,11,12,12,13,13,14,14,15,15,16,16,17,17,18,18,19,19,20,20,21,21,22,22,23,23,24,24,25,25,26,26,27,27,28,28,29,29,30,30,31,31,32,32,33,33,34,34,35,35,36,36,37,37,39,39,40,40,41,41,42,42,43,43,44,44,45,45,47,47,48,48,49,49,50,50,51,51,52,52,53,53,54,54,55,55,56,56,57,57,58,58,59,59,60,60,61,61,62,62],"right_children":[2,4,6,8,10,12,14,16,18,20,22,24,26,28,30,32,34,36,38,40,42,44,46,48,50,52,54,56,58,60,62,64,66,68,70,72,74,76,-1,78,80,82,84,86,88,90,-1,92,94,96,98,100,102,104,106,108,110,112,114,116,118,120,122,-1,-1,-1,-1,-1,-1,-1,-1,-1,-1,-1,-1,-1,-1,-1,-1,-1,-1,-1,-1,-1,-1,-1,-1,-1,-1,-1,-1,-1,-1,-1,-1,-1,-1,-1,-1,-1,-1,-1,-1,-1,-1,-1,-1,-1,-1,-1,-1,-1,-1,-1,-1,-1,-1,-1,-1,-1,-1,-1,-1],"split_conditions":[7E0,6E0,1.9E1,5E0,5E0,2.85608E0,1.9E1,5E0,5E0,5.04474E0,5.44375E0,1.88E1,5.080555E1,2E1,2.85608E0,4E0,2E0,5.079286E1,5.3819795E0,4.7087917E0,5.48927E0,5.341758E0,6E0,5.113425E1,5.113425E1,5.075848E1,5.094366E1,5.089132E1,2.3E1,5.113425E1,2.1E1,1E0,3.80406E0,5.3819795E0,5.44377E0,4.24951E0,5.3819795E0,5.341758E0,-1.2681001E0,5.079286E1,4.71526E0,5.341758E0,5.50161E0,5.079286E1,5.094366E1,5.088298E1,-1.2558752E0,1.24E1,1.36E1,2.22E1,5.113438E1,1.28E1,5.0779755E1,4.70796E0,5.0990395E1,5.087549E1,1.24E1,5.094366E1,5.0887123E1,2.1E1,2.1E1,5.080555E1,2.3E1,-1.1942168E0,-1.2603577E0,-1.075182E0,-1.2012063E0,-1.0010701E0,-1.223896E0,-1.1591345E0,-1.2890496E0,-1.2301563E0,-1.3116504E0,-7.711208E-1,-1.1134413E0,-1.1694716E0,-7.617552E-1,-1.075607E0,-2.6685265E-1,5.867468E0,8.241763E-2,-7.996567E-1,-9.3543105E-2,-1.2518057E0,-8.854846E-1,-1.2691436E0,-1.0765975E0,-4.9236363E-1,-1.1472273E0,-1.1780525E0,-1.2308204E0,2.774111E0,9.132189E0,4.454479E-1,2.4464302E0,1.9554672E1,2.787455E1,4.1288047E0,8.437317E0,-1.1311976E0,-9.4438064E-1,-3.464336E-1,-8.6943746E-1,9.7963387E-1,3.4720013E0,-4.0905106E-1,7.413337E-1,-3.1128037E-1,2.5376105E0,-7.039123E-1,-2.7620733E-1,-5.041632E-1,-8.320502E-1,-8.7207234E-1,-1.087141E0,7.1927786E0,2.560199E0,1.565662E0,9.844596E-2,-1.1689582E0,2.5460023E-1,-3.8271606E-1,-8.5795516E-1],"split_indices":[2,2,2,2,3,1,5,3,3,1,1,5,0,2,1,2,2,0,1,1,1,1,3,0,0,0,0,0,2,0,2,2,1,1,1,1,1,1,0,0,1,1,1,0,0,0,0,5,5,5,0,5,0,1,0,0,5,0,0,2,2,0,2,0,0,0,0,0,0,0,0,0,0,0,0,0,0,0,0,0,0,0,0,0,0,0,0,0,0,0,0,0,0,0,0,0,0,0,0,0,0,0,0,0,0,0,0,0,0,0,0,0,0,0,0,0,0,0,0,0,0,0,0],"split_type":[0,0,0,0,0,0,0,0,0,0,0,0,0,0,0,0,0,0,0,0,0,0,0,0,0,0,0,0,0,0,0,0,0,0,0,0,0,0,0,0,0,0,0,0,0,0,0,0,0,0,0,0,0,0,0,0,0,0,0,0,0,0,0,0,0,0,0,0,0,0,0,0,0,0,0,0,0,0,0,0,0,0,0,0,0,0,0,0,0,0,0,0,0,0,0,0,0,0,0,0,0,0,0,0,0,0,0,0,0,0,0,0,0,0,0,0,0,0,0,0,0,0,0],"sum_hessian":[4.150007E6,1.20974E6,2.940267E6,1.036651E6,1.73089E5,2.076174E6,8.64093E5,8.63634E5,1.73017E5,1.23725E5,4.9364E4,5.5678E4,2.020496E6,7.19726E5,1.44367E5,6.17007E5,2.46627E5,1.23582E5,4.9435E4,9.3024E4,3.0701E4,4.3539E4,5.825E3,4.3348E4,1.233E4,1.39384E5,1.881112E6,1.29473E5,5.90253E5,4.213E3,1.40154E5,4.93713E5,1.23294E5,9.8811E4,1.47816E5,7.404E3,1.16178E5,4.2999E4,6.436E3,7.6823E4,1.6201E4,1.9731E4,1.097E4,4.2125E4,1.414E3,2.919E3,2.906E3,1.0847E4,3.2501E4,3.059E3,9.271E3,9.7745E4,4.1639E4,5.94849E5,1.286263E6,3.3875E4,9.5598E4,4.33329E5,1.56924E5,1.044E3,3.169E3,7.762E4,6.2534E4,1.23451E5,3.70262E5,3.4735E4,8.8559E4,8.6027E4,1.2784E4,1.31477E5,1.6339E4,2.41E3,4.994E3,1.00229E5,1.5949E4,4.2195E4,8.04E2,5.632E3,7.1191E4,8E2,1.5401E4,1.2793E4,6.938E3,1.433E3,9.537E3,2.95E3,3.9175E4,7.96E2,6.18E2,8.32E2,2.087E3,6.645E3,4.202E3,2.2352E4,1.0149E4,1.622E3,1.437E3,3.087E3,6.184E3,4.8893E4,4.8852E4,1.6639E4,2.5E4,3.97122E5,1.97727E5,2.65573E5,1.02069E6,2.766E4,6.215E3,5.7748E4,3.785E4,1.52943E5,2.80386E5,3.9036E4,1.17888E5,5.64E2,4.8E2,1.727E3,1.442E3,5.581E3,7.2039E4,4.7297E4,1.5237E4],"tree_param":{"num_deleted":"0","num_feature":"10","num_nodes":"123","size_leaf_vector":"1"}},{"base_weights":[3.138392E-3,-1.4178305E1,5.8403153E0,-1.5328003E1,-7.2766595E0,1.1654292E1,-8.105317E0,-1.5891458E1,-1.251364E1,-4.3627696E0,-1.4598586E1,5.4353817E1,1.0472345E1,-4.1854706E0,-1.0720189E1,-1.6320198E1,-1.4819578E1,-1.1274357E1,-1.5617407E1,-1.4695622E1,-3.61397E0,-1.4352037E1,-1.6429842E1,2.9538025E1,1.5489738E2,-1.2297858E1,1.2162417E1,-7.9846554E0,2.921787E-1,-9.327736E0,-1.3506693E1,-1.6530787E1,-1.5478497E1,-1.4059184E1,-1.5958242E1,-1.270455E1,-9.722068E0,-1.2193438E0,-1.5486716E1,-1.6337595E1,-1.0830139E1,-2.5265822E0,-1.1747192E1,-1.4489423E1,-1.018388E1,-1.6158596E1,-1.1688696E0,7.21606E1,1.5289868E1,3.2623117E2,9.693849E1,-1.3796433E1,-8.795848E0,2.3991701E1,6.6909065E0,-1.9843594E0,-9.978834E0,-1.6419817E1,1.5148598E0,-1.719133E1,-8.699714E0,-1.1419248E1,-1.4196669E1,-1.1109207E0,-1.1725693E0,-9.9989593E-1,-1.116213E0,-1.1587572E0,-9.577506E-1,-1.104759E0,-1.200205E0,-1.1939646E0,-8.4888923E-1,-5.977516E-1,-1.0178294E0,-1.0696741E0,-1.1782497E0,-1.1007359E0,-1.2439919E0,-4.3968382E-1,-9.1335315E-1,1.3216074E-1,-2.567997E-1,-9.5284176E-1,-7.105888E-1,-1.1799716E0,-1.0016254E0,-4.419924E-1,-1.0653602E0,-1.0938072E0,-1.1449316E0,3.2573223E0,1.0382352E1,5.245245E-1,2.6869304E0,1.6452972E1,2.5573689E1,4.0676227E0,8.15586E0,-8.495142E-1,-1.0371697E0,-3.2392466E-1,-8.0980116E-1,9.108801E-1,3.2255228E0,-3.7981474E-1,6.891185E-1,-3.8235393E-1,8.878527E0,-6.469614E-1,-1.0576391E0,-1.214231E0,-9.9605983E-1,1.0105062E0,-1.1034723E-1,-1.2550695E0,-9.788121E-1,-1.2596294E-1,-7.2134066E-1,-9.149485E-1,3.666858E0,-1.0469617E0,-8.678279E-1],"categories":[],"categories_nodes":[],"categories_segments":[],"categories_sizes":[],"default_left":[0,0,0,0,0,0,0,0,0,0,0,0,0,0,0,0,0,0,0,0,0,0,0,0,0,0,0,0,0,0,0,0,0,0,0,0,0,0,0,0,0,0,0,0,0,0,0,0,0,0,0,0,0,0,0,0,0,0,0,0,0,0,0,0,0,0,0,0,0,0,0,0,0,0,0,0,0,0,0,0,0,0,0,0,0,0,0,0,0,0,0,0,0,0,0,0,0,0,0,0,0,0,0,0,0,0,0,0,0,0,0,0,0,0,0,0,0,0,0,0,0,0,0],"id":2,"left_children":[1,3,5,7,9,11,13,15,17,19,21,23,25,27,29,31,33,35,37,39,41,43,45,47,49,51,53,55,57,59,61,63,65,67,69,71,73,-1,75,77,79,81,83,85,87,89,-1,91,93,95,97,99,101,103,105,107,109,111,113,115,117,119,121,-1,-1,-1,-1,-1,-1,-1,-1,-1,-1,-1,-1,-1,-1,-1,-1,-1,-1,-1,-1,-1,-1,-1,-1,-1,-1,-1,-1,-1,-1,-1,-1,-1,-1,-1,-1,-1,-1,-1,-1,-1,-1,-1,-1,-1,-1,-1,-1,-1,-1,-1,-1,-1,-1,-1,-1,-1,-1,-1,-1],"loss_changes":[3.4353658E8,9.601744E6,2.3836778E8,1.644704E6,3.686631E6,1.0471638E8,8.866428E6,3.96944E5,6.65398E5,9.56331E5,2.1974E4,1.3943731E8,7.769821E7,5.8884035E6,2.013196E6,1.09168E5,2.13584E5,2.74419E5,1.1357E4,5.2833375E4,1.0192994E6,2.4684E4,1.545E2,2.7220804E7,1.0982747E8,7.31994E5,1.2164909E8,2.240658E6,3.246613E6,1.708548E6,2.48854E5,7.1536E4,6.8744E4,1.39036E5,2.0388E4,1.61569E5,3.37852E5,0E0,1.2482E4,4.868875E3,2.5068594E4,5.125457E5,4.0313375E4,1.7694E4,2.693111E4,5.2875E1,0E0,2.1911264E7,6.049098E6,9.885056E6,6.277256E6,1.65334E5,4.8316475E5,1.4414227E8,4.9106468E7,2.092846E7,5.30936E5,2.1732E4,5.913613E6,6.03535E4,3.548792E6,4.526832E6,1.77466E5,0E0,0E0,0E0,0E0,0E0,0E0,0E0,0E0,0E0,0E0,0E0,0E0,0E0,0E0,0E0,0E0,0E0,0E0,0E0,0E0,0E0,0E0,0E0,0E0,0E0,0E0,0E0,0E0,0E0,0E0,0E0,0E0,0E0,0E0,0E0,0E0,0E0,0E0,0E0,0E0,0E0,0E0,0E0,0E0,0E0,0E0,0E0,0E0,0E0,0E0,0E0,0E0,0E0,0E0,0E0,0E0,0E0,0E0,0E0,0E0],"parents":[2147483647,0,0,1,1,2,2,3,3,4,4,5,5,6,6,7,7,8,8,9,9,10,10,11,11,12,12,13,13,14,14,15,15,16,16,17,17,18,18,19,19,20,20,21,21,22,22,23,23,24,24,25,25,26,26,27,27,28,28,29,29,30,30,31,31,32,32,33,33,34,34,35,35,36,36,38,38,39,39,40,40,41,41,42,42,43,43,44,44,45,45,47,47,48,48,49,49,50,50,51,51,52,52,53,53,54,54,55,55,56,56,57,57,58,58,59,59,60,60,61,61,62,62],"right_children":[2,4,6,8,10,12,14,16,18,20,22,24,26,28,30,32,34,36,38,40,42,44,46,48,50,52,54,56,58,60,62,64,66,68,70,72,74,-1,76,78,80,82,84,86,88,90,-1,92,94,96,98,100,102,104,106,108,110,112,114,116,118,120,122,-1,-1,-1,-1,-1,-1,-1,-1,-1,-1,-1,-1,-1,-1,-1,-1,-1,-1,-1,-1,-1,-1,-1,-1,-1,-1,-1,-1,-1,-1,-1,-1,-1,-1,-1,-1,-1,-1,-1,-1,-1,-1,-1,-1,-1,-1,-1,-1,-1,-1,-1,-1,-1,-1,-1,-1,-1,-1,-1,-1],"split_conditions":[7E0,6E0,1.9E1,5E0,5E0,2.85608E0,2.1E1,5E0,5E0,5.080555E1,5.44375E0,1.94E1,5.080555E1,1.39E1,2.3E1,4E0,3E0,5.102805E1,5.080555E1,5.075848E1,5.44375E0,5.341758E0,6E0,5.113425E1,5.113425E1,5.075848E1,5.094366E1,5.0887123E1,5.080555E1,5.08058E1,5.0887123E1,1E0,3.80406E0,5.081925E1,5.3819795E0,5.079286E1,5.17691E0,-1.2193438E0,5.3819795E0,4.34013E0,5.0766994E1,5.089132E1,5.09779E1,5.079286E1,5.094366E1,5.088298E1,-1.1688696E0,1.49E1,1.49E1,7E0,5.113438E1,7.1E1,5.0779755E1,4.70796E0,5.0990395E1,5.0887074E1,5.3819795E0,5.075848E1,5.0887123E1,5.079286E1,5.0887123E1,5.0887074E1,1.46E1,-1.1109207E0,-1.1725693E0,-9.9989593E-1,-1.116213E0,-1.1587572E0,-9.577506E-1,-1.104759E0,-1.200205E0,-1.1939646E0,-8.4888923E-1,-5.977516E-1,-1.0178294E0,-1.0696741E0,-1.1782497E0,-1.1007359E0,-1.2439919E0,-4.3968382E-1,-9.1335315E-1,1.3216074E-1,-2.567997E-1,-9.5284176E-1,-7.105888E-1,-1.1799716E0,-1.0016254E0,-4.419924E-1,-1.0653602E0,-1.0938072E0,-1.1449316E0,3.2573223E0,1.0382352E1,5.245245E-1,2.6869304E0,1.6452972E1,2.5573689E1,4.0676227E0,8.15586E0,-8.495142E-1,-1.0371697E0,-3.2392466E-1,-8.0980116E-1,9.108801E-1,3.2255228E0,-3.7981474E-1,6.891185E-1,-3.8235393E-1,8.878527E0,-6.469614E-1,-1.0576391E0,-1.214231E0,-9.9605983E-1,1.0105062E0,-1.1034723E-1,-1.2550695E0,-9.788121E-1,-1.2596294E-1,-7.2134066E-1,-9.149485E-1,3.666858E0,-1.0469617E0,-8.678279E-1],"split_indices":[2,2,2,2,3,1,2,3,3,0,1,5,0,5,2,2,2,0,0,0,1,1,3,0,0,0,0,0,0,0,0,2,1,0,1,0,1,0,1,1,0,0,0,0,0,0,0,5,5,4,0,6,0,1,0,0,1,0,0,0,0,0,5,0,0,0,0,0,0,0,0,0,0,0,0,0,0,0,0,0,0,0,0,0,0,0,0,0,0,0,0,0,0,0,0,0,0,0,0,0,0,0,0,0,0,0,0,0,0,0,0,0,0,0,0,0,0,0,0,0,0,0,0],"split_type":[0,0,0,0,0,0,0,0,0,0,0,0,0,0,0,0,0,0,0,0,0,0,0,0,0,0,0,0,0,0,0,0,0,0,0,0,0,0,0,0,0,0,0,0,0,0,0,0,0,0,0,0,0,0,0,0,0,0,0,0,0,0,0,0,0,0,0,0,0,0,0,0,0,0,0,0,0,0,0,0,0,0,0,0,0,0,0,0,0,0,0,0,0,0,0,0,0,0,0,0,0,0,0,0,0,0,0,0,0,0,0,0,0,0,0,0,0,0,0,0,0,0,0],"sum_hessian":[4.150013E6,1.210091E6,2.939922E6,1.037294E6,1.72797E5,2.074893E6,8.65029E5,8.64259E5,1.73035E5,1.23607E5,4.919E4,5.5886E4,2.019007E6,3.46143E5,5.18886E5,6.17322E5,2.46937E5,1.23663E5,4.9372E4,8.351E3,1.15256E5,4.3361E4,5.829E3,4.4824E4,1.1062E4,1.39502E5,1.879505E6,1.87258E5,1.58885E5,3.45993E5,1.72893E5,4.93767E5,1.23555E5,1.4807E5,9.8867E4,6.4359E4,5.9304E4,3.33E3,4.6042E4,5.859E3,2.492E3,1.01665E5,1.3591E4,4.1975E4,1.386E3,2.929E3,2.9E3,1.1229E4,3.3595E4,2.795E3,8.267E3,9.7694E4,4.1808E4,5.94407E5,1.285098E6,4.6711E4,1.40547E5,1.0831E4,1.48054E5,2.5587E4,3.20406E5,4.2955E4,1.29938E5,1.23477E5,3.7029E5,3.4763E4,8.8792E4,1.9436E4,1.28634E5,8.612E4,1.2747E4,7.537E3,5.6822E4,4.7618E4,1.1686E4,3.9948E4,6.094E3,4.113E3,1.746E3,8.18E2,1.674E3,2.0894E4,8.0771E4,6.264E3,7.327E3,2.967E3,3.9008E4,7.85E2,6.01E2,8.14E2,2.115E3,8.403E3,2.826E3,2.5117E4,8.478E3,8.41E2,1.954E3,2.772E3,5.495E3,3.7186E4,6.0508E4,1.6702E4,2.5106E4,3.97045E5,1.97362E5,2.65397E5,1.019701E6,4.5484E4,1.227E3,1.22905E5,1.7642E4,7.607E3,3.224E3,2.8582E4,1.19472E5,2.0797E4,4.79E3,6.0468E4,2.59938E5,4.1872E4,1.083E3,9.1347E4,3.8591E4],"tree_param":{"num_deleted":"0","num_feature":"10","num_nodes":"123","size_leaf_vector":"1"}},{"base_weights":[-1.456217E-2,-1.3186628E1,5.4061456E0,-1.42619095E1,-6.720604E0,1.0810597E1,-7.5678706E0,-1.4787516E1,-1.1635552E1,-4.0198298E0,-1.3495247E1,5.0503796E1,9.713784E0,-8.925444E0,-7.9261017E-1,-1.5182482E1,-1.3799644E1,-1.0477796E1,-1.4524995E1,-2.5034025E0,-8.589947E0,-1.3241859E1,-1.5202387E1,2.2431166E1,1.2635184E2,1.3608271E1,-4.912664E-2,-4.1272755E0,-9.9762125E0,2.5200918E1,-1.5748068E0,-1.5380213E1,-1.4393553E1,-1.2733509E1,-1.4511706E1,-9.674356E0,-1.2814621E1,-1.4354318E1,-1.566613E1,-4.0686398E0,4.96038E0,-9.240969E0,-2.7529496E-1,-1.3375748E1,9.618094E0,-1.4574743E1,-1.5357508E1,5.6751324E1,1.1021806E1,2.683845E2,7.864415E1,-1.1134835E1,1.5443109E1,8.498506E0,-6.6706567E0,1.7922434E0,-7.356408E0,-1.651031E1,-9.459306E0,6.615515E1,1.1807823E1,4.551649E0,-4.188378E0,-1.0337529E0,-1.0908968E0,-9.410335E-1,-1.0429511E0,-7.9440075E-1,-9.4602185E-1,-1.1136461E0,-1.0011413E0,-7.2705364E-1,1.1788368E0,-7.2209114E-1,-9.536893E-1,-1.0114743E0,-6.436564E-1,-1.07665E0,-1.1075349E0,-9.277378E-1,-2.3307875E-1,5.418654E0,8.7292396E-2,-4.170628E-1,-7.7705425E-1,1.6869575E-1,-4.389709E-1,-9.4321597E-1,-3.7080064E-1,-4.7433102E-1,5.640004E0,-9.304023E-1,-1.0507743E0,-1.0913746E0,-1.0521264E0,2.260254E0,6.985657E0,2.470527E-1,1.6743964E0,1.4668632E1,2.3145664E1,3.2436213E0,6.6322427E0,-8.943041E-1,-5.107539E-1,1.9732231E0,6.6850406E-1,-1.1822386E-1,8.419076E-1,-1.0426139E0,-2.5490934E-1,-7.1597743E-1,6.5727085E-1,-1.9886792E-1,-8.190057E-1,-1.1901143E0,-1.0063084E0,-2.1143821E-1,-7.6737905E-1,6.5295615E0,2.300331E0,1.406156E0,1.2738967E-1,7.9549956E-1,3.966199E-2,-1.0641751E0,-2.3239526E-1],"categories":[],"categories_nodes":[],"categories_segments":[],"categories_sizes":[],"default_left":[0,0,0,0,0,0,0,0,0,0,0,0,0,0,0,0,0,0,0,0,0,0,0,0,0,0,0,0,0,0,0,0,0,0,0,0,0,0,0,0,0,0,0,0,0,0,0,0,0,0,0,0,0,0,0,0,0,0,0,0,0,0,0,0,0,0,0,0,0,0,0,0,0,0,0,0,0,0,0,0,0,0,0,0,0,0,0,0,0,0,0,0,0,0,0,0,0,0,0,0,0,0,0,0,0,0,0,0,0,0,0,0,0,0,0,0,0,0,0,0,0,0,0,0,0,0,0],"id":3,"left_children":[1,3,5,7,9,11,13,15,17,19,21,23,25,27,29,31,33,35,37,39,41,43,45,47,49,51,53,55,57,59,61,63,65,67,69,71,73,75,77,79,81,83,85,87,89,91,93,95,97,99,101,103,105,107,109,111,113,115,117,119,121,123,125,-1,-1,-1,-1,-1,-1,-1,-1,-1,-1,-1,-1,-1,-1,-1,-1,-1,-1,-1,-1,-1,-1,-1,-1,-1,-1,-1,-1,-1,-1,-1,-1,-1,-1,-1,-1,-1,-1,-1,-1,-1,-1,-1,-1,-1,-1,-1,-1,-1,-1,-1,-1,-1,-1,-1,-1,-1,-1,-1,-1,-1,-1,-1,-1],"loss_changes":[2.9638458E8,8.414176E6,2.061967E8,1.432224E6,3.1572205E6,9.037886E7,7.954028E6,3.37152E5,5.78704E5,8.55005E5,2.1074E4,1.1885426E8,7.680912E7,3.63212E6,2.935012E6,9.6112E4,1.87292E5,2.31823E5,9.416E3,1.0822835E6,1.66383E5,1.312325E5,3.94375E2,1.595315E7,1.0215494E8,6.5561296E7,3.2604022E7,2.4739602E6,1.99592E6,2.31226E6,2.2438665E6,6.1472E4,5.9294E4,1.06832E5,4.3162E4,1.73612E6,6.37965E4,2.1046E4,4.2375E1,5.1970538E5,4.3204935E6,1.7398025E5,3.5966203E4,3.39075E4,2.913529E5,5.160625E2,1.53375E2,1.0699874E7,2.9550425E6,1.3818592E7,5.86824E6,6.27835E5,1.0097958E8,9.039598E6,8.086027E6,4.17204E6,1.642468E6,4.519E4,5.300884E6,9.352105E5,2.628718E5,1.1376855E6,9.395456E5,0E0,0E0,0E0,0E0,0E0,0E0,0E0,0E0,0E0,0E0,0E0,0E0,0E0,0E0,0E0,0E0,0E0,0E0,0E0,0E0,0E0,0E0,0E0,0E0,0E0,0E0,0E0,0E0,0E0,0E0,0E0,0E0,0E0,0E0,0E0,0E0,0E0,0E0,0E0,0E0,0E0,0E0,0E0,0E0,0E0,0E0,0E0,0E0,0E0,0E0,0E0,0E0,0E0,0E0,0E0,0E0,0E0,0E0,0E0,0E0,0E0,0E0,0E0,0E0],"parents":[2147483647,0,0,1,1,2,2,3,3,4,4,5,5,6,6,7,7,8,8,9,9,10,10,11,11,12,12,13,13,14,14,15,15,16,16,17,17,18,18,19,19,20,20,21,21,22,22,23,23,24,24,25,25,26,26,27,27,28,28,29,29,30,30,31,31,32,32,33,33,34,34,35,35,36,36,37,37,38,38,39,39,40,40,41,41,42,42,43,43,44,44,45,45,46,46,47,47,48,48,49,49,50,50,51,51,52,52,53,53,54,54,55,55,56,56,57,57,58,58,59,59,60,60,61,61,62,62],"right_children":[2,4,6,8,10,12,14,16,18,20,22,24,26,28,30,32,34,36,38,40,42,44,46,48,50,52,54,56,58,60,62,64,66,68,70,72,74,76,78,80,82,84,86,88,90,92,94,96,98,100,102,104,106,108,110,112,114,116,118,120,122,124,126,-1,-1,-1,-1,-1,-1,-1,-1,-1,-1,-1,-1,-1,-1,-1,-1,-1,-1,-1,-1,-1,-1,-1,-1,-1,-1,-1,-1,-1,-1,-1,-1,-1,-1,-1,-1,-1,-1,-1,-1,-1,-1,-1,-1,-1,-1,-1,-1,-1,-1,-1,-1,-1,-1,-1,-1,-1,-1,-1,-1,-1,-1,-1,-1],"split_conditions":[7E0,6E0,1.9E1,5E0,5E0,2.85608E0,1.9E1,5E0,5E0,5.04474E0,5.3819795E0,1.76E1,5E0,2E1,2.85608E0,4E0,2E0,4.99698E0,5.3819795E0,4.7087917E0,5.123299E1,5.3438616E0,5.47817E0,5.113425E1,5.113425E1,5.080555E1,7.4E1,5.094366E1,5.08058E1,5.113425E1,2E1,1E0,4.1491694E0,5.094374E1,5.081925E1,4.939479E0,5.094366E1,5.341758E0,5.097043E1,5.079286E1,4.71526E0,5.095589E1,5.125484E1,5.341758E0,1.58E1,5.095589E1,1.06E1,1.2E1,1.2E1,2.13E1,5.113438E1,5.075848E1,5.094366E1,1.33E1,9E0,5.083066E1,4.47803E0,5.079286E1,5.0887123E1,2.1E1,2.1E1,5.094366E1,5.080555E1,-1.0337529E0,-1.0908968E0,-9.410335E-1,-1.0429511E0,-7.9440075E-1,-9.4602185E-1,-1.1136461E0,-1.0011413E0,-7.2705364E-1,1.1788368E0,-7.2209114E-1,-9.536893E-1,-1.0114743E0,-6.436564E-1,-1.07665E0,-1.1075349E0,-9.277378E-1,-2.3307875E-1,5.418654E0,8.7292396E-2,-4.170628E-1,-7.7705425E-1,1.6869575E-1,-4.389709E-1,-9.4321597E-1,-3.7080064E-1,-4.7433102E-1,5.640004E0,-9.304023E-1,-1.0507743E0,-1.0913746E0,-1.0521264E0,2.260254E0,6.985657E0,2.470527E-1,1.6743964E0,1.4668632E1,2.3145664E1,3.2436213E0,6.6322427E0,-8.943041E-1,-5.107539E-1,1.9732231E0,6.6850406E-1,-1.1822386E-1,8.419076E-1,-1.0426139E0,-2.5490934E-1,-7.1597743E-1,6.5727085E-1,-1.9886792E-1,-8.190057E-1,-1.1901143E0,-1.0063084E0,-2.1143821E-1,-7.6737905E-1,6.5295615E0,2.300331E0,1.406156E0,1.2738967E-1,7.9549956E-1,3.966199E-2,-1.0641751E0,-2.3239526E-1],"split_indices":[2,2,2,2,3,1,5,3,3,1,1,5,3,2,1,2,2,1,1,1,0,1,1,0,0,0,6,0,0,0,2,2,1,0,0,1,0,1,0,0,1,0,0,1,8,0,5,5,5,5,0,0,0,5,2,0,1,0,0,2,2,0,0,0,0,0,0,0,0,0,0,0,0,0,0,0,0,0,0,0,0,0,0,0,0,0,0,0,0,0,0,0,0,0,0,0,0,0,0,0,0,0,0,0,0,0,0,0,0,0,0,0,0,0,0,0,0,0,0,0,0,0,0,0,0,0,0],"split_type":[0,0,0,0,0,0,0,0,0,0,0,0,0,0,0,0,0,0,0,0,0,0,0,0,0,0,0,0,0,0,0,0,0,0,0,0,0,0,0,0,0,0,0,0,0,0,0,0,0,0,0,0,0,0,0,0,0,0,0,0,0,0,0,0,0,0,0,0,0,0,0,0,0,0,0,0,0,0,0,0,0,0,0,0,0,0,0,0,0,0,0,0,0,0,0,0,0,0,0,0,0,0,0,0,0,0,0,0,0,0,0,0,0,0,0,0,0,0,0,0,0,0,0,0,0,0,0],"sum_hessian":[4.150931E6,1.2102E6,2.940731E6,1.037642E6,1.72558E5,2.075967E6,8.64764E5,8.64606E5,1.73036E5,1.23375E5,4.9183E4,5.582E4,2.020147E6,7.20413E5,1.44351E5,6.17647E5,2.46959E5,1.2354E5,4.9496E4,9.2638E4,3.0737E4,4.2834E4,6.349E3,4.0742E4,1.5078E4,1.44409E6,5.76057E5,1.29424E5,5.90989E5,4.216E3,1.40135E5,4.93853E5,1.23794E5,9.89E4,1.48059E5,9.1936E4,3.1604E4,4.3068E4,6.428E3,7.6579E4,1.6059E4,2.8505E4,2.232E3,4.2585E4,2.49E2,1.277E3,5.072E3,1.0164E4,3.0578E4,3.79E3,1.1288E4,9.9694E4,1.344396E6,2.51456E5,3.24601E5,4.5682E4,8.3742E4,4.3323E4,5.47666E5,1.038E3,3.178E3,4.1905E4,9.823E4,1.23447E5,3.70406E5,4.3011E4,8.0783E4,3.567E4,6.323E4,1.9307E4,1.28752E5,8.9532E4,2.404E3,7.736E3,2.3868E4,4.2285E4,7.83E2,2.305E3,4.123E3,5.701E3,7.0878E4,7.82E2,1.5277E4,1.031E4,1.8195E4,1.542E3,6.9E2,4.207E4,5.15E2,2.03E2,4.6E1,3.32E2,9.45E2,2.932E3,2.14E3,6.482E3,3.682E3,1.9343E4,1.1235E4,1.951E3,1.839E3,3.756E3,7.532E3,6.9836E4,2.9858E4,4.25057E5,9.19339E5,6.4692E4,1.86764E5,8.7376E4,2.37225E5,1.7691E4,2.7991E4,4.106E4,4.2682E4,3.5211E4,8.112E3,1.03662E5,4.44004E5,5.71E2,4.67E2,1.737E3,1.441E3,1.5465E4,2.644E4,7.178E3,9.1052E4],"tree_param":{"num_deleted":"0","num_feature":"10","num_nodes":"127","size_leaf_vector":"1"}},{"base_weights":[-8.456301E-3,-1.2262167E1,5.04106E0,-1.3261928E1,-6.2614036E0,1.0075537E1,-7.024448E0,-1.3746777E1,-1.0842631E1,-3.7448878E0,-1.2562045E1,4.6953705E1,9.05655E0,-2.269887E0,-8.796709E0,-1.4120534E1,-1.28107815E1,-9.780978E0,-1.3499495E1,-2.3410733E0,-7.9813943E0,-1.1940667E1,-1.318799E1,2.394917E1,1.2842865E2,1.2677974E1,-1.800027E-2,1.0844023E0,-6.6693053E0,-8.036889E0,-1.3986172E1,-1.430367E1,-1.3389118E1,-1.2143109E1,-1.3814451E1,-1.513679E1,-9.437201E0,-1.0585917E0,-1.3383096E1,-3.7947633E0,4.615177E0,-1.2560642E1,-6.9235506E0,-1.1653093E1,-1.3857961E1,-8.949181E0,-1.3305804E1,5.9258255E1,1.2200019E1,2.7232404E2,8.116041E1,-1.0326908E1,1.4379366E1,-5.5506926E0,9.086952E0,-1.4708297E1,2.2536013E0,-5.2971E0,-1.0744032E1,-8.535137E0,1.9038906E1,-1.445534E1,-1.1949982E1,-9.6167636E-1,-1.014454E0,-8.638415E-1,-9.658537E-1,-8.7822926E-1,-6.967609E-1,-9.552134E-1,-1.0464876E0,-1.0057741E0,-1.085553E0,-8.8447905E-1,-6.0878E-1,-8.7016237E-1,-9.52954E-1,-6.991152E-1,-1.9950731E-1,3.6151252E0,-4.1909404E-2,-1.1264623E0,-7.738797E-1,1.2350929E0,-6.311743E-1,-8.3170736E-1,1.8270836E0,-9.2507046E-1,-9.900963E-1,-7.739668E-1,-4.1925213E-1,-9.0784585E-1,-9.7047997E-1,2.4282029E0,7.853448E0,2.579611E-1,1.8166237E0,1.282594E1,2.1738764E1,3.3201246E0,6.875857E0,-8.3065367E-1,-4.6840003E-1,2.1055305E0,7.05362E-1,-1.0062255E0,-2.0852257E-1,8.307331E-1,-9.8838255E-2,-1.093105E0,-8.8462037E-1,9.881514E-1,-4.159906E-2,-8.023499E-1,-2.9914147E-1,-9.9152654E-1,-7.142121E-1,-2.861524E-1,-7.023658E-1,9.3679446E-1,2.4128942E0,-1.0371004E0,-9.0228975E-1,-8.698624E-1,-6.34932E-1],"categories":[],"categories_nodes":[],"categories_segments":[],"categories_sizes":[],"default_left":[0,0,0,0,0,0,0,0,0,0,0,0,0,0,0,0,0,0,0,0,0,0,0,0,0,0,0,0,0,0,0,0,0,0,0,0,0,0,0,0,0,0,0,0,0,0,0,0,0,0,0,0,0,0,0,0,0,0,0,0,0,0,0,0,0,0,0,0,0,0,0,0,0,0,0,0,0,0,0,0,0,0,0,0,0,0,0,0,0,0,0,0,0,0,0,0,0,0,0,0,0,0,0,0,0,0,0,0,0,0,0,0,0,0,0,0,0,0,0,0,0,0,0,0,0],"id":4,"left_children":[1,3,5,7,9,11,13,15,17,19,21,23,25,27,29,31,33,35,37,39,41,43,45,47,49,51,53,55,57,59,61,63,65,67,69,71,73,-1,75,77,79,81,83,85,87,89,91,93,95,97,99,101,103,105,107,109,111,113,115,117,119,121,123,-1,-1,-1,-1,-1,-1,-1,-1,-1,-1,-1,-1,-1,-1,-1,-1,-1,-1,-1,-1,-1,-1,-1,-1,-1,-1,-1,-1,-1,-1,-1,-1,-1,-1,-1,-1,-1,-1,-1,-1,-1,-1,-1,-1,-1,-1,-1,-1,-1,-1,-1,-1,-1,-1,-1,-1,-1,-1,-1,-1,-1,-1],"loss_changes":[2.5685646E8,7.267648E6,1.785722E8,1.217904E6,2.7431095E6,7.794701E7,7.293056E6,3.02432E5,4.88884E5,7.352484E5,1.9048E4,1.04531896E8,6.633323E7,3.4681495E6,2.485964E6,8.2616E4,1.6526E5,2.27937E5,9.149E3,9.390597E5,1.4896675E5,1.3507E4,1.21605E4,1.8042838E7,8.350253E7,5.6469136E7,2.9003854E7,2.4622968E6,5.68417E5,7.41954E6,7.6752E4,5.2504E4,5.2896E4,1.30692E5,1.8666E4,1.90775E3,2.75513E5,0E0,9.971E3,4.493075E5,3.9360798E6,3.0511E4,1.2857014E6,1.86283E5,4.069375E2,4.1006797E3,4.3145E3,1.411896E7,3.821391E6,1.0284112E7,5.317144E6,5.56013E5,9.074752E7,8.127295E6,6.353328E6,1.7077E4,4.1945485E6,4.7994775E5,4.725225E4,3.599244E6,8.66925E5,3.6727E4,2.059075E4,0E0,0E0,0E0,0E0,0E0,0E0,0E0,0E0,0E0,0E0,0E0,0E0,0E0,0E0,0E0,0E0,0E0,0E0,0E0,0E0,0E0,0E0,0E0,0E0,0E0,0E0,0E0,0E0,0E0,0E0,0E0,0E0,0E0,0E0,0E0,0E0,0E0,0E0,0E0,0E0,0E0,0E0,0E0,0E0,0E0,0E0,0E0,0E0,0E0,0E0,0E0,0E0,0E0,0E0,0E0,0E0,0E0,0E0,0E0,0E0,0E0,0E0],"parents":[2147483647,0,0,1,1,2,2,3,3,4,4,5,5,6,6,7,7,8,8,9,9,10,10,11,11,12,12,13,13,14,14,15,15,16,16,17,17,18,18,19,19,20,20,21,21,22,22,23,23,24,24,25,25,26,26,27,27,28,28,29,29,30,30,31,31,32,32,33,33,34,34,35,35,36,36,38,38,39,39,40,40,41,41,42,42,43,43,44,44,45,45,46,46,47,47,48,48,49,49,50,50,51,51,52,52,53,53,54,54,55,55,56,56,57,57,58,58,59,59,60,60,61,61,62,62],"right_children":[2,4,6,8,10,12,14,16,18,20,22,24,26,28,30,32,34,36,38,40,42,44,46,48,50,52,54,56,58,60,62,64,66,68,70,72,74,-1,76,78,80,82,84,86,88,90,92,94,96,98,100,102,104,106,108,110,112,114,116,118,120,122,124,-1,-1,-1,-1,-1,-1,-1,-1,-1,-1,-1,-1,-1,-1,-1,-1,-1,-1,-1,-1,-1,-1,-1,-1,-1,-1,-1,-1,-1,-1,-1,-1,-1,-1,-1,-1,-1,-1,-1,-1,-1,-1,-1,-1,-1,-1,-1,-1,-1,-1,-1,-1,-1,-1,-1,-1,-1,-1,-1,-1,-1,-1],"split_conditions":[7E0,6E0,1.9E1,5E0,5E0,2.85608E0,6.9E1,5E0,5E0,5.04474E0,6E0,1.88E1,5E0,2.1E1,5.3819795E0,4E0,3E0,5.079286E1,5.080555E1,4.7087917E0,5.088298E1,5.3819795E0,2.85608E0,5.113425E1,5.113425E1,5.080555E1,1.51E1,5.080555E1,2.3E1,5.341758E0,1.58E1,1E0,3.80406E0,1.65E1,5.3819795E0,4.24951E0,3.26286E0,-1.0585917E0,5.0887123E1,5.083066E1,4.73852E0,5.075509E1,5.094366E1,5.3438616E0,5.095589E1,1.06E1,4.73852E0,1.35E1,1.24E1,7E0,5.113438E1,5.075848E1,5.089132E1,9E0,7.6E1,5.075848E1,5.0887123E1,5.083066E1,5.081925E1,5.0887123E1,1.44E1,5.11347E1,2.08E1,-9.6167636E-1,-1.014454E0,-8.638415E-1,-9.658537E-1,-8.7822926E-1,-6.967609E-1,-9.552134E-1,-1.0464876E0,-1.0057741E0,-1.085553E0,-8.8447905E-1,-6.0878E-1,-8.7016237E-1,-9.52954E-1,-6.991152E-1,-1.9950731E-1,3.6151252E0,-4.1909404E-2,-1.1264623E0,-7.738797E-1,1.2350929E0,-6.311743E-1,-8.3170736E-1,1.8270836E0,-9.2507046E-1,-9.900963E-1,-7.739668E-1,-4.1925213E-1,-9.0784585E-1,-9.7047997E-1,2.4282029E0,7.853448E0,2.579611E-1,1.8166237E0,1.282594E1,2.1738764E1,3.3201246E0,6.875857E0,-8.3065367E-1,-4.6840003E-1,2.1055305E0,7.05362E-1,-1.0062255E0,-2.0852257E-1,8.307331E-1,-9.8838255E-2,-1.093105E0,-8.8462037E-1,9.881514E-1,-4.159906E-2,-8.023499E-1,-2.9914147E-1,-9.9152654E-1,-7.142121E-1,-2.861524E-1,-7.023658E-1,9.3679446E-1,2.4128942E0,-1.0371004E0,-9.0228975E-1,-8.698624E-1,-6.34932E-1],"split_indices":[2,2,2,2,3,1,6,3,3,1,3,5,3,2,1,2,2,0,0,1,0,1,1,0,0,0,5,0,2,1,5,2,1,5,1,1,1,0,0,0,1,0,0,1,0,5,1,5,5,4,0,0,0,2,6,0,0,0,0,0,5,0,5,0,0,0,0,0,0,0,0,0,0,0,0,0,0,0,0,0,0,0,0,0,0,0,0,0,0,0,0,0,0,0,0,0,0,0,0,0,0,0,0,0,0,0,0,0,0,0,0,0,0,0,0,0,0,0,0,0,0,0,0,0,0],"split_type":[0,0,0,0,0,0,0,0,0,0,0,0,0,0,0,0,0,0,0,0,0,0,0,0,0,0,0,0,0,0,0,0,0,0,0,0,0,0,0,0,0,0,0,0,0,0,0,0,0,0,0,0,0,0,0,0,0,0,0,0,0,0,0,0,0,0,0,0,0,0,0,0,0,0,0,0,0,0,0,0,0,0,0,0,0,0,0,0,0,0,0,0,0,0,0,0,0,0,0,0,0,0,0,0,0,0,0,0,0,0,0,0,0,0,0,0,0,0,0,0,0,0,0,0,0],"sum_hessian":[4.151193E6,1.211422E6,2.939771E6,1.038415E6,1.73007E5,2.074261E6,8.6551E5,8.65047E5,1.73368E5,1.2363E5,4.9377E4,5.5772E4,2.018489E6,2.35017E5,6.30493E5,6.18183E5,2.46864E5,1.23874E5,4.9494E4,9.2861E4,3.0769E4,2.4789E4,2.4588E4,4.3493E4,1.2279E4,1.442731E6,5.75758E5,1.33348E5,1.01669E5,5.49971E5,8.0522E4,4.94379E5,1.23804E5,1.48254E5,9.861E4,7.469E3,1.16405E5,3.303E3,4.6191E4,7.681E4,1.6051E4,5.772E3,2.4997E4,2.1562E4,3.227E3,6.67E2,2.3921E4,1.0858E4,3.2635E4,3.035E3,9.244E3,9.9353E4,1.343378E6,3.58135E5,2.17623E5,9.191E3,1.24157E5,7.6058E4,2.5611E4,5.40034E5,9.937E3,6.5438E4,1.5084E4,1.23639E5,3.7074E5,3.4737E4,8.9067E4,1.25202E5,2.3052E4,8.5875E4,1.2735E4,2.445E3,5.024E3,2.1878E4,9.4527E4,9.014E3,3.7177E4,1.0165E4,6.6645E4,1.601E3,1.445E4,1.722E3,4.05E3,1.962E3,2.3035E4,2.1433E4,1.29E2,1.009E3,2.218E3,3.88E2,2.79E2,1.4938E4,8.983E3,7.417E3,3.441E3,2.0156E4,1.2479E4,9.13E2,2.122E3,3.107E3,6.137E3,6.9794E4,2.9559E4,2.88976E5,1.054402E6,8.0823E4,2.77312E5,1.72054E5,4.5569E4,6.386E3,2.805E3,2.4035E4,1.00122E5,1.0829E4,6.5229E4,3.494E3,2.2117E4,1.36116E5,4.03918E5,7.273E3,2.664E3,5.3186E4,1.2252E4,1.2939E4,2.145E3],"tree_param":{"num_deleted":"0","num_feature":"10","num_nodes":"125","size_leaf_vector":"1"}},{"base_weights":[8.2712504E-4,-1.1405708E1,4.6971183E0,-1.2328354E1,-5.859832E0,9.37472E0,-6.5264554E0,-1.2779266E1,-1.0076049E1,-3.5051296E0,-1.1773146E1,1.9130802E1,5.8329687E0,-8.056594E0,-1.58977E0,-1.3127099E1,-1.190992E1,-9.080044E0,-1.2572447E1,-1.2040199E1,-2.886385E0,-9.501047E0,-1.1926959E1,9.604435E1,1.6996754E1,9.277886E0,-2.836653E0,-3.7632542E0,-8.994507E0,2.0242868E1,-2.2347646E0,-1.329475E1,-1.2456658E1,-1.0957627E1,-1.2545809E1,-1.0354375E1,-7.7056537E0,-1.1902688E1,-1.2834499E1,-1.3544474E1,-8.509733E0,-1.9921643E0,-9.547868E0,-1.0377898E1,-5.573867E0,-1.3833452E1,-1.1777513E1,2.0432394E2,6.0235527E1,-8.3217325E0,1.8912214E1,2.4600431E1,4.9136915E0,3.2795258E1,-3.8161163E0,3.2275195E0,-6.0775876E0,-1.3419797E1,-8.290152E0,5.3859158E1,9.1445265E0,1.1746436E0,-5.761777E0,-9.4132763E-1,-8.865002E-1,-8.150475E-1,-9.0232414E-1,-9.537191E-1,-7.390694E-1,-9.0755206E-1,-8.287284E-1,-9.8584086E-1,-6.906641E-1,-8.409832E-1,-4.5792285E-1,-8.776625E-1,-7.652265E-1,-9.853157E-1,-8.8937914E-1,-9.063339E-1,-1.0458769E0,-2.7986035E-1,-7.52288E-1,-2.903612E-1,-3.1411718E-3,-5.7335204E-1,-8.2218623E-1,-5.9316456E-1,-8.7720245E-1,-4.7000653E-1,-3.0223888E-1,-9.8273194E-1,-9.344441E-1,-7.5249094E-1,-8.57312E-1,8.492855E0,1.9729033E1,2.4355829E0,6.2764945E0,-7.057627E-1,-3.0043012E-1,2.1114805E0,9.566284E-1,2.2859275E0,6.2742764E-1,5.7285033E-2,9.135791E-1,1.2813632E0,6.5644794E0,-9.162736E-1,-8.3317E-2,-7.257213E-2,1.13833275E1,-5.3882676E-1,-2.0126416E-1,-1.0854825E0,-8.2811826E-1,4.8772993E0,-6.102625E-1,5.5890055E0,1.9158735E0,2.7157402E-1,1.4294709E0,-9.587898E-1,1.61337E-1,-3.0288807E-1,-6.712639E-1],"categories":[],"categories_nodes":[],"categories_segments":[],"categories_sizes":[],"default_left":[0,0,0,0,0,0,0,0,0,0,0,0,0,0,0,0,0,0,0,0,0,0,0,0,0,0,0,0,0,0,0,0,0,0,0,0,0,0,0,0,0,0,0,0,0,0,0,0,0,0,0,0,0,0,0,0,0,0,0,0,0,0,0,0,0,0,0,0,0,0,0,0,0,0,0,0,0,0,0,0,0,0,0,0,0,0,0,0,0,0,0,0,0,0,0,0,0,0,0,0,0,0,0,0,0,0,0,0,0,0,0,0,0,0,0,0,0,0,0,0,0,0,0,0,0,0,0],"id":5,"left_children":[1,3,5,7,9,11,13,15,17,19,21,23,25,27,29,31,33,35,37,39,41,43,45,47,49,51,53,55,57,59,61,63,65,67,69,71,73,75,77,79,81,83,85,87,89,91,93,95,97,99,101,103,105,107,109,111,113,115,117,119,121,123,125,-1,-1,-1,-1,-1,-1,-1,-1,-1,-1,-1,-1,-1,-1,-1,-1,-1,-1,-1,-1,-1,-1,-1,-1,-1,-1,-1,-1,-1,-1,-1,-1,-1,-1,-1,-1,-1,-1,-1,-1,-1,-1,-1,-1,-1,-1,-1,-1,-1,-1,-1,-1,-1,-1,-1,-1,-1,-1,-1,-1,-1,-1,-1,-1],"loss_changes":[2.2228995E8,6.19248E6,1.543182E8,1.053648E6,2.4035775E6,7.168981E7,6.53164E6,2.61248E5,4.3024E5,6.5197175E5,1.70675E4,9.069861E7,4.546099E7,2.657992E6,2.8811665E6,6.924E4,1.49476E5,2.16614E5,8.51E3,4.420325E4,6.8571994E5,1.06929375E4,1.29555E4,5.7830224E7,2.607536E7,7.284293E7,1.5106482E7,1.9147862E6,1.68848E6,2.1898895E6,2.389704E6,4.7408E4,4.3412E4,1.05257E5,4.3742E4,1.16623E5,2.984315E5,8.434125E3,5.5045E3,4.683E3,2.5151203E4,4.26083E5,4.053725E4,1.03545625E4,7.905E2,1.451875E2,2.0484E4,2.3816304E7,8.391412E6,2.6826675E5,2.9505008E7,3.0418608E7,2.8254508E7,1.0230927E7,1.0258255E7,2.0007442E7,4.6123375E5,2.4659E5,1.5591726E7,1.0006655E6,2.6203738E5,1.698412E6,5.364125E5,0E0,0E0,0E0,0E0,0E0,0E0,0E0,0E0,0E0,0E0,0E0,0E0,0E0,0E0,0E0,0E0,0E0,0E0,0E0,0E0,0E0,0E0,0E0,0E0,0E0,0E0,0E0,0E0,0E0,0E0,0E0,0E0,0E0,0E0,0E0,0E0,0E0,0E0,0E0,0E0,0E0,0E0,0E0,0E0,0E0,0E0,0E0,0E0,0E0,0E0,0E0,0E0,0E0,0E0,0E0,0E0,0E0,0E0,0E0,0E0,0E0,0E0,0E0,0E0],"parents":[2147483647,0,0,1,1,2,2,3,3,4,4,5,5,6,6,7,7,8,8,9,9,10,10,11,11,12,12,13,13,14,14,15,15,16,16,17,17,18,18,19,19,20,20,21,21,22,22,23,23,24,24,25,25,26,26,27,27,28,28,29,29,30,30,31,31,32,32,33,33,34,34,35,35,36,36,37,37,38,38,39,39,40,40,41,41,42,42,43,43,44,44,45,45,46,46,47,47,48,48,49,49,50,50,51,51,52,52,53,53,54,54,55,55,56,56,57,57,58,58,59,59,60,60,61,61,62,62],"right_children":[2,4,6,8,10,12,14,16,18,20,22,24,26,28,30,32,34,36,38,40,42,44,46,48,50,52,54,56,58,60,62,64,66,68,70,72,74,76,78,80,82,84,86,88,90,92,94,96,98,100,102,104,106,108,110,112,114,116,118,120,122,124,126,-1,-1,-1,-1,-1,-1,-1,-1,-1,-1,-1,-1,-1,-1,-1,-1,-1,-1,-1,-1,-1,-1,-1,-1,-1,-1,-1,-1,-1,-1,-1,-1,-1,-1,-1,-1,-1,-1,-1,-1,-1,-1,-1,-1,-1,-1,-1,-1,-1,-1,-1,-1,-1,-1,-1,-1,-1,-1,-1,-1,-1,-1,-1,-1],"split_conditions":[7E0,6E0,1.9E1,5E0,5E0,6.4E1,1.74E1,5E0,5E0,5.080555E1,3.08244E0,2.85608E0,5E0,2E1,2.85608E0,4E0,2E0,5.102805E1,3.80406E0,5.075848E1,5.44375E0,5.121378E1,5.080555E1,5.113425E1,5.080555E1,9E0,2.85608E0,5.0887123E1,5.083066E1,5.113425E1,2.1E1,1.54E1,4.1491694E0,5.081925E1,1.2E1,5.079286E1,3.24471E0,3.25731E0,5.080555E1,4.34013E0,5.0766994E1,4.41497E0,5.63012E0,2.85608E0,9.4E0,5.075848E1,5.094366E1,1.98E1,7E0,5.075848E1,5.094366E1,4.81283E0,1.5E1,1.61E1,9E0,5.0887074E1,1.24E1,5.079286E1,5.083332E1,2.1E1,2.19E1,5.080555E1,2.3E1,-9.4132763E-1,-8.865002E-1,-8.150475E-1,-9.0232414E-1,-9.537191E-1,-7.390694E-1,-9.0755206E-1,-8.287284E-1,-9.8584086E-1,-6.906641E-1,-8.409832E-1,-4.5792285E-1,-8.776625E-1,-7.652265E-1,-9.853157E-1,-8.8937914E-1,-9.063339E-1,-1.0458769E0,-2.7986035E-1,-7.52288E-1,-2.903612E-1,-3.1411718E-3,-5.7335204E-1,-8.2218623E-1,-5.9316456E-1,-8.7720245E-1,-4.7000653E-1,-3.0223888E-1,-9.8273194E-1,-9.344441E-1,-7.5249094E-1,-8.57312E-1,8.492855E0,1.9729033E1,2.4355829E0,6.2764945E0,-7.057627E-1,-3.0043012E-1,2.1114805E0,9.566284E-1,2.2859275E0,6.2742764E-1,5.7285033E-2,9.135791E-1,1.2813632E0,6.5644794E0,-9.162736E-1,-8.3317E-2,-7.257213E-2,1.13833275E1,-5.3882676E-1,-2.0126416E-1,-1.0854825E0,-8.2811826E-1,4.8772993E0,-6.102625E-1,5.5890055E0,1.9158735E0,2.7157402E-1,1.4294709E0,-9.587898E-1,1.61337E-1,-3.0288807E-1,-6.712639E-1],"split_indices":[2,2,2,2,3,6,5,3,3,0,1,1,3,2,1,2,2,0,1,0,1,0,0,0,0,2,1,0,0,0,2,5,1,0,5,0,1,1,0,1,0,1,1,1,5,0,0,5,4,0,0,1,2,5,2,0,5,0,0,2,5,0,2,0,0,0,0,0,0,0,0,0,0,0,0,0,0,0,0,0,0,0,0,0,0,0,0,0,0,0,0,0,0,0,0,0,0,0,0,0,0,0,0,0,0,0,0,0,0,0,0,0,0,0,0,0,0,0,0,0,0,0,0,0,0,0,0],"split_type":[0,0,0,0,0,0,0,0,0,0,0,0,0,0,0,0,0,0,0,0,0,0,0,0,0,0,0,0,0,0,0,0,0,0,0,0,0,0,0,0,0,0,0,0,0,0,0,0,0,0,0,0,0,0,0,0,0,0,0,0,0,0,0,0,0,0,0,0,0,0,0,0,0,0,0,0,0,0,0,0,0,0,0,0,0,0,0,0,0,0,0,0,0,0,0,0,0,0,0,0,0,0,0,0,0,0,0,0,0,0,0,0,0,0,0,0,0,0,0,0,0,0,0,0,0,0,0],"sum_hessian":[4.149644E6,1.210218E6,2.939426E6,1.037596E6,1.72622E5,2.074744E6,8.64682E5,8.64515E5,1.73081E5,1.23461E5,4.9161E4,5.52587E5,1.522157E6,6.60086E5,2.04596E5,6.17453E5,2.47062E5,1.23723E5,4.9358E4,8.344E3,1.15117E5,3.121E3,4.604E4,1.4917E4,5.3767E5,1.089313E6,4.32844E5,1.18348E5,5.41738E5,5.87E3,1.98726E5,4.93923E5,1.2353E5,9.8928E4,1.48134E5,6.4195E4,5.9528E4,1.3894E4,3.5464E4,5.849E3,2.495E3,1.01494E5,1.3623E4,2.55E3,5.71E2,3.34E3,4.27E4,3.706E3,1.1211E4,3.7816E4,4.99854E5,2.4148E5,8.47833E5,1.1579E4,4.21265E5,2.9435E4,8.8913E4,7.4384E4,4.67354E5,1.456E3,4.414E3,1.01048E5,9.7678E4,3.97558E5,9.6365E4,4.2978E4,8.0552E4,1.2884E4,8.6044E4,9.2974E4,5.516E4,7.422E3,5.6773E4,1.2659E4,4.6869E4,8.391E3,5.503E3,3.33E3,3.2134E4,4.105E3,1.744E3,8.28E2,1.667E3,4.8167E4,5.3327E4,8.425E3,5.198E3,1.356E3,1.194E3,2.97E2,2.74E2,2.325E3,1.015E3,1.3404E4,2.9296E4,1.791E3,1.915E3,6.014E3,5.197E3,2.6317E4,1.1499E4,1.58945E5,3.40909E5,1.59375E5,8.2105E4,5.63993E5,2.8384E5,9.357E3,2.222E3,9.2961E4,3.28304E5,2.8669E4,7.66E2,5.9044E4,2.9869E4,3.2155E4,4.2229E4,2.55E3,4.64804E5,7.34E2,7.22E2,3.01E3,1.404E3,7.136E3,9.3912E4,7.1048E4,2.663E4],"tree_param":{"num_deleted":"0","num_feature":"10","num_nodes":"127","size_leaf_vector":"1"}},{"base_weights":[7.5387824E-3,-1.0600546E1,4.375714E0,-1.1468492E1,-5.3902655E0,9.368643E0,-4.7767925E0,-1.1890975E1,-9.356119E0,-3.2297413E0,-1.0828327E1,2.042535E1,6.3432136E0,3.6042577E-1,-7.342043E0,-1.2212721E1,-1.1087007E1,-8.434666E0,-1.1666552E1,-1.9657335E0,-7.030627E0,-1.0621446E1,-1.2393737E1,1.0233271E2,1.8159649E1,-6.5053663E0,8.377763E0,4.4520326E0,-6.749145E0,-9.1887865E0,-5.182729E0,-1.2090696E1,-1.3032854E1,-1.049417E1,-1.1976533E1,-7.6664953E0,-1.0677535E1,-1.1509843E1,-1.2725026E1,-4.493441E0,1.4169014E0,-7.6465135E0,6.021012E-1,-1.0820179E1,-4.5869684E0,-8.827778E-1,-1.20458E1,2.1683429E2,6.485315E1,-7.0784707E0,2.00725E1,-1.1270637E1,-1.9817297E0,2.3890366E2,7.103361E0,8.5156906E-1,1.7422458E2,1.1767426E0,-9.607378E0,-1.3067968E1,-8.573573E0,-2.9303133E0,-7.761081E0,-8.526006E-1,-5.105242E-1,-9.160594E-1,-8.810186E-1,-7.130989E-1,-9.205739E-1,-9.1535306E-1,-8.2669765E-1,-5.8129174E-1,1.158724E0,-5.649808E-1,-8.0693036E-1,-8.124411E-1,-4.4564486E-1,-8.7653327E-1,-9.046367E-1,-2.0839079E-1,-7.5435007E-1,-5.0656664E-1,2.7954856E-1,-7.5730294E-1,-4.0360236E-1,2.116364E-1,-3.454205E-1,-7.412871E-1,-8.7443185E-1,5.983058E-1,-5.3491896E-1,-8.2778305E-1,-8.705719E-1,9.737056E0,2.1697468E1,2.690262E0,6.7414446E0,-6.1931497E-1,-2.1960375E-1,9.061424E-1,1.9330637E0,-8.639844E-1,-6.1006224E-1,4.215568E-1,-4.4524306E-1,1.96346E1,9.459603E0,1.5955594E0,3.1929588E-1,-3.0526698E-1,3.974989E-1,8.278826E0,1.6197641E1,-7.029534E-1,4.0126486E0,-8.142694E-1,-2.1033838E-1,-1.0256851E0,-8.3020055E-1,4.2157216E0,-6.266645E-1,-8.875622E-1,-1.4949103E-1,-4.2730632E-1,-6.6625947E-1],"categories":[],"categories_nodes":[],"categories_segments":[],"categories_sizes":[],"default_left":[0,0,0,0,0,0,0,0,0,0,0,0,0,0,0,0,0,0,0,0,0,0,0,0,0,0,0,0,0,0,0,0,0,0,0,0,0,0,0,0,0,0,0,0,0,0,0,0,0,0,0,0,0,0,0,0,0,0,0,0,0,0,0,0,0,0,0,0,0,0,0,0,0,0,0,0,0,0,0,0,0,0,0,0,0,0,0,0,0,0,0,0,0,0,0,0,0,0,0,0,0,0,0,0,0,0,0,0,0,0,0,0,0,0,0,0,0,0,0,0,0,0,0,0,0],"id":6,"left_children":[1,3,5,7,9,11,13,15,17,19,21,23,25,27,29,31,33,35,37,39,41,43,45,47,49,51,53,55,57,59,61,63,65,67,69,71,73,75,77,79,81,83,85,87,89,-1,91,93,95,97,99,101,103,105,107,109,111,113,115,117,119,121,123,-1,-1,-1,-1,-1,-1,-1,-1,-1,-1,-1,-1,-1,-1,-1,-1,-1,-1,-1,-1,-1,-1,-1,-1,-1,-1,-1,-1,-1,-1,-1,-1,-1,-1,-1,-1,-1,-1,-1,-1,-1,-1,-1,-1,-1,-1,-1,-1,-1,-1,-1,-1,-1,-1,-1,-1,-1,-1,-1,-1,-1,-1],"loss_changes":[1.9230651E8,5.473968E6,1.3433408E8,9.25904E5,2.0308145E6,6.362477E7,1.3673756E7,2.23528E5,3.68091E5,5.943129E5,1.57845E4,7.583107E7,3.9038764E7,1.0052397E7,2.75958E6,6.1648E4,1.30206E5,2.12937E5,8.032E3,7.937746E5,1.4513075E5,5.20185E4,2.815E2,4.71878E7,1.9196616E7,4.400685E6,3.7875408E8,1.3407176E8,2.8596305E6,8.90098E5,1.852705E6,2.3024E5,1.755E3,1.20859E5,1.7954E4,1.422552E6,6.978475E4,2.12385E4,9.4E1,5.061945E5,8.853174E5,1.7036775E5,3.0928762E4,1.60545E4,5.567361E4,0E0,4.46875E1,1.9589832E7,6.883792E6,1.952835E5,1.9870912E7,2.72245E5,3.6706998E6,3.055184E7,5.113813E7,5.4041355E6,1.454408E7,2.1075388E7,1.240394E6,9.7562E4,8.390476E6,1.3192489E6,4.329E5,0E0,0E0,0E0,0E0,0E0,0E0,0E0,0E0,0E0,0E0,0E0,0E0,0E0,0E0,0E0,0E0,0E0,0E0,0E0,0E0,0E0,0E0,0E0,0E0,0E0,0E0,0E0,0E0,0E0,0E0,0E0,0E0,0E0,0E0,0E0,0E0,0E0,0E0,0E0,0E0,0E0,0E0,0E0,0E0,0E0,0E0,0E0,0E0,0E0,0E0,0E0,0E0,0E0,0E0,0E0,0E0,0E0,0E0,0E0,0E0,0E0,0E0],"parents":[2147483647,0,0,1,1,2,2,3,3,4,4,5,5,6,6,7,7,8,8,9,9,10,10,11,11,12,12,13,13,14,14,15,15,16,16,17,17,18,18,19,19,20,20,21,21,22,22,23,23,24,24,25,25,26,26,27,27,28,28,29,29,30,30,31,31,32,32,33,33,34,34,35,35,36,36,37,37,38,38,39,39,40,40,41,41,42,42,43,43,44,44,46,46,47,47,48,48,49,49,50,50,51,51,52,52,53,53,54,54,55,55,56,56,57,57,58,58,59,59,60,60,61,61,62,62],"right_children":[2,4,6,8,10,12,14,16,18,20,22,24,26,28,30,32,34,36,38,40,42,44,46,48,50,52,54,56,58,60,62,64,66,68,70,72,74,76,78,80,82,84,86,88,90,-1,92,94,96,98,100,102,104,106,108,110,112,114,116,118,120,122,124,-1,-1,-1,-1,-1,-1,-1,-1,-1,-1,-1,-1,-1,-1,-1,-1,-1,-1,-1,-1,-1,-1,-1,-1,-1,-1,-1,-1,-1,-1,-1,-1,-1,-1,-1,-1,-1,-1,-1,-1,-1,-1,-1,-1,-1,-1,-1,-1,-1,-1,-1,-1,-1,-1,-1,-1,-1,-1,-1,-1,-1,-1],"split_conditions":[7E0,6E0,1.8E1,5E0,5E0,6.1E1,2E1,5E0,5E0,5.04474E0,5.44375E0,2.85608E0,5.083066E1,4.73852E0,1.24E1,5.3819795E0,3E0,4.99698E0,5.3819795E0,4.41497E0,5.123299E1,5.341758E0,1.11E1,5.113425E1,5.080555E1,5.080555E1,5.083332E1,4.7087917E0,5.094366E1,5.083066E1,2.2E1,5.341758E0,5.11481E1,5.47817E0,5.081925E1,4.939479E0,5.094366E1,5.341758E0,6E0,4.1491694E0,5.087549E1,5.341758E0,5.125484E1,5.04474E0,5.093385E1,-8.827778E-1,1.31E1,7E0,7E0,5.075848E1,1.5E1,5.075848E1,5.081331E1,5E0,5.089132E1,1.32E1,5.088112E1,5.088298E1,1.98E1,5.079286E1,5.083332E1,5.08058E1,2.3E1,-8.526006E-1,-5.105242E-1,-9.160594E-1,-8.810186E-1,-7.130989E-1,-9.205739E-1,-9.1535306E-1,-8.2669765E-1,-5.8129174E-1,1.158724E0,-5.649808E-1,-8.0693036E-1,-8.124411E-1,-4.4564486E-1,-8.7653327E-1,-9.046367E-1,-2.0839079E-1,-7.5435007E-1,-5.0656664E-1,2.7954856E-1,-7.5730294E-1,-4.0360236E-1,2.116364E-1,-3.454205E-1,-7.412871E-1,-8.7443185E-1,5.983058E-1,-5.3491896E-1,-8.2778305E-1,-8.705719E-1,9.737056E0,2.1697468E1,2.690262E0,6.7414446E0,-6.1931497E-1,-2.1960375E-1,9.061424E-1,1.9330637E0,-8.639844E-1,-6.1006224E-1,4.215568E-1,-4.4524306E-1,1.96346E1,9.459603E0,1.5955594E0,3.1929588E-1,-3.0526698E-1,3.974989E-1,8.278826E0,1.6197641E1,-7.029534E-1,4.0126486E0,-8.142694E-1,-2.1033838E-1,-1.0256851E0,-8.3020055E-1,4.2157216E0,-6.266645E-1,-8.875622E-1,-1.4949103E-1,-4.2730632E-1,-6.6625947E-1],"split_indices":[2,2,2,2,3,6,2,3,3,1,1,1,0,1,5,1,2,1,1,1,0,1,5,0,0,0,0,1,0,0,2,1,0,1,0,1,0,1,3,1,0,1,0,1,0,0,8,4,4,0,2,0,0,3,0,5,0,0,5,0,0,0,2,0,0,0,0,0,0,0,0,0,0,0,0,0,0,0,0,0,0,0,0,0,0,0,0,0,0,0,0,0,0,0,0,0,0,0,0,0,0,0,0,0,0,0,0,0,0,0,0,0,0,0,0,0,0,0,0,0,0,0,0,0,0],"split_type":[0,0,0,0,0,0,0,0,0,0,0,0,0,0,0,0,0,0,0,0,0,0,0,0,0,0,0,0,0,0,0,0,0,0,0,0,0,0,0,0,0,0,0,0,0,0,0,0,0,0,0,0,0,0,0,0,0,0,0,0,0,0,0,0,0,0,0,0,0,0,0,0,0,0,0,0,0,0,0,0,0,0,0,0,0,0,0,0,0,0,0,0,0,0,0,0,0,0,0,0,0,0,0,0,0,0,0,0,0,0,0,0,0,0,0,0,0,0,0,0,0,0,0,0,0],"sum_hessian":[4.150083E6,1.210468E6,2.939615E6,1.037617E6,1.72851E5,1.902016E6,1.037599E6,8.64674E5,1.72943E5,1.23705E5,4.9146E4,4.08631E5,1.493385E6,3.45565E5,6.92034E5,6.17527E5,2.47147E5,1.23638E5,4.9305E4,9.2834E4,3.0871E4,4.3416E4,5.73E3,1.0998E4,3.97633E5,2.04148E5,1.289237E6,2.19336E5,1.26229E5,3.73013E5,3.19021E5,5.37561E5,7.9966E4,1.48314E5,9.8833E4,9.2099E4,3.1539E4,4.2957E4,6.348E3,5.3131E4,3.9703E4,2.8566E4,2.305E3,4.2031E4,1.385E3,3.505E3,2.225E3,2.711E3,8.287E3,2.8014E4,3.69619E5,9.9418E4,1.0473E5,7.087E3,1.28215E6,2.14782E5,4.554E3,3.3456E4,9.2773E4,5.1057E4,3.21956E5,1.70274E5,1.48747E5,5.27735E5,9.826E3,7.1361E4,8.605E3,1.32954E5,1.536E4,1.2988E4,8.5845E4,8.9737E4,2.362E3,7.759E3,2.378E4,4.2165E4,7.92E2,3.168E3,3.18E3,4.2802E4,1.0329E4,9.109E3,3.0594E4,1.0631E4,1.7935E4,1.604E3,7.01E2,3.6947E4,5.084E3,2.61E2,1.124E3,1.443E3,7.82E2,1.479E3,1.232E3,4.505E3,3.782E3,1.9335E4,8.679E3,1.9004E5,1.79579E5,7.0035E4,2.9383E4,3.7035E4,6.7695E4,5.058E3,2.029E3,1.78759E5,1.103391E6,1.03267E5,1.11515E5,2.303E3,2.251E3,2.7885E4,5.571E3,7.0997E4,2.1776E4,2.208E4,2.8977E4,1.762E3,3.20194E5,1.2833E4,1.57441E5,7.6559E4,7.2188E4],"tree_param":{"num_deleted":"0","num_feature":"10","num_nodes":"125","size_leaf_vector":"1"}},{"base_weights":[-9.5159386E-4,-9.851272E0,4.056041E0,-1.0657259E1,-5.019394E0,8.7024765E0,-4.4591446E0,-1.1051038E1,-8.692118E0,-2.9862971E0,-1.0099651E1,4.2291363E1,7.775119E0,1.5210545E0,-6.39016E0,-1.1351687E1,-1.0299898E1,-7.833348E0,-1.0854278E1,-1.0541275E1,-2.441261E0,-9.508225E0,-1.0691601E1,2.319896E1,1.2362777E2,1.0998826E1,-3.0786398E-1,5.85782E0,-3.3954253E0,-4.7114124E0,-9.678151E0,-1.1507731E1,-1.0729062E1,-1.0552304E1,-8.27467E0,-7.359315E0,-1.1023278E1,-1.0201072E1,-1.1107099E1,-1.1874098E1,-7.451238E0,-1.6293114E0,-8.439705E0,-9.250994E0,-1.1209113E1,-6.87577E0,-1.0794712E1,5.8717297E1,1.1341211E1,2.5815518E2,7.8138245E1,7.1529617E0,2.1256884E1,-4.8848095E0,8.4307165E0,1.0252134E1,-1.5873828E0,-2.4582593E0,-9.425603E0,-6.7491994E0,2.2609697E1,-5.557766E0,-1.1318641E1,-7.68302E-1,-8.179537E-1,-6.971772E-1,-7.796453E-1,-7.0339054E-1,-8.0005497E-1,-4.6522778E-1,-6.495401E-1,-6.0962707E-1,-2.9011816E-1,-4.244812E-1,-7.919505E-1,-7.539694E-1,-6.537429E-1,-8.6118823E-1,-7.6884604E-1,-7.9242504E-1,-9.217477E-1,-2.1170947E-1,-6.71089E-1,-3.7433013E-1,-4.2975195E-2,-7.1641284E-1,-4.8213714E-1,-6.618079E-1,1.6630831E0,-7.4584323E-1,-8.0144733E-1,-6.411378E-1,-2.9570147E-1,-8.4866947E-1,-7.4711555E-1,2.784392E0,9.140282E0,3.751162E-1,2.1429648E0,2.0490171E1,1.18686495E1,2.9826958E0,6.7063966E0,1.6036552E0,1.3294111E-1,-4.7297537E-1,1.6493844E0,-8.9975256E-1,-1.6653602E-1,-7.322192E-1,6.9296205E-1,4.500566E-1,1.3287581E1,5.764549E-1,-3.573347E-1,-2.3123886E-1,3.005491E0,-7.455109E-1,-4.2344707E-1,-3.4995213E-1,-6.653702E-1,4.3218794E0,-4.8640582E-1,-7.835972E-1,1.6250039E0,-6.835796E-1,-8.6325777E-1],"categories":[],"categories_nodes":[],"categories_segments":[],"categories_sizes":[],"default_left":[0,0,0,0,0,0,0,0,0,0,0,0,0,0,0,0,0,0,0,0,0,0,0,0,0,0,0,0,0,0,0,0,0,0,0,0,0,0,0,0,0,0,0,0,0,0,0,0,0,0,0,0,0,0,0,0,0,0,0,0,0,0,0,0,0,0,0,0,0,0,0,0,0,0,0,0,0,0,0,0,0,0,0,0,0,0,0,0,0,0,0,0,0,0,0,0,0,0,0,0,0,0,0,0,0,0,0,0,0,0,0,0,0,0,0,0,0,0,0,0,0,0,0,0,0,0,0],"id":7,"left_children":[1,3,5,7,9,11,13,15,17,19,21,23,25,27,29,31,33,35,37,39,41,43,45,47,49,51,53,55,57,59,61,63,65,67,69,71,73,75,77,79,81,83,85,87,89,91,93,95,97,99,101,103,105,107,109,111,113,115,117,119,121,123,125,-1,-1,-1,-1,-1,-1,-1,-1,-1,-1,-1,-1,-1,-1,-1,-1,-1,-1,-1,-1,-1,-1,-1,-1,-1,-1,-1,-1,-1,-1,-1,-1,-1,-1,-1,-1,-1,-1,-1,-1,-1,-1,-1,-1,-1,-1,-1,-1,-1,-1,-1,-1,-1,-1,-1,-1,-1,-1,-1,-1,-1,-1,-1,-1],"loss_changes":[1.658449E8,4.714632E6,1.16297096E8,8.02792E5,1.787571E6,5.923523E7,1.1983046E7,1.9508E5,3.21522E5,5.0895525E5,1.7216E4,7.933984E7,4.8221344E7,5.400466E6,4.32962E6,5.9848E4,1.26216E5,1.87379E5,8.018E3,3.4164875E4,5.615035E5,1.072625E4,9.6495E3,1.7427668E7,5.941939E7,5.219224E7,2.1103294E7,4.4029125E6,6.708344E5,2.8910696E7,1.792036E6,4.6432E4,3.8794E4,9.6972E4,4.473775E4,4.68271E5,2.3019625E4,6.654E3,5.1075E3,4.0124375E3,2.36925E4,3.8338228E5,3.8216562E4,1.44628E5,3.10125E2,3.9146973E3,3.76075E3,1.4090816E7,3.5769065E6,7.465136E6,4.552972E6,7.9653416E7,2.3301648E7,6.914173E6,5.032226E6,5.8091984E7,1.7257885E6,3.94185E6,6.5951625E4,2.330516E6,4.168995E7,1.2244352E7,2.9842E5,0E0,0E0,0E0,0E0,0E0,0E0,0E0,0E0,0E0,0E0,0E0,0E0,0E0,0E0,0E0,0E0,0E0,0E0,0E0,0E0,0E0,0E0,0E0,0E0,0E0,0E0,0E0,0E0,0E0,0E0,0E0,0E0,0E0,0E0,0E0,0E0,0E0,0E0,0E0,0E0,0E0,0E0,0E0,0E0,0E0,0E0,0E0,0E0,0E0,0E0,0E0,0E0,0E0,0E0,0E0,0E0,0E0,0E0,0E0,0E0,0E0,0E0,0E0,0E0],"parents":[2147483647,0,0,1,1,2,2,3,3,4,4,5,5,6,6,7,7,8,8,9,9,10,10,11,11,12,12,13,13,14,14,15,15,16,16,17,17,18,18,19,19,20,20,21,21,22,22,23,23,24,24,25,25,26,26,27,27,28,28,29,29,30,30,31,31,32,32,33,33,34,34,35,35,36,36,37,37,38,38,39,39,40,40,41,41,42,42,43,43,44,44,45,45,46,46,47,47,48,48,49,49,50,50,51,51,52,52,53,53,54,54,55,55,56,56,57,57,58,58,59,59,60,60,61,61,62,62],"right_children":[2,4,6,8,10,12,14,16,18,20,22,24,26,28,30,32,34,36,38,40,42,44,46,48,50,52,54,56,58,60,62,64,66,68,70,72,74,76,78,80,82,84,86,88,90,92,94,96,98,100,102,104,106,108,110,112,114,116,118,120,122,124,126,-1,-1,-1,-1,-1,-1,-1,-1,-1,-1,-1,-1,-1,-1,-1,-1,-1,-1,-1,-1,-1,-1,-1,-1,-1,-1,-1,-1,-1,-1,-1,-1,-1,-1,-1,-1,-1,-1,-1,-1,-1,-1,-1,-1,-1,-1,-1,-1,-1,-1,-1,-1,-1,-1,-1,-1,-1,-1,-1,-1,-1,-1,-1,-1],"split_conditions":[7E0,6E0,1.8E1,5E0,5E0,2.85608E0,6.5E1,5E0,5E0,5.080555E1,6E0,1.94E1,5E0,2E1,4.81283E0,4E0,1.7E1,5.3819795E0,3.80406E0,5.075848E1,5.44375E0,5.3819795E0,2.85608E0,5.113425E1,5.113425E1,1.5E1,1.56E1,4.73852E0,5.3819795E0,4.70796E0,5.094366E1,1E0,4.1491694E0,4.73852E0,5.095682E1,4.70796E0,5.080555E1,3.25731E0,5.080555E1,4.34013E0,5.0766994E1,3.26286E0,5.09779E1,5.3438616E0,5.095589E1,1.01E1,5.081324E1,1.55E1,1.51E1,1.6E1,5.113438E1,9E0,5.08058E1,9E0,9E0,4.7087917E0,5.094366E1,5.341758E0,2.16E1,2.2E1,5.0887123E1,5.088298E1,5.19003E0,-7.68302E-1,-8.179537E-1,-6.971772E-1,-7.796453E-1,-7.0339054E-1,-8.0005497E-1,-4.6522778E-1,-6.495401E-1,-6.0962707E-1,-2.9011816E-1,-4.244812E-1,-7.919505E-1,-7.539694E-1,-6.537429E-1,-8.6118823E-1,-7.6884604E-1,-7.9242504E-1,-9.217477E-1,-2.1170947E-1,-6.71089E-1,-3.7433013E-1,-4.2975195E-2,-7.1641284E-1,-4.8213714E-1,-6.618079E-1,1.6630831E0,-7.4584323E-1,-8.0144733E-1,-6.411378E-1,-2.9570147E-1,-8.4866947E-1,-7.4711555E-1,2.784392E0,9.140282E0,3.751162E-1,2.1429648E0,2.0490171E1,1.18686495E1,2.9826958E0,6.7063966E0,1.6036552E0,1.3294111E-1,-4.7297537E-1,1.6493844E0,-8.9975256E-1,-1.6653602E-1,-7.322192E-1,6.9296205E-1,4.500566E-1,1.3287581E1,5.764549E-1,-3.573347E-1,-2.3123886E-1,3.005491E0,-7.455109E-1,-4.2344707E-1,-3.4995213E-1,-6.653702E-1,4.3218794E0,-4.8640582E-1,-7.835972E-1,1.6250039E0,-6.835796E-1,-8.6325777E-1],"split_indices":[2,2,2,2,3,1,6,3,3,0,3,5,3,2,1,2,5,1,1,0,1,1,1,0,0,2,5,1,1,1,0,2,1,1,0,1,0,1,0,1,0,1,0,1,0,5,0,5,5,8,0,2,0,2,2,1,0,1,5,2,0,0,1,0,0,0,0,0,0,0,0,0,0,0,0,0,0,0,0,0,0,0,0,0,0,0,0,0,0,0,0,0,0,0,0,0,0,0,0,0,0,0,0,0,0,0,0,0,0,0,0,0,0,0,0,0,0,0,0,0,0,0,0,0,0,0,0],"split_type":[0,0,0,0,0,0,0,0,0,0,0,0,0,0,0,0,0,0,0,0,0,0,0,0,0,0,0,0,0,0,0,0,0,0,0,0,0,0,0,0,0,0,0,0,0,0,0,0,0,0,0,0,0,0,0,0,0,0,0,0,0,0,0,0,0,0,0,0,0,0,0,0,0,0,0,0,0,0,0,0,0,0,0,0,0,0,0,0,0,0,0,0,0,0,0,0,0,0,0,0,0,0,0,0,0,0,0,0,0,0,0,0,0,0,0,0,0,0,0,0,0,0,0,0,0,0,0],"sum_hessian":[4.149993E6,1.210621E6,2.939372E6,1.03755E6,1.73071E5,1.901688E6,1.037684E6,8.64346E5,1.73204E5,1.23606E5,4.9465E4,5.1092E4,1.850596E6,2.53284E5,7.844E5,6.17266E5,2.4708E5,1.2397E5,4.9234E4,8.316E3,1.1529E5,2.4752E4,2.4713E4,4.138E4,9.712E3,1.322963E6,5.27633E5,1.34576E5,1.18708E5,5.19276E5,2.65124E5,4.93553E5,1.23713E5,2.19695E5,2.7385E4,1.07934E5,1.6036E4,1.375E4,3.5484E4,5.808E3,2.508E3,1.01546E5,1.3744E4,2.1506E4,3.246E3,6.52E2,2.4061E4,1.0356E4,3.1024E4,2.453E3,7.259E3,9.62218E5,3.60745E5,3.4627E5,1.81363E5,8.4627E4,4.9949E4,1.02742E5,1.5966E4,4.83234E5,3.6042E4,7.5499E4,1.89625E5,1.234E5,3.70153E5,4.2929E4,8.0784E4,1.39541E5,8.0154E4,1.045E4,1.6935E4,7.6018E4,3.1916E4,8.88E2,1.5148E4,8.27E3,5.48E3,3.315E3,3.2169E4,4.074E3,1.734E3,8.17E2,1.691E3,2.1781E4,7.9765E4,6.371E3,7.373E3,2.1375E4,1.31E2,9.95E2,2.251E3,3.49E2,3.03E2,2.009E3,2.2052E4,8.197E3,2.159E3,2.3676E4,7.348E3,1.763E3,6.9E2,2.412E3,4.847E3,2.40611E5,7.21607E5,2.7434E4,3.33311E5,8.2834E4,2.63436E5,1.3083E4,1.6828E5,8.2864E4,1.763E3,1.317E4,3.6779E4,1.00865E5,1.877E3,1.1715E4,4.251E3,2.95573E5,1.87661E5,1.5509E4,2.0533E4,6.3132E4,1.2367E4,7.4885E4,1.1474E5],"tree_param":{"num_deleted":"0","num_feature":"10","num_nodes":"127","size_leaf_vector":"1"}},{"base_weights":[9.339003E-3,-9.168097E0,3.788062E0,-9.917384E0,-4.6773167E0,7.573645E0,-5.299678E0,-1.0286054E1,-8.075015E0,-2.8042667E0,-9.380311E0,2.7112703E0,1.3277473E1,-6.215002E0,8.18486E-1,-1.0557998E1,-9.605756E0,-7.26648E0,-1.0099579E1,-1.6932343E0,-6.1519E0,-8.841237E0,-9.921546E0,6.511293E0,-4.76545E0,6.71977E1,1.1743091E1,-1.280073E1,-5.6952333E0,2.7008476E1,2.2937674E-2,-1.1684423E1,-1.0477083E1,-8.243989E0,-9.946333E0,-6.533005E0,-9.41481E0,-9.87701E0,-1.0770832E1,-2.962073E0,4.378229E0,-2.7459447E0,-7.290096E0,-9.252611E0,-7.7692494E0,-6.5508804E0,-1.0016131E1,3.169622E0,5.9879143E1,-1.2841502E1,-2.2171147E0,1.472191E2,4.033171E1,-2.162577E0,1.40502E1,-1.3300167E1,-1.0639149E1,8.384846E-1,-7.2228165E0,6.755548E1,1.3269193E1,-1.1987548E1,9.7218025E-1,-8.037234E-1,-8.2139105E-1,-6.964716E-1,-7.4975294E-1,-4.3843558E-1,-6.225611E-1,-7.997866E-1,-6.806465E-1,-4.995411E-1,1.1535732E0,-4.903297E-1,-7.133771E-1,-7.046568E-1,-6.3128495E-1,-6.832195E-1,-7.779627E-1,-3.4663868E-1,-7.8659095E-2,4.7970467E0,6.862292E-2,-5.752958E-1,1.6305529E0,-5.682354E-1,1.850638E-2,-7.998793E-1,-6.366244E-1,9.866316E-2,-5.877045E-1,-1.7923681E-1,-5.4875684E-1,-6.803338E-1,-7.353001E-1,9.6253806E-1,6.3053076E-3,1.1724195E1,4.1499045E-1,1.1260933E-1,-1.0690457E0,5.3130503E0,-5.0985813E-1,6.7219157E0,1.5749315E1,1.6754267E0,5.038637E0,-5.9251E-1,2.7876458E-1,1.6841568E1,9.0154004E-1,-1.0550212E0,-9.0351146E-1,-7.990223E-1,-6.8593436E-1,-1.9098529E-1,6.640776E0,-4.5063847E-1,-7.0501024E-1,6.342922E0,2.4221117E0,-2.4484579E-2,1.3545997E0,-9.066847E-1,-6.75747E-1,5.709768E-1,-1.618013E-1],"categories":[],"categories_nodes":[],"categories_segments":[],"categories_sizes":[],"default_left":[0,0,0,0,0,0,0,0,0,0,0,0,0,0,0,0,0,0,0,0,0,0,0,0,0,0,0,0,0,0,0,0,0,0,0,0,0,0,0,0,0,0,0,0,0,0,0,0,0,0,0,0,0,0,0,0,0,0,0,0,0,0,0,0,0,0,0,0,0,0,0,0,0,0,0,0,0,0,0,0,0,0,0,0,0,0,0,0,0,0,0,0,0,0,0,0,0,0,0,0,0,0,0,0,0,0,0,0,0,0,0,0,0,0,0,0,0,0,0,0,0,0,0,0,0,0,0],"id":8,"left_children":[1,3,5,7,9,11,13,15,17,19,21,23,25,27,29,31,33,35,37,39,41,43,45,47,49,51,53,55,57,59,61,63,65,67,69,71,73,75,77,79,81,83,85,87,89,91,93,95,97,99,101,103,105,107,109,111,113,115,117,119,121,123,125,-1,-1,-1,-1,-1,-1,-1,-1,-1,-1,-1,-1,-1,-1,-1,-1,-1,-1,-1,-1,-1,-1,-1,-1,-1,-1,-1,-1,-1,-1,-1,-1,-1,-1,-1,-1,-1,-1,-1,-1,-1,-1,-1,-1,-1,-1,-1,-1,-1,-1,-1,-1,-1,-1,-1,-1,-1,-1,-1,-1,-1,-1,-1,-1],"loss_changes":[1.4389658E8,4.072088E6,1.0111555E8,7.04368E5,1.5243522E6,5.754519E7,4.840252E6,1.59784E5,2.83015E5,4.6029744E5,1.4293E4,3.1822936E7,7.899595E7,2.573494E6,2.3435862E6,5.6152E4,1.14386E5,1.946805E5,7.267E3,7.158647E5,1.1953175E5,1.0821875E4,7.77325E3,1.324381E8,7.76783E6,5.6791056E7,2.9785096E7,5.9231E4,6.955018E6,1.8464035E6,1.2445986E6,2.825E2,7.0888E4,6.3496E4,6.4958E4,1.279268E6,5.877525E4,5.94225E3,4.14625E3,2.811665E5,3.5013268E6,1.1011715E6,1.4450462E5,6.026125E3,3.9444656E4,3.4453535E3,3.366E3,2.2772188E7,2.5405208E8,3.179686E6,1.13555784E8,2.6413824E7,1.0263054E7,5.1161105E6,2.1124986E8,3.0895E4,6.61575E3,4.4288124E7,1.263162E6,6.34371E5,2.0526878E5,1.788625E4,2.38681E6,0E0,0E0,0E0,0E0,0E0,0E0,0E0,0E0,0E0,0E0,0E0,0E0,0E0,0E0,0E0,0E0,0E0,0E0,0E0,0E0,0E0,0E0,0E0,0E0,0E0,0E0,0E0,0E0,0E0,0E0,0E0,0E0,0E0,0E0,0E0,0E0,0E0,0E0,0E0,0E0,0E0,0E0,0E0,0E0,0E0,0E0,0E0,0E0,0E0,0E0,0E0,0E0,0E0,0E0,0E0,0E0,0E0,0E0,0E0,0E0,0E0,0E0,0E0,0E0],"parents":[2147483647,0,0,1,1,2,2,3,3,4,4,5,5,6,6,7,7,8,8,9,9,10,10,11,11,12,12,13,13,14,14,15,15,16,16,17,17,18,18,19,19,20,20,21,21,22,22,23,23,24,24,25,25,26,26,27,27,28,28,29,29,30,30,31,31,32,32,33,33,34,34,35,35,36,36,37,37,38,38,39,39,40,40,41,41,42,42,43,43,44,44,45,45,46,46,47,47,48,48,49,49,50,50,51,51,52,52,53,53,54,54,55,55,56,56,57,57,58,58,59,59,60,60,61,61,62,62],"right_children":[2,4,6,8,10,12,14,16,18,20,22,24,26,28,30,32,34,36,38,40,42,44,46,48,50,52,54,56,58,60,62,64,66,68,70,72,74,76,78,80,82,84,86,88,90,92,94,96,98,100,102,104,106,108,110,112,114,116,118,120,122,124,126,-1,-1,-1,-1,-1,-1,-1,-1,-1,-1,-1,-1,-1,-1,-1,-1,-1,-1,-1,-1,-1,-1,-1,-1,-1,-1,-1,-1,-1,-1,-1,-1,-1,-1,-1,-1,-1,-1,-1,-1,-1,-1,-1,-1,-1,-1,-1,-1,-1,-1,-1,-1,-1,-1,-1,-1,-1,-1,-1,-1,-1,-1,-1,-1],"split_conditions":[7E0,6E0,1.9E1,5E0,5E0,1.34E1,2E1,5E0,5E0,5.04474E0,6E0,4.81283E0,2.85608E0,5.08058E1,2.85608E0,5.080555E1,1E0,4.99698E0,5.04474E0,4.7087917E0,5.094366E1,1.29E1,2.85608E0,4.7087917E0,5.088298E1,5.113425E1,5.083066E1,5.079286E1,5.0887123E1,5.113425E1,5.080555E1,5.075486E1,5.094366E1,5.0887123E1,5.081925E1,4.939479E0,5.094366E1,4.70796E0,5.094366E1,5.097025E1,4.71526E0,5.093385E1,5.123299E1,5.080555E1,1.3E1,5.113425E1,4.73852E0,9E0,5.0887123E1,4.9350443E0,5.094366E1,1.96E1,2.04E1,5.080555E1,5.083332E1,2E1,1.14E1,5.0887074E1,2.3E1,2.1E1,7E0,5.075848E1,5.094366E1,-8.037234E-1,-8.2139105E-1,-6.964716E-1,-7.4975294E-1,-4.3843558E-1,-6.225611E-1,-7.997866E-1,-6.806465E-1,-4.995411E-1,1.1535732E0,-4.903297E-1,-7.133771E-1,-7.046568E-1,-6.3128495E-1,-6.832195E-1,-7.779627E-1,-3.4663868E-1,-7.8659095E-2,4.7970467E0,6.862292E-2,-5.752958E-1,1.6305529E0,-5.682354E-1,1.850638E-2,-7.998793E-1,-6.366244E-1,9.866316E-2,-5.877045E-1,-1.7923681E-1,-5.4875684E-1,-6.803338E-1,-7.353001E-1,9.6253806E-1,6.3053076E-3,1.1724195E1,4.1499045E-1,1.1260933E-1,-1.0690457E0,5.3130503E0,-5.0985813E-1,6.7219157E0,1.5749315E1,1.6754267E0,5.038637E0,-5.9251E-1,2.7876458E-1,1.6841568E1,9.0154004E-1,-1.0550212E0,-9.0351146E-1,-7.990223E-1,-6.8593436E-1,-1.9098529E-1,6.640776E0,-4.5063847E-1,-7.0501024E-1,6.342922E0,2.4221117E0,-2.4484579E-2,1.3545997E0,-9.066847E-1,-6.75747E-1,5.709768E-1,-1.618013E-1],"split_indices":[2,2,2,2,3,5,5,3,3,1,3,1,1,0,1,0,2,1,1,1,0,5,1,1,0,0,0,0,0,0,0,0,0,0,0,1,0,1,0,0,1,0,0,0,5,0,1,2,0,1,0,5,5,0,0,2,5,0,2,2,4,0,0,0,0,0,0,0,0,0,0,0,0,0,0,0,0,0,0,0,0,0,0,0,0,0,0,0,0,0,0,0,0,0,0,0,0,0,0,0,0,0,0,0,0,0,0,0,0,0,0,0,0,0,0,0,0,0,0,0,0,0,0,0,0,0,0],"split_type":[0,0,0,0,0,0,0,0,0,0,0,0,0,0,0,0,0,0,0,0,0,0,0,0,0,0,0,0,0,0,0,0,0,0,0,0,0,0,0,0,0,0,0,0,0,0,0,0,0,0,0,0,0,0,0,0,0,0,0,0,0,0,0,0,0,0,0,0,0,0,0,0,0,0,0,0,0,0,0,0,0,0,0,0,0,0,0,0,0,0,0,0,0,0,0,0,0,0,0,0,0,0,0,0,0,0,0,0,0,0,0,0,0,0,0,0,0,0,0,0,0,0,0,0,0,0,0],"sum_hessian":[4.149386E6,1.210187E6,2.939199E6,1.037139E6,1.73048E5,2.074886E6,8.64313E5,8.64202E5,1.72937E5,1.2376E5,4.9288E4,1.120062E6,9.54824E5,7.51833E5,1.1248E5,6.17391E5,2.46811E5,1.23586E5,4.9351E4,9.2922E4,3.0838E4,2.4702E4,2.4586E4,7.42625E5,3.77437E5,2.6418E4,9.28406E5,5.4995E4,6.96838E5,3.315E3,1.09165E5,4.1367E4,5.76024E5,4.9383E4,1.97428E5,9.2134E4,3.1452E4,3.7074E4,1.2277E4,7.686E4,1.6062E4,7.725E3,2.3113E4,1.7846E4,6.856E3,6.73E2,2.3913E4,6.98866E5,4.3759E4,9.053E4,2.86907E5,6.639E3,1.9779E4,1.32114E5,7.96292E5,4.4669E4,1.0326E4,1.32048E5,5.6479E5,8.38E2,2.477E3,7.995E3,1.0117E5,8.197E3,3.317E4,1.7685E5,3.99174E5,1.2201E4,3.7182E4,2.5839E4,1.71589E5,8.9781E4,2.353E3,7.665E3,2.3787E4,3.0362E4,6.712E3,3.118E3,9.159E3,3.6908E4,3.9952E4,8.07E2,1.5255E4,6.384E3,1.341E3,2.0831E4,2.282E3,1.204E3,1.6642E4,4.38E2,6.418E3,1.65E2,5.08E2,1.4879E4,9.034E3,1.57548E5,5.41318E5,1.4612E4,2.9147E4,1.3035E4,7.7495E4,1.7474E4,2.69433E5,4.005E3,2.634E3,1.303E4,6.749E3,6.5224E4,6.689E4,4.094E3,7.92198E5,8.101E3,3.6568E4,5.363E3,4.963E3,1.27223E5,4.825E3,4.42766E5,1.22024E5,4.92E2,3.46E2,7.65E2,1.712E3,5.653E3,2.342E3,3.1734E4,6.9436E4],"tree_param":{"num_deleted":"0","num_feature":"10","num_nodes":"127","size_leaf_vector":"1"}},{"base_weights":[-6.247087E-3,-8.526669E0,3.5012155E0,-9.225241E0,-4.3384943E0,7.554126E0,-3.93738E0,-9.564819E0,-7.532324E0,-2.5918014E0,-8.712214E0,1.5183227E1,4.040075E0,9.486157E-1,-5.793851E0,-9.820048E0,-8.925662E0,-6.7894993E0,-9.388304E0,-9.398011E0,-2.1019366E0,-8.200881E0,-9.2248745E0,7.7969536E1,1.3428158E1,7.1497808E0,-3.846186E0,4.69067E0,-3.0108068E0,-4.315119E0,-8.699346E0,-9.707886E0,-1.05762825E1,-9.176072E0,-7.0355053E0,-1.1477145E1,-6.4897385E0,-8.797239E0,-9.616563E0,-1.0615216E1,-6.533935E0,-1.3726348E0,-7.165863E0,-1.0560821E1,-8.029487E0,-5.9915776E0,-9.313319E0,1.6450298E2,4.8993637E1,-6.1799586E-1,1.5771407E1,2.0010227E1,2.7439134E0,-1.2252043E1,-9.641043E-1,8.670157E0,-2.0514233E0,-1.3554566E0,-6.12675E0,-6.1069164E0,1.9716429E1,-5.0972514E0,-1.0134628E1,-6.858502E-1,-3.420603E-1,-7.1437657E-1,-7.4480295E-1,-6.0998166E-1,-6.9837505E-1,-8.1388474E-1,-4.682518E-1,-7.4890894E-1,-8.295835E-1,-6.522145E-1,-4.0846226E-1,-6.5524656E-1,-5.562597E-1,-7.247317E-1,-6.6080433E-1,-7.1059716E-1,-8.181032E-1,-1.7561528E-1,-5.9687424E-1,-1.20563276E-1,8.103337E-1,-4.1829246E-1,-6.50294E-1,-7.5446695E-1,-7.02023E-1,-4.7081324E-1,-6.031947E-1,-1.3860735E-1,-5.1674765E-1,-6.318258E-1,-6.8511295E-1,7.2155895E0,1.6668102E1,2.109714E0,5.554997E0,-4.7111312E-1,3.6824325E-1,1.774655E1,1.017998E0,1.8851888E0,4.552443E-1,-7.300687E-2,9.328752E-1,-1.090239E0,-6.2522155E-1,2.561007E0,-1.3981828E-1,3.615032E-1,1.2219393E1,4.7994187E-1,-3.6749727E-1,9.6834785E-1,-1.2472141E-1,-7.189213E-1,-3.806671E-1,-7.73786E-1,-3.7451363E-1,3.7755556E0,-4.315736E-1,-7.1068627E-1,1.4304667E0,-9.404089E-1,-6.7690486E-1],"categories":[],"categories_nodes":[],"categories_segments":[],"categories_sizes":[],"default_left":[0,0,0,0,0,0,0,0,0,0,0,0,0,0,0,0,0,0,0,0,0,0,0,0,0,0,0,0,0,0,0,0,0,0,0,0,0,0,0,0,0,0,0,0,0,0,0,0,0,0,0,0,0,0,0,0,0,0,0,0,0,0,0,0,0,0,0,0,0,0,0,0,0,0,0,0,0,0,0,0,0,0,0,0,0,0,0,0,0,0,0,0,0,0,0,0,0,0,0,0,0,0,0,0,0,0,0,0,0,0,0,0,0,0,0,0,0,0,0,0,0,0,0,0,0,0,0],"id":9,"left_children":[1,3,5,7,9,11,13,15,17,19,21,23,25,27,29,31,33,35,37,39,41,43,45,47,49,51,53,55,57,59,61,63,65,67,69,71,73,75,77,79,81,83,85,87,89,91,93,95,97,99,101,103,105,107,109,111,113,115,117,119,121,123,125,-1,-1,-1,-1,-1,-1,-1,-1,-1,-1,-1,-1,-1,-1,-1,-1,-1,-1,-1,-1,-1,-1,-1,-1,-1,-1,-1,-1,-1,-1,-1,-1,-1,-1,-1,-1,-1,-1,-1,-1,-1,-1,-1,-1,-1,-1,-1,-1,-1,-1,-1,-1,-1,-1,-1,-1,-1,-1,-1,-1,-1,-1,-1,-1],"loss_changes":[1.2401803E8,3.540512E6,8.8625896E7,5.96152E5,1.321573E6,5.101497E7,9.404469E6,1.4084E5,2.38838E5,4.12161E5,1.286575E4,6.612547E7,3.1950178E7,4.2296745E6,3.227986E6,5.2264E4,1.1662E5,1.73827E5,6.5975E3,2.8865938E4,4.259042E5,9.916375E3,6.992E3,4.090744E7,1.9214104E7,5.2942852E7,8.926E6,3.9377338E6,7.1544425E5,2.1440216E7,1.310078E6,2.3316E5,1.777E3,8.045E4,4.577025E4,2.0386875E3,2.152405E5,6.544625E3,4.54725E3,2.7765625E3,1.9855812E4,4.5650088E5,3.6648375E4,8.5046875E1,1.7602E4,3.661338E3,3.1775E3,1.8482048E7,6.99698E6,2.999034E6,1.4613437E8,2.228796E7,2.789084E7,1.037729E6,1.0645757E7,5.367467E7,1.5521228E6,5.865447E5,1.37261E5,1.73462E6,3.059956E7,9.320226E6,2.77648E5,0E0,0E0,0E0,0E0,0E0,0E0,0E0,0E0,0E0,0E0,0E0,0E0,0E0,0E0,0E0,0E0,0E0,0E0,0E0,0E0,0E0,0E0,0E0,0E0,0E0,0E0,0E0,0E0,0E0,0E0,0E0,0E0,0E0,0E0,0E0,0E0,0E0,0E0,0E0,0E0,0E0,0E0,0E0,0E0,0E0,0E0,0E0,0E0,0E0,0E0,0E0,0E0,0E0,0E0,0E0,0E0,0E0,0E0,0E0,0E0,0E0,0E0,0E0,0E0],"parents":[2147483647,0,0,1,1,2,2,3,3,4,4,5,5,6,6,7,7,8,8,9,9,10,10,11,11,12,12,13,13,14,14,15,15,16,16,17,17,18,18,19,19,20,20,21,21,22,22,23,23,24,24,25,25,26,26,27,27,28,28,29,29,30,30,31,31,32,32,33,33,34,34,35,35,36,36,37,37,38,38,39,39,40,40,41,41,42,42,43,43,44,44,45,45,46,46,47,47,48,48,49,49,50,50,51,51,52,52,53,53,54,54,55,55,56,56,57,57,58,58,59,59,60,60,61,61,62,62],"right_children":[2,4,6,8,10,12,14,16,18,20,22,24,26,28,30,32,34,36,38,40,42,44,46,48,50,52,54,56,58,60,62,64,66,68,70,72,74,76,78,80,82,84,86,88,90,92,94,96,98,100,102,104,106,108,110,112,114,116,118,120,122,124,126,-1,-1,-1,-1,-1,-1,-1,-1,-1,-1,-1,-1,-1,-1,-1,-1,-1,-1,-1,-1,-1,-1,-1,-1,-1,-1,-1,-1,-1,-1,-1,-1,-1,-1,-1,-1,-1,-1,-1,-1,-1,-1,-1,-1,-1,-1,-1,-1,-1,-1,-1,-1,-1,-1,-1,-1,-1,-1,-1,-1,-1,-1,-1,-1],"split_conditions":[7E0,6E0,1.8E1,5E0,5E0,6.8E1,6.7E1,5E0,5E0,5.080555E1,6E0,2.85608E0,5E0,2E1,4.81283E0,5.3819795E0,1.68E1,5.079286E1,3.80406E0,5.075848E1,5.41001E0,5.080555E1,2.85608E0,5.113425E1,5.083066E1,9E0,9E0,4.73852E0,2.2E1,4.70796E0,5.094366E1,5.341758E0,5.44377E0,4.73852E0,5.080555E1,4.24951E0,3.26286E0,3.25731E0,5.086995E1,4.34013E0,5.0766994E1,5.30314E0,5.63012E0,5.075848E1,5.094366E1,5.113425E1,4.73852E0,1.98E1,2.1E1,5.080555E1,5.083332E1,4.81283E0,1.5E1,8E0,2.85608E0,4.7087917E0,5.094366E1,2.85608E0,5.083066E1,5.083066E1,5.0887123E1,5.088298E1,1.9E1,-6.858502E-1,-3.420603E-1,-7.1437657E-1,-7.4480295E-1,-6.0998166E-1,-6.9837505E-1,-8.1388474E-1,-4.682518E-1,-7.4890894E-1,-8.295835E-1,-6.522145E-1,-4.0846226E-1,-6.5524656E-1,-5.562597E-1,-7.247317E-1,-6.6080433E-1,-7.1059716E-1,-8.181032E-1,-1.7561528E-1,-5.9687424E-1,-1.20563276E-1,8.103337E-1,-4.1829246E-1,-6.50294E-1,-7.5446695E-1,-7.02023E-1,-4.7081324E-1,-6.031947E-1,-1.3860735E-1,-5.1674765E-1,-6.318258E-1,-6.8511295E-1,7.2155895E0,1.6668102E1,2.109714E0,5.554997E0,-4.7111312E-1,3.6824325E-1,1.774655E1,1.017998E0,1.8851888E0,4.552443E-1,-7.300687E-2,9.328752E-1,-1.090239E0,-6.2522155E-1,2.561007E0,-1.3981828E-1,3.615032E-1,1.2219393E1,4.7994187E-1,-3.6749727E-1,9.6834785E-1,-1.2472141E-1,-7.189213E-1,-3.806671E-1,-7.73786E-1,-3.7451363E-1,3.7755556E0,-4.315736E-1,-7.1068627E-1,1.4304667E0,-9.404089E-1,-6.7690486E-1],"split_indices":[2,2,2,2,3,6,6,3,3,0,3,1,3,2,1,1,5,0,1,0,1,0,1,0,0,2,2,1,2,1,0,1,1,1,0,1,1,1,0,1,0,1,1,0,0,0,1,5,5,0,0,1,2,2,1,1,0,1,0,0,0,0,2,0,0,0,0,0,0,0,0,0,0,0,0,0,0,0,0,0,0,0,0,0,0,0,0,0,0,0,0,0,0,0,0,0,0,0,0,0,0,0,0,0,0,0,0,0,0,0,0,0,0,0,0,0,0,0,0,0,0,0,0,0,0,0,0],"split_type":[0,0,0,0,0,0,0,0,0,0,0,0,0,0,0,0,0,0,0,0,0,0,0,0,0,0,0,0,0,0,0,0,0,0,0,0,0,0,0,0,0,0,0,0,0,0,0,0,0,0,0,0,0,0,0,0,0,0,0,0,0,0,0,0,0,0,0,0,0,0,0,0,0,0,0,0,0,0,0,0,0,0,0,0,0,0,0,0,0,0,0,0,0,0,0,0,0,0,0,0,0,0,0,0,0,0,0,0,0,0,0,0,0,0,0,0,0,0,0,0,0,0,0,0,0,0,0],"sum_hessian":[4.149832E6,1.210136E6,2.939696E6,1.037143E6,1.72993E5,1.902902E6,1.036794E6,8.63859E5,1.73284E5,1.23624E5,4.9369E4,6.00089E5,1.302813E6,2.85471E5,7.51323E5,6.17331E5,2.46528E5,1.23757E5,4.9527E4,8.299E3,1.15325E5,2.4725E4,2.4644E4,1.6317E4,5.83772E5,9.34372E5,3.68441E5,1.46764E5,1.38707E5,4.97915E5,2.53408E5,5.37608E5,7.9723E4,2.17685E5,2.8843E4,7.436E3,1.16321E5,1.3809E4,3.5718E4,5.822E3,2.477E3,1.00808E5,1.4517E4,1.67E3,2.3055E4,6.58E2,2.3986E4,4.092E3,1.2225E4,8.3464E4,5.00308E5,2.38424E5,6.95948E5,9.4071E4,2.7437E5,9.229E4,5.4474E4,9.0585E4,4.8122E4,4.63367E5,3.4548E4,7.2204E4,1.81204E5,5.27758E5,9.85E3,1.1718E4,6.8005E4,1.38041E5,7.9644E4,2.02E3,2.6823E4,2.423E3,5.013E3,2.1863E4,9.4458E4,8.301E3,5.508E3,6.892E3,2.8826E4,4.071E3,1.751E3,8.21E2,1.656E3,9.8158E4,2.65E3,9.306E3,5.211E3,1.172E3,4.98E2,7.167E3,1.5888E4,1.7E2,4.88E2,1.4948E4,9.038E3,2.232E3,1.86E3,7.543E3,4.682E3,4.0919E4,4.2545E4,2.571E3,4.97737E5,1.57644E5,8.078E4,5.12545E5,1.83403E5,4.7016E4,4.7055E4,7.347E3,2.67023E5,9.0381E4,1.909E3,1.4392E4,4.0082E4,2.472E3,8.8113E4,6.856E3,4.1266E4,6.1472E4,4.01895E5,1.4877E4,1.9671E4,6.0271E4,1.1933E4,2.2359E4,1.58845E5],"tree_param":{"num_deleted":"0","num_feature":"10","num_nodes":"127","size_leaf_vector":"1"}},{"base_weights":[-5.1249317E-3,-7.933449E0,3.2581673E0,-8.581266E0,-4.04656E0,7.027665E0,-3.6505105E0,-8.898083E0,-6.9966125E0,-2.4228475E0,-8.1052E0,1.415306E1,3.746888E0,3.155577E-1,-5.631488E0,-9.896448E0,-8.7474E0,-6.299279E0,-8.741182E0,-1.4074097E0,-5.470958E0,-8.52282E0,-7.4788356E0,7.273716E1,1.2515872E1,6.6333265E0,-3.5594726E0,3.582228E0,-5.355117E0,-7.3103943E0,-3.8149624E0,-1.0300527E1,-9.471645E0,-1.6932842E0,-8.839692E0,-7.438799E0,-5.066787E0,-8.616079E0,-9.691216E0,-2.5731142E0,4.1269894E0,-2.3711252E0,-6.5044465E0,-8.271359E0,-9.276221E0,-3.3213372E0,-7.603669E0,1.5616655E2,4.4855415E1,7.437335E0,1.8941944E1,1.8521547E1,2.5718544E0,-1.1455516E1,-8.6589414E-1,6.317443E-1,1.4292368E2,1.131959E0,-7.6907754E0,-6.839634E0,-1.0541523E1,-1.9302353E0,-5.9601383E0,-7.120394E-1,-7.434381E-1,-6.2686086E-1,-6.8603724E-1,-6.127705E-1,6.0850984E-1,-5.597881E-1,-6.380377E-1,-5.927412E-1,-4.0938222E-1,-6.1636263E-1,-2.8381747E-1,-6.088311E-1,-4.307804E-1,-6.639367E-1,-6.9243306E-1,-1.1825954E-1,-4.594202E-1,3.1784708E0,-3.918368E-2,-4.9761838E-1,1.4726886E0,-5.1029575E-1,4.2349108E-2,-5.9692115E-1,-4.9853244E-1,-5.7189226E-1,-6.75112E-1,1.9222106E-1,-3.7912148E-1,-5.1570725E-1,-6.377987E-1,7.446717E0,1.6809172E1,2.036949E0,5.344698E0,-2.4504866E-1,6.490231E-1,1.7057685E0,3.981518E-1,1.7468016E0,4.209033E-1,-6.309283E-2,8.5924447E-1,-1.017351E0,-5.8669335E-1,2.389247E0,-1.2795438E-1,-2.595198E-1,2.990642E-1,6.352155E0,1.3728976E1,-6.006796E-1,3.5218174E0,-6.5318793E-1,-1.6135103E-1,-4.9735364E-1,5.580295E-1,-7.524502E-1,-6.1559886E-1,-7.4242663E-1,-9.041384E-2,-3.1615373E-1,-5.240546E-1],"categories":[],"categories_nodes":[],"categories_segments":[],"categories_sizes":[],"default_left":[0,0,0,0,0,0,0,0,0,0,0,0,0,0,0,0,0,0,0,0,0,0,0,0,0,0,0,0,0,0,0,0,0,0,0,0,0,0,0,0,0,0,0,0,0,0,0,0,0,0,0,0,0,0,0,0,0,0,0,0,0,0,0,0,0,0,0,0,0,0,0,0,0,0,0,0,0,0,0,0,0,0,0,0,0,0,0,0,0,0,0,0,0,0,0,0,0,0,0,0,0,0,0,0,0,0,0,0,0,0,0,0,0,0,0,0,0,0,0,0,0,0,0,0,0,0,0],"id":10,"left_children":[1,3,5,7,9,11,13,15,17,19,21,23,25,27,29,31,33,35,37,39,41,43,45,47,49,51,53,55,57,59,61,63,65,67,69,71,73,75,77,79,81,83,85,87,89,91,93,95,97,99,101,103,105,107,109,111,113,115,117,119,121,123,125,-1,-1,-1,-1,-1,-1,-1,-1,-1,-1,-1,-1,-1,-1,-1,-1,-1,-1,-1,-1,-1,-1,-1,-1,-1,-1,-1,-1,-1,-1,-1,-1,-1,-1,-1,-1,-1,-1,-1,-1,-1,-1,-1,-1,-1,-1,-1,-1,-1,-1,-1,-1,-1,-1,-1,-1,-1,-1,-1,-1,-1,-1,-1,-1],"loss_changes":[1.073651E8,3.046768E6,7.655843E7,5.20624E5,1.1391455E6,4.4462864E7,8.153441E6,1.29936E5,2.10178E5,3.8214638E5,1.2857E4,5.751345E7,2.7465942E7,6.403566E6,2.110676E6,1.9358E4,4.8892E5,1.73363E5,5.7815E3,5.975203E5,9.882656E4,5.536E3,1.023375E4,3.791401E7,1.9037472E7,4.5075264E7,7.844025E6,9.017393E7,1.9144278E6,5.47012E5,1.3439905E6,2.281E3,9.3E3,7.114079E5,1.718E5,1.0493175E5,2.244275E5,8.69875E3,1.43625E2,2.697354E5,3.11757E6,8.559122E5,1.2921631E5,6.480875E3,2.938375E3,7.3607812E3,6.7735E3,1.7042056E7,6.062292E6,6.538008E6,1.8519696E7,1.9128192E7,2.3449862E7,8.87559E5,9.258992E6,3.393062E6,1.2608088E7,1.5979071E7,8.20789E5,1.234192E6,1.65085E4,9.803966E5,3.425455E5,0E0,0E0,0E0,0E0,0E0,0E0,0E0,0E0,0E0,0E0,0E0,0E0,0E0,0E0,0E0,0E0,0E0,0E0,0E0,0E0,0E0,0E0,0E0,0E0,0E0,0E0,0E0,0E0,0E0,0E0,0E0,0E0,0E0,0E0,0E0,0E0,0E0,0E0,0E0,0E0,0E0,0E0,0E0,0E0,0E0,0E0,0E0,0E0,0E0,0E0,0E0,0E0,0E0,0E0,0E0,0E0,0E0,0E0,0E0,0E0,0E0,0E0,0E0,0E0],"parents":[2147483647,0,0,1,1,2,2,3,3,4,4,5,5,6,6,7,7,8,8,9,9,10,10,11,11,12,12,13,13,14,14,15,15,16,16,17,17,18,18,19,19,20,20,21,21,22,22,23,23,24,24,25,25,26,26,27,27,28,28,29,29,30,30,31,31,32,32,33,33,34,34,35,35,36,36,37,37,38,38,39,39,40,40,41,41,42,42,43,43,44,44,45,45,46,46,47,47,48,48,49,49,50,50,51,51,52,52,53,53,54,54,55,55,56,56,57,57,58,58,59,59,60,60,61,61,62,62],"right_children":[2,4,6,8,10,12,14,16,18,20,22,24,26,28,30,32,34,36,38,40,42,44,46,48,50,52,54,56,58,60,62,64,66,68,70,72,74,76,78,80,82,84,86,88,90,92,94,96,98,100,102,104,106,108,110,112,114,116,118,120,122,124,126,-1,-1,-1,-1,-1,-1,-1,-1,-1,-1,-1,-1,-1,-1,-1,-1,-1,-1,-1,-1,-1,-1,-1,-1,-1,-1,-1,-1,-1,-1,-1,-1,-1,-1,-1,-1,-1,-1,-1,-1,-1,-1,-1,-1,-1,-1,-1,-1,-1,-1,-1,-1,-1,-1,-1,-1,-1,-1,-1,-1,-1,-1,-1,-1],"split_conditions":[7E0,6E0,1.8E1,5E0,5E0,6.8E1,2E1,5.081925E1,5E0,5.04474E0,1.09E1,2.85608E0,5E0,4.73852E0,1.21E1,5.080555E1,5.083332E1,5.102805E1,5.44375E0,4.7087917E0,5.094366E1,5.04474E0,2.85608E0,5.113425E1,1.5E1,9E0,9E0,4.7087917E0,5.094366E1,5.3819795E0,2.2E1,5E0,5.081331E1,5.083066E1,5.094366E1,4.70796E0,3.24471E0,5.341758E0,6E0,4.47803E0,4.73852E0,5.093385E1,5.123299E1,4.70796E0,5.094366E1,5.113425E1,5.3819795E0,2.11E1,2.16E1,5.083066E1,5E0,4.81283E0,1.5E1,8E0,2.85608E0,1.28E1,5.088112E1,5.088298E1,1.98E1,5.341758E0,5.11481E1,5.080555E1,2.3E1,-7.120394E-1,-7.434381E-1,-6.2686086E-1,-6.8603724E-1,-6.127705E-1,6.0850984E-1,-5.597881E-1,-6.380377E-1,-5.927412E-1,-4.0938222E-1,-6.1636263E-1,-2.8381747E-1,-6.088311E-1,-4.307804E-1,-6.639367E-1,-6.9243306E-1,-1.1825954E-1,-4.594202E-1,3.1784708E0,-3.918368E-2,-4.9761838E-1,1.4726886E0,-5.1029575E-1,4.2349108E-2,-5.9692115E-1,-4.9853244E-1,-5.7189226E-1,-6.75112E-1,1.9222106E-1,-3.7912148E-1,-5.1570725E-1,-6.377987E-1,7.446717E0,1.6809172E1,2.036949E0,5.344698E0,-2.4504866E-1,6.490231E-1,1.7057685E0,3.981518E-1,1.7468016E0,4.209033E-1,-6.309283E-2,8.5924447E-1,-1.017351E0,-5.8669335E-1,2.389247E0,-1.2795438E-1,-2.595198E-1,2.990642E-1,6.352155E0,1.3728976E1,-6.006796E-1,3.5218174E0,-6.5318793E-1,-1.6135103E-1,-4.9735364E-1,5.580295E-1,-7.524502E-1,-6.1559886E-1,-7.4242663E-1,-9.041384E-2,-3.1615373E-1,-5.240546E-1],"split_indices":[2,2,2,2,3,6,2,0,3,1,5,1,3,1,5,0,0,0,1,1,0,1,1,0,2,2,2,1,0,1,2,3,0,0,0,1,1,1,3,1,1,0,0,1,0,0,1,5,5,0,3,1,2,2,1,5,0,0,5,1,0,0,2,0,0,0,0,0,0,0,0,0,0,0,0,0,0,0,0,0,0,0,0,0,0,0,0,0,0,0,0,0,0,0,0,0,0,0,0,0,0,0,0,0,0,0,0,0,0,0,0,0,0,0,0,0,0,0,0,0,0,0,0,0,0,0,0],"split_type":[0,0,0,0,0,0,0,0,0,0,0,0,0,0,0,0,0,0,0,0,0,0,0,0,0,0,0,0,0,0,0,0,0,0,0,0,0,0,0,0,0,0,0,0,0,0,0,0,0,0,0,0,0,0,0,0,0,0,0,0,0,0,0,0,0,0,0,0,0,0,0,0,0,0,0,0,0,0,0,0,0,0,0,0,0,0,0,0,0,0,0,0,0,0,0,0,0,0,0,0,0,0,0,0,0,0,0,0,0,0,0,0,0,0,0,0,0,0,0,0,0,0,0,0,0,0,0],"sum_hessian":[4.149785E6,1.210009E6,2.939776E6,1.037149E6,1.7286E5,1.902007E6,1.037769E6,8.64339E5,1.7281E5,1.23467E5,4.9393E4,5.99649E5,1.302358E6,3.45684E5,6.92085E5,1.13338E5,7.51001E5,1.23464E5,4.9346E4,9.2615E4,3.0852E4,2.9627E4,1.9766E4,1.6301E4,5.83348E5,9.33551E5,3.68807E5,2.19334E5,1.2635E5,3.59665E5,3.3242E5,5.8074E4,5.5264E4,9.699E3,7.41302E5,6.4149E4,5.9315E4,4.3613E4,5.733E3,7.6502E4,1.6113E4,7.715E3,2.3137E4,2.2222E4,7.405E3,5.77E2,1.9189E4,4.082E3,1.2219E4,3.25839E5,2.57509E5,2.37721E5,6.9583E5,9.3809E4,2.74998E5,2.14787E5,4.547E3,3.3449E4,9.2901E4,3.1393E5,4.5735E4,1.76953E5,1.55467E5,4.1456E4,1.6618E4,2.1511E4,3.3753E4,5.774E3,3.925E3,1.82461E5,5.58841E5,3.8948E4,2.5201E4,1.2637E4,4.6678E4,4.2213E4,1.4E3,2.85E3,2.883E3,6.2632E4,1.387E4,1.642E3,1.4471E4,6.417E3,1.298E3,2.0835E4,2.302E3,1.8168E4,4.054E3,1.855E3,5.55E3,1.48E2,4.29E2,1.6593E4,2.596E3,2.564E3,1.518E3,8.146E3,4.073E3,4.6798E4,2.79041E5,1.82708E5,7.4801E4,1.56987E5,8.0734E4,5.12414E5,1.83416E5,4.6873E4,4.6936E4,7.356E3,2.67642E5,9.7992E4,1.16795E5,2.297E3,2.25E3,2.7933E4,5.516E3,7.121E4,2.1691E4,3.08404E5,5.526E3,4.087E4,4.865E3,1.2131E4,1.64822E5,7.99E4,7.5567E4],"tree_param":{"num_deleted":"0","num_feature":"10","num_nodes":"127","size_leaf_vector":"1"}},{"base_weights":[-2.8062207E-4,-7.3762655E0,3.0366874E0,-7.975253E0,-3.7896447E0,6.552586E0,-3.4079776E0,-8.26849E0,-6.5101304E0,-2.292386E0,-7.5468993E0,-5.186627E0,8.427842E0,1.6961762E0,-4.833219E0,-8.506386E0,-7.673429E0,-5.8692446E0,-8.117289E0,-8.439888E0,-1.8527879E0,-7.8505282E0,-6.741806E0,-9.7885275E0,-8.0172706E-1,2.186768E2,7.2971535E0,4.8946853E0,-2.162926E0,-1.5270206E0,-6.0036592E0,-8.654731E0,-7.9143944E0,-6.883038E0,-8.199963E0,-5.158529E0,-7.9411345E0,-7.7604203E0,-8.474233E0,-9.647176E0,-5.6267767E0,-9.1544336E-1,-4.734043E0,-7.612647E0,-8.565424E0,1.9778024E0,-7.0469837E0,-6.7159405E0,-1.1235434E1,6.9687004E0,-5.032568E0,1.9044547E2,3.4615765E2,2.1895317E1,4.93962E0,8.454436E0,-1.1178055E0,-1.2844244E0,-7.8258305E0,-4.024815E0,2.9367714E1,-7.250542E0,-4.239148E0,-6.192348E-1,-5.748584E-1,-4.938686E-1,-5.774486E-1,-3.8859305E-1,-5.345346E-1,-5.627857E-1,-6.645368E-1,-3.9929962E-1,1.0854653E0,-3.9131743E-1,-6.098288E-1,-4.9246892E-1,-5.6287485E-1,-6.4855176E-1,-5.848401E-1,-6.5367275E-1,-7.2471017E-1,-1.5039589E-1,-5.1618546E-1,-2.1104479E-1,1.19291015E-1,7.9185195E-2,-4.2325157E-1,-5.491134E-1,-4.5974156E-1,-5.287203E-1,-6.2365526E-1,-4.863259E-1,4.2125583E0,-3.0135638E-1,-5.066884E-1,-5.7318777E-1,-2.3465058E-1,-8.5659295E-1,-6.1935556E-1,2.9465097E-1,1.3560545E0,-6.230492E-1,-8.37316E-2,1.5422461E1,7.9894047E0,2.9004305E1,1.2595407E1,6.050858E-1,6.2896852E0,1.8434207E0,2.3743142E-1,3.780662E-1,1.0508614E1,4.8620483E-1,-2.8097138E-1,-1.4486498E-1,2.891743E0,-6.2801015E-1,-3.553146E-1,-6.203498E-1,1.5824853E-1,6.7595177E0,-2.582944E-1,-4.7373977E-1,-7.0196646E-1,2.3275523E-1,-3.2598218E-1],"categories":[],"categories_nodes":[],"categories_segments":[],"categories_sizes":[],"default_left":[0,0,0,0,0,0,0,0,0,0,0,0,0,0,0,0,0,0,0,0,0,0,0,0,0,0,0,0,0,0,0,0,0,0,0,0,0,0,0,0,0,0,0,0,0,0,0,0,0,0,0,0,0,0,0,0,0,0,0,0,0,0,0,0,0,0,0,0,0,0,0,0,0,0,0,0,0,0,0,0,0,0,0,0,0,0,0,0,0,0,0,0,0,0,0,0,0,0,0,0,0,0,0,0,0,0,0,0,0,0,0,0,0,0,0,0,0,0,0,0,0,0,0,0,0,0,0],"id":11,"left_children":[1,3,5,7,9,11,13,15,17,19,21,23,25,27,29,31,33,35,37,39,41,43,45,47,49,51,53,55,57,59,61,63,65,67,69,71,73,75,77,79,81,83,85,87,89,91,93,95,97,99,101,103,105,107,109,111,113,115,117,119,121,123,125,-1,-1,-1,-1,-1,-1,-1,-1,-1,-1,-1,-1,-1,-1,-1,-1,-1,-1,-1,-1,-1,-1,-1,-1,-1,-1,-1,-1,-1,-1,-1,-1,-1,-1,-1,-1,-1,-1,-1,-1,-1,-1,-1,-1,-1,-1,-1,-1,-1,-1,-1,-1,-1,-1,-1,-1,-1,-1,-1,-1,-1,-1,-1,-1],"loss_changes":[9.29459E7,2.599764E6,6.6596736E7,4.45456E5,9.7422675E5,4.1863224E7,7.547123E6,1.22248E5,1.78077E5,3.3463994E5,1.201E4,5.285545E6,3.898038E8,2.795254E6,3.138318E6,5.4136E4,1.02644E5,1.82019E5,6.214E3,2.8012188E4,3.121243E5,6.02775E3,3.5993688E4,5.68114E5,4.409651E6,3.1500512E7,5.613029E7,2.650275E6,5.1056584E5,1.6363047E7,1.31776E6,4.174E4,3.5528E4,9.8928E4,3.0606E4,1.0383685E6,5.7163875E4,4.963E3,2.24825E3,1.1641875E3,1.5080859E4,4.7961012E5,2.1838038E5,6.4625E3,3.04425E3,2.3833427E5,6.8255625E3,2.0264575E5,2.07668E5,1.6183408E6,1.28876E6,1.6350864E7,1.7936272E7,2.042089E8,4.6498E7,3.364469E7,1.075421E6,2.9712235E6,4.3380438E4,5.964913E6,3.5233476E7,4.70594E5,7.836785E5,0E0,0E0,0E0,0E0,0E0,0E0,0E0,0E0,0E0,0E0,0E0,0E0,0E0,0E0,0E0,0E0,0E0,0E0,0E0,0E0,0E0,0E0,0E0,0E0,0E0,0E0,0E0,0E0,0E0,0E0,0E0,0E0,0E0,0E0,0E0,0E0,0E0,0E0,0E0,0E0,0E0,0E0,0E0,0E0,0E0,0E0,0E0,0E0,0E0,0E0,0E0,0E0,0E0,0E0,0E0,0E0,0E0,0E0,0E0,0E0,0E0,0E0,0E0,0E0],"parents":[2147483647,0,0,1,1,2,2,3,3,4,4,5,5,6,6,7,7,8,8,9,9,10,10,11,11,12,12,13,13,14,14,15,15,16,16,17,17,18,18,19,19,20,20,21,21,22,22,23,23,24,24,25,25,26,26,27,27,28,28,29,29,30,30,31,31,32,32,33,33,34,34,35,35,36,36,37,37,38,38,39,39,40,40,41,41,42,42,43,43,44,44,45,45,46,46,47,47,48,48,49,49,50,50,51,51,52,52,53,53,54,54,55,55,56,56,57,57,58,58,59,59,60,60,61,61,62,62],"right_children":[2,4,6,8,10,12,14,16,18,20,22,24,26,28,30,32,34,36,38,40,42,44,46,48,50,52,54,56,58,60,62,64,66,68,70,72,74,76,78,80,82,84,86,88,90,92,94,96,98,100,102,104,106,108,110,112,114,116,118,120,122,124,126,-1,-1,-1,-1,-1,-1,-1,-1,-1,-1,-1,-1,-1,-1,-1,-1,-1,-1,-1,-1,-1,-1,-1,-1,-1,-1,-1,-1,-1,-1,-1,-1,-1,-1,-1,-1,-1,-1,-1,-1,-1,-1,-1,-1,-1,-1,-1,-1,-1,-1,-1,-1,-1,-1,-1,-1,-1,-1,-1,-1,-1,-1,-1,-1],"split_conditions":[7E0,6E0,1.8E1,5E0,5E0,5.083066E1,6.3E1,5E0,5E0,5.080555E1,1.29E1,5.080555E1,5.083332E1,2E1,5.089132E1,4E0,2E0,4.99698E0,6E0,5.075848E1,5.04474E0,5.04474E0,1.3E1,6.8E1,5.081331E1,1.6E1,5.089132E1,4.73852E0,5.3819795E0,5.0887074E1,1.21E1,1.34E1,3.80406E0,5.094374E1,5.44377E0,4.939479E0,5.094366E1,3.80406E0,5.081925E1,4.34013E0,5.0766994E1,4.41497E0,5.094366E1,4.70796E0,5.094366E1,5.3438616E0,3.08244E0,5.075848E1,5.075848E1,1.6E1,5.081896E1,5E0,5E0,5.0887074E1,3.08244E0,4.7087917E0,5.094366E1,5.341758E0,2.16E1,5.083066E1,5.0887123E1,6E0,2.92765E0,-6.192348E-1,-5.748584E-1,-4.938686E-1,-5.774486E-1,-3.8859305E-1,-5.345346E-1,-5.627857E-1,-6.645368E-1,-3.9929962E-1,1.0854653E0,-3.9131743E-1,-6.098288E-1,-4.9246892E-1,-5.6287485E-1,-6.4855176E-1,-5.848401E-1,-6.5367275E-1,-7.2471017E-1,-1.5039589E-1,-5.1618546E-1,-2.1104479E-1,1.19291015E-1,7.9185195E-2,-4.2325157E-1,-5.491134E-1,-4.5974156E-1,-5.287203E-1,-6.2365526E-1,-4.863259E-1,4.2125583E0,-3.0135638E-1,-5.066884E-1,-5.7318777E-1,-2.3465058E-1,-8.5659295E-1,-6.1935556E-1,2.9465097E-1,1.3560545E0,-6.230492E-1,-8.37316E-2,1.5422461E1,7.9894047E0,2.9004305E1,1.2595407E1,6.050858E-1,6.2896852E0,1.8434207E0,2.3743142E-1,3.780662E-1,1.0508614E1,4.8620483E-1,-2.8097138E-1,-1.4486498E-1,2.891743E0,-6.2801015E-1,-3.553146E-1,-6.203498E-1,1.5824853E-1,6.7595177E0,-2.582944E-1,-4.7373977E-1,-7.0196646E-1,2.3275523E-1,-3.2598218E-1],"split_indices":[2,2,2,2,3,0,6,3,3,0,5,0,0,2,0,2,2,1,3,0,1,1,5,6,0,2,0,1,1,0,5,5,1,0,1,1,0,1,0,1,0,1,0,1,0,1,1,0,0,2,0,3,3,0,1,1,0,1,5,0,0,3,1,0,0,0,0,0,0,0,0,0,0,0,0,0,0,0,0,0,0,0,0,0,0,0,0,0,0,0,0,0,0,0,0,0,0,0,0,0,0,0,0,0,0,0,0,0,0,0,0,0,0,0,0,0,0,0,0,0,0,0,0,0,0,0,0],"split_type":[0,0,0,0,0,0,0,0,0,0,0,0,0,0,0,0,0,0,0,0,0,0,0,0,0,0,0,0,0,0,0,0,0,0,0,0,0,0,0,0,0,0,0,0,0,0,0,0,0,0,0,0,0,0,0,0,0,0,0,0,0,0,0,0,0,0,0,0,0,0,0,0,0,0,0,0,0,0,0,0,0,0,0,0,0,0,0,0,0,0,0,0,0,0,0,0,0,0,0,0,0,0,0,0,0,0,0,0,0,0,0,0,0,0,0,0,0,0,0,0,0,0,0,0,0,0,0],"sum_hessian":[4.149252E6,1.210141E6,2.939111E6,1.036961E6,1.7318E5,1.901658E6,1.037453E6,8.64026E5,1.72935E5,1.23834E5,4.9346E4,2.61934E5,1.639724E6,2.26456E5,8.10997E5,6.17247E5,2.46779E5,1.23637E5,4.9298E4,8.263E3,1.15571E5,3.5826E4,1.352E4,1.27804E5,1.3413E5,8.77E3,1.630954E6,1.23826E5,1.0263E5,2.1204E5,5.98957E5,4.93555E5,1.23692E5,9.8673E4,1.48106E5,9.2061E4,3.1576E4,2.4663E4,2.4635E4,5.78E3,2.483E3,8.7203E4,2.8368E4,2.689E4,8.936E3,4.57E2,1.3063E4,4.0918E4,8.6886E4,4.7285E4,8.6845E4,7.182E3,1.588E3,2.26768E5,1.404186E6,7.7777E4,4.6049E4,8.8848E4,1.3782E4,1.9618E5,1.586E4,3.50954E5,2.48003E5,3.44466E5,1.49089E5,3.4697E4,8.8995E4,3.5649E4,6.3024E4,1.31793E5,1.6313E4,8.9693E4,2.368E3,7.798E3,2.3778E4,6.889E3,1.7774E4,3.221E3,2.1414E4,4.03E3,1.75E3,8.31E2,1.652E3,4.8407E4,3.8796E4,5.187E3,2.3181E4,2.2002E4,4.888E3,2.272E3,6.664E3,3.97E2,6E1,8.54E2,1.2209E4,2.8459E4,1.2459E4,6.1205E4,2.5681E4,3.8681E4,8.604E3,4.3243E4,4.3602E4,5.16E3,2.022E3,1.125E3,4.63E2,1.89766E5,3.7002E4,9.4727E4,1.309459E6,7.6137E4,1.64E3,1.2168E4,3.3881E4,8.7241E4,1.607E3,9.727E3,4.055E3,1.10861E5,8.5319E4,5.229E3,1.0631E4,2.98984E5,5.197E4,1.2979E4,2.35024E5],"tree_param":{"num_deleted":"0","num_feature":"10","num_nodes":"127","size_leaf_vector":"1"}},{"base_weights":[-2.5855505E-3,-6.8529987E0,2.8195648E0,-7.408856E0,-3.5166667E0,5.6742997E0,-4.0307417E0,-7.6840396E0,-6.0315886E0,-1.5574859E0,-6.129309E0,1.4851687E0,1.0591792E1,-2.4323094E0,-6.4261227E0,-7.54165E0,-8.642332E0,-5.4224663E0,-7.5576363E0,-7.724855E0,-1.1149035E0,-4.340068E0,-7.0284114E0,4.3696785E0,-5.6956887E0,5.5039974E1,9.326492E0,-1.095048E1,-1.8202465E0,-5.195369E0,-7.658476E0,-7.673439E0,-5.171294E-1,-8.740958E0,-7.827056E0,-4.7316256E0,-7.37107E0,-7.4312024E0,-8.411671E0,-8.912263E0,-4.9100423E0,-4.9646986E-1,-5.718771E0,-7.36826E0,-3.883902E0,-8.811269E0,-6.901664E0,1.8180347E1,3.4793082E-1,-1.1669039E1,-3.9211657E0,1.2347939E2,3.2308014E1,-2.1103387E0,1.1220443E1,-1.2836256E1,-1.0012884E1,5.2836776E0,-3.534923E0,-8.96849E0,-4.591769E0,-8.372666E0,-6.6840534E0,-6.022057E-1,-5.2611524E-1,-1.9135071E-1,1.1393511E0,-6.187645E-1,-6.0041976E-1,-5.727175E-1,-4.8626256E-1,-3.682279E-1,1.7776241E0,-5.394314E-1,-2.039299E-1,-5.2612174E-1,-2.0369841E-1,-5.990303E-1,-5.741408E-1,-5.33006E-1,-6.385004E-1,-9.8741196E-2,-4.6213448E-1,-2.7770132E-1,3.1504937E-2,-5.276597E-1,-2.9132733E-1,-8.761585E-2,-5.6668454E-1,1.234545E0,-2.9247877E-1,-6.292184E-1,-5.878078E-1,-4.274781E-1,-5.078233E-1,1.700116E0,4.3489513E-1,1.4830427E-1,-8.3416384E-1,-9.8722035E-1,-6.379714E-1,-8.674855E-2,-5.141116E-1,6.111301E0,1.351974E1,1.2085104E0,3.9375608E0,-5.277555E-1,2.2084968E-1,1.3965292E1,7.1750826E-1,-9.535772E-1,-7.675166E-1,-7.3268825E-1,-6.258622E-1,1.1577241E-1,7.2314796E0,-3.2148615E-1,1.0921643E-1,-7.234127E-1,-5.5381E-1,3.715933E0,-3.4363604E-1,-5.5165213E-1,-6.4597815E-1,-5.51783E-1,-4.0605515E-1],"categories":[],"categories_nodes":[],"categories_segments":[],"categories_sizes":[],"default_left":[0,0,0,0,0,0,0,0,0,0,0,0,0,0,0,0,0,0,0,0,0,0,0,0,0,0,0,0,0,0,0,0,0,0,0,0,0,0,0,0,0,0,0,0,0,0,0,0,0,0,0,0,0,0,0,0,0,0,0,0,0,0,0,0,0,0,0,0,0,0,0,0,0,0,0,0,0,0,0,0,0,0,0,0,0,0,0,0,0,0,0,0,0,0,0,0,0,0,0,0,0,0,0,0,0,0,0,0,0,0,0,0,0,0,0,0,0,0,0,0,0,0,0,0,0,0,0],"id":12,"left_children":[1,3,5,7,9,11,13,15,17,19,21,23,25,27,29,31,33,35,37,39,41,43,45,47,49,51,53,55,57,59,61,63,65,67,69,71,73,75,77,79,81,83,85,87,89,91,93,95,97,99,101,103,105,107,109,111,113,115,117,119,121,123,125,-1,-1,-1,-1,-1,-1,-1,-1,-1,-1,-1,-1,-1,-1,-1,-1,-1,-1,-1,-1,-1,-1,-1,-1,-1,-1,-1,-1,-1,-1,-1,-1,-1,-1,-1,-1,-1,-1,-1,-1,-1,-1,-1,-1,-1,-1,-1,-1,-1,-1,-1,-1,-1,-1,-1,-1,-1,-1,-1,-1,-1,-1,-1,-1],"loss_changes":[8.025931E7,2.24628E6,5.7497584E7,3.93464E5,8.85443E5,4.275174E7,3.31138E6,1.18008E5,1.606865E5,2.6982844E5,1.1922325E5,2.3212498E7,5.369033E7,2.7043925E6,5.24955E5,6.97488E5,8.9325E3,1.6633225E5,5.26375E3,2.2079156E4,2.6261875E5,3.4222125E4,1.108775E4,4.4406812E7,3.404159E6,4.1105464E7,2.0106568E7,6.135325E4,5.89492E6,3.943775E5,1.20306E5,1.08208E5,5.1653912E5,1.533E3,3.718E3,1.4535974E6,4.8293625E4,1.645825E4,1.241875E2,1.1940312E3,1.16306875E4,2.671403E5,3.0907469E4,1.4424266E4,1.3659553E5,1.6498438E2,1.287925E4,1.3178156E7,1.3446937E7,4.5735E5,2.2732022E6,1.6584552E7,7.144044E6,3.769897E6,1.454913E8,1.684E4,1.12145E4,3.3480194E7,2.101027E6,3.4398875E4,2.7327475E6,4.1932E4,7.739975E4,0E0,0E0,0E0,0E0,0E0,0E0,0E0,0E0,0E0,0E0,0E0,0E0,0E0,0E0,0E0,0E0,0E0,0E0,0E0,0E0,0E0,0E0,0E0,0E0,0E0,0E0,0E0,0E0,0E0,0E0,0E0,0E0,0E0,0E0,0E0,0E0,0E0,0E0,0E0,0E0,0E0,0E0,0E0,0E0,0E0,0E0,0E0,0E0,0E0,0E0,0E0,0E0,0E0,0E0,0E0,0E0,0E0,0E0,0E0,0E0,0E0,0E0,0E0,0E0],"parents":[2147483647,0,0,1,1,2,2,3,3,4,4,5,5,6,6,7,7,8,8,9,9,10,10,11,11,12,12,13,13,14,14,15,15,16,16,17,17,18,18,19,19,20,20,21,21,22,22,23,23,24,24,25,25,26,26,27,27,28,28,29,29,30,30,31,31,32,32,33,33,34,34,35,35,36,36,37,37,38,38,39,39,40,40,41,41,42,42,43,43,44,44,45,45,46,46,47,47,48,48,49,49,50,50,51,51,52,52,53,53,54,54,55,55,56,56,57,57,58,58,59,59,60,60,61,61,62,62],"right_children":[2,4,6,8,10,12,14,16,18,20,22,24,26,28,30,32,34,36,38,40,42,44,46,48,50,52,54,56,58,60,62,64,66,68,70,72,74,76,78,80,82,84,86,88,90,92,94,96,98,100,102,104,106,108,110,112,114,116,118,120,122,124,126,-1,-1,-1,-1,-1,-1,-1,-1,-1,-1,-1,-1,-1,-1,-1,-1,-1,-1,-1,-1,-1,-1,-1,-1,-1,-1,-1,-1,-1,-1,-1,-1,-1,-1,-1,-1,-1,-1,-1,-1,-1,-1,-1,-1,-1,-1,-1,-1,-1,-1,-1,-1,-1,-1,-1,-1,-1,-1,-1,-1,-1,-1,-1,-1],"split_conditions":[7E0,6E0,1.9E1,5E0,4E0,1.34E1,2.2E1,5.3819795E0,5E0,5.080555E1,5E0,5E0,2.85608E0,5.080555E1,2.3E1,5.341758E0,5.11481E1,4.99643E0,5.3819795E0,5.075848E1,5.44375E0,5.081925E1,5.080555E1,9E0,9E0,5.113425E1,5.083066E1,2E1,5.0887123E1,5.083066E1,1.23E1,5.081925E1,1.7E1,1.22E1,5E0,4.939479E0,5.123299E1,5.341758E0,1.08E1,5.075175E1,5.0766994E1,3.26286E0,5.09779E1,3.16252E0,5.083332E1,5.075848E1,5.094366E1,4.81283E0,5.3819795E0,8E0,1.54E1,2.04E1,1.98E1,5.080555E1,5.083332E1,5.075848E1,5.075848E1,5.0887074E1,1.99E1,5.079286E1,5.083332E1,4.73852E0,3E0,-6.022057E-1,-5.2611524E-1,-1.9135071E-1,1.1393511E0,-6.187645E-1,-6.0041976E-1,-5.727175E-1,-4.8626256E-1,-3.682279E-1,1.7776241E0,-5.394314E-1,-2.039299E-1,-5.2612174E-1,-2.0369841E-1,-5.990303E-1,-5.741408E-1,-5.33006E-1,-6.385004E-1,-9.8741196E-2,-4.6213448E-1,-2.7770132E-1,3.1504937E-2,-5.276597E-1,-2.9132733E-1,-8.761585E-2,-5.6668454E-1,1.234545E0,-2.9247877E-1,-6.292184E-1,-5.878078E-1,-4.274781E-1,-5.078233E-1,1.700116E0,4.3489513E-1,1.4830427E-1,-8.3416384E-1,-9.8722035E-1,-6.379714E-1,-8.674855E-2,-5.141116E-1,6.111301E0,1.351974E1,1.2085104E0,3.9375608E0,-5.277555E-1,2.2084968E-1,1.3965292E1,7.1750826E-1,-9.535772E-1,-7.675166E-1,-7.3268825E-1,-6.258622E-1,1.1577241E-1,7.2314796E0,-3.2148615E-1,1.0921643E-1,-7.234127E-1,-5.5381E-1,3.715933E0,-3.4363604E-1,-5.5165213E-1,-6.4597815E-1,-5.51783E-1,-4.0605515E-1],"split_indices":[2,2,2,2,3,5,2,1,3,0,3,3,1,0,2,1,0,1,1,0,1,0,0,2,2,0,0,2,0,0,5,0,5,5,3,1,0,1,5,0,0,1,0,1,0,0,0,1,1,2,8,5,5,0,0,0,0,0,5,0,0,1,3,0,0,0,0,0,0,0,0,0,0,0,0,0,0,0,0,0,0,0,0,0,0,0,0,0,0,0,0,0,0,0,0,0,0,0,0,0,0,0,0,0,0,0,0,0,0,0,0,0,0,0,0,0,0,0,0,0,0,0,0,0,0,0,0],"split_type":[0,0,0,0,0,0,0,0,0,0,0,0,0,0,0,0,0,0,0,0,0,0,0,0,0,0,0,0,0,0,0,0,0,0,0,0,0,0,0,0,0,0,0,0,0,0,0,0,0,0,0,0,0,0,0,0,0,0,0,0,0,0,0,0,0,0,0,0,0,0,0,0,0,0,0,0,0,0,0,0,0,0,0,0,0,0,0,0,0,0,0,0,0,0,0,0,0,0,0,0,0,0,0,0,0,0,0,0,0,0,0,0,0,0,0,0,0,0,0,0,0,0,0,0,0,0,0],"sum_hessian":[4.151435E6,1.211258E6,2.940177E6,1.038273E6,1.72985E5,2.075325E6,8.64852E5,8.65365E5,1.72908E5,9.8856E4,7.4129E4,1.120657E6,9.54668E5,5.18716E5,3.46136E5,7.53425E5,1.1194E5,1.23584E5,4.9324E4,6.618E3,9.2238E4,2.4794E4,4.9335E4,7.99502E5,3.21155E5,2.6423E4,9.28245E5,3.4772E4,4.83944E5,1.73183E5,1.72953E5,7.3955E5,1.3875E4,9.9851E4,1.2089E4,9.124E4,3.2344E4,4.2972E4,6.352E3,4.653E3,1.965E3,8.1316E4,1.0922E4,3.244E3,2.155E4,3.27E3,4.6065E4,1.80311E5,6.19191E5,7.3554E4,2.47601E5,6.587E3,1.9836E4,1.31879E5,7.96366E5,1.1543E4,2.3229E4,9.4097E4,3.89847E5,2.3882E4,1.49301E5,9.9799E4,7.3154E4,1.07153E5,6.32397E5,1.2258E4,1.617E3,6.2275E4,3.7576E4,8.612E3,3.477E3,8.9667E4,1.573E3,3.0082E4,2.262E3,4.218E4,7.92E2,3.722E3,2.63E3,6.51E2,4.002E3,6.41E2,1.324E3,1.7424E4,6.3892E4,5.035E3,5.887E3,3.45E2,2.899E3,2.9E2,2.126E4,2.274E3,9.96E2,1.4171E4,3.1894E4,1.19387E5,6.0924E4,5.41074E5,7.8117E4,3.7667E4,3.5887E4,1.38835E5,1.08766E5,4.337E3,2.25E3,1.2183E4,7.653E3,6.493E4,6.6949E4,4.082E3,7.92284E5,8.124E3,3.419E3,1.6311E4,6.918E3,9.0738E4,3.359E3,3.22829E5,6.7018E4,1.0414E4,1.3468E4,8.16E2,1.48485E5,6.3373E4,3.6426E4,3.1034E4,4.212E4],"tree_param":{"num_deleted":"0","num_feature":"10","num_nodes":"127","size_leaf_vector":"1"}},{"base_weights":[-6.5783085E-3,-6.376284E0,2.6158352E0,-6.9003415E0,-3.22877E0,5.671965E0,-2.9894998E0,-7.152323E0,-5.63888E0,-1.3953087E0,-5.672326E0,1.4058195E1,3.372622E0,2.6668137E-1,-4.8140903E0,-7.376038E0,-6.593331E0,-5.0854397E0,-7.0212283E0,-6.6680753E-1,-4.9305067E0,-3.957183E0,-6.527943E0,6.823605E1,1.2558244E1,4.8550997E0,-7.218771E0,1.4314927E0,-7.302346E0,-4.1457553E0,-9.400124E0,-7.509656E0,-6.842288E0,-7.0122375E0,-5.6524844E0,-9.299743E0,-4.816658E0,-8.377549E0,-6.9340415E0,-7.028238E0,-2.0352915E-1,-5.6714826E0,-2.470268E0,-6.89656E0,-3.4894218E0,-7.011751E0,-6.0641065E0,1.4369382E2,4.319974E1,7.3891616E0,1.8034128E1,3.376359E0,6.452642E1,-1.3021588E1,-8.4031373E-1,5.187557E-1,4.8883995E1,-8.583714E0,-2.9352038E0,-4.5226526E0,1.632167E1,-1.419641E1,-8.76045E0,-4.9101034E-1,-5.3723145E-1,-5.935439E-1,-4.6841034E-1,-4.1989046E-1,-5.143282E-1,-3.4711874E-1,-4.839318E-1,-6.0096514E-1,-6.7528063E-1,-5.086912E-1,-2.9734874E-1,-5.787289E-1,-6.020593E-1,-4.304667E-1,-4.9914366E-1,-5.767532E-1,-2.957576E-1,2.9711036E-2,-3.4096193E-1,-3.454503E-1,-5.675847E-1,-1.3023081E-1,-4.8462692E-1,-6.6646054E-2,-5.287748E-1,3.3919604E0,-2.645352E-1,-5.572865E-1,-4.80842E-1,-1.7436446E-1,-4.3159702E-1,5.7935185E0,1.5176768E1,1.5800632E0,4.7077E0,1.338295E-1,8.319879E-1,1.6069312E0,3.909235E-1,4.2730618E-1,-4.1474012E-1,6.0082746E0,1.912347E-2,-1.0235262E-1,-1.0072368E0,-8.2168335E-1,6.229838E-1,4.6045607E-1,-1.2004073E-1,2.598001E0,5.1483164E0,-7.9254216E-1,-5.439795E-1,-4.4938242E-1,2.906737E-2,-4.3115646E-2,-4.0897378E-1,7.276911E-1,1.986722E0,-1.3764315E0,-8.618653E-1,-6.414562E-1,-4.9035537E-1],"categories":[],"categories_nodes":[],"categories_segments":[],"categories_sizes":[],"default_left":[0,0,0,0,0,0,0,0,0,0,0,0,0,0,0,0,0,0,0,0,0,0,0,0,0,0,0,0,0,0,0,0,0,0,0,0,0,0,0,0,0,0,0,0,0,0,0,0,0,0,0,0,0,0,0,0,0,0,0,0,0,0,0,0,0,0,0,0,0,0,0,0,0,0,0,0,0,0,0,0,0,0,0,0,0,0,0,0,0,0,0,0,0,0,0,0,0,0,0,0,0,0,0,0,0,0,0,0,0,0,0,0,0,0,0,0,0,0,0,0,0,0,0,0,0,0,0],"id":13,"left_children":[1,3,5,7,9,11,13,15,17,19,21,23,25,27,29,31,33,35,37,39,41,43,45,47,49,51,53,55,57,59,61,63,65,67,69,71,73,75,77,79,81,83,85,87,89,91,93,95,97,99,101,103,105,107,109,111,113,115,117,119,121,123,125,-1,-1,-1,-1,-1,-1,-1,-1,-1,-1,-1,-1,-1,-1,-1,-1,-1,-1,-1,-1,-1,-1,-1,-1,-1,-1,-1,-1,-1,-1,-1,-1,-1,-1,-1,-1,-1,-1,-1,-1,-1,-1,-1,-1,-1,-1,-1,-1,-1,-1,-1,-1,-1,-1,-1,-1,-1,-1,-1,-1,-1,-1,-1,-1],"loss_changes":[6.931991E7,1.996268E6,5.0357976E7,3.29748E5,7.7392275E5,3.668386E7,6.162394E6,1.08092E5,1.321225E5,2.5417544E5,1.08646E5,3.3265832E7,2.3443164E7,3.2840468E6,2.037404E6,4.3992E4,9.738E4,1.396895E5,5.78175E3,2.4116966E5,3.0726844E4,3.38665E4,1.1044E4,2.082772E7,1.1274936E7,1.1556811E8,6.785327E6,1.3981454E7,2.7796875E5,4.475753E6,2.592855E5,4.0326E4,3.04505E4,5.8093E4,6.65685E4,1.7513125E3,1.616055E5,2.046875E0,7.11325E3,1.8823594E4,2.235736E5,2.3217531E4,1.0591328E4,1.3212531E4,3.2017188E5,3.218125E3,9.140875E3,1.2219876E7,4.107624E6,5.046541E6,1.1852536E7,3.2429278E7,4.3358456E7,1.517399E6,9.270082E6,4.2864825E6,1.765657E6,8.53735E4,1.3158934E5,2.937498E6,7.4948625E5,1.02221375E5,5.27405E4,0E0,0E0,0E0,0E0,0E0,0E0,0E0,0E0,0E0,0E0,0E0,0E0,0E0,0E0,0E0,0E0,0E0,0E0,0E0,0E0,0E0,0E0,0E0,0E0,0E0,0E0,0E0,0E0,0E0,0E0,0E0,0E0,0E0,0E0,0E0,0E0,0E0,0E0,0E0,0E0,0E0,0E0,0E0,0E0,0E0,0E0,0E0,0E0,0E0,0E0,0E0,0E0,0E0,0E0,0E0,0E0,0E0,0E0,0E0,0E0,0E0,0E0,0E0,0E0],"parents":[2147483647,0,0,1,1,2,2,3,3,4,4,5,5,6,6,7,7,8,8,9,9,10,10,11,11,12,12,13,13,14,14,15,15,16,16,17,17,18,18,19,19,20,20,21,21,22,22,23,23,24,24,25,25,26,26,27,27,28,28,29,29,30,30,31,31,32,32,33,33,34,34,35,35,36,36,37,37,38,38,39,39,40,40,41,41,42,42,43,43,44,44,45,45,46,46,47,47,48,48,49,49,50,50,51,51,52,52,53,53,54,54,55,55,56,56,57,57,58,58,59,59,60,60,61,61,62,62],"right_children":[2,4,6,8,10,12,14,16,18,20,22,24,26,28,30,32,34,36,38,40,42,44,46,48,50,52,54,56,58,60,62,64,66,68,70,72,74,76,78,80,82,84,86,88,90,92,94,96,98,100,102,104,106,108,110,112,114,116,118,120,122,124,126,-1,-1,-1,-1,-1,-1,-1,-1,-1,-1,-1,-1,-1,-1,-1,-1,-1,-1,-1,-1,-1,-1,-1,-1,-1,-1,-1,-1,-1,-1,-1,-1,-1,-1,-1,-1,-1,-1,-1,-1,-1,-1,-1,-1,-1,-1,-1,-1,-1,-1,-1,-1,-1,-1,-1,-1,-1,-1,-1,-1,-1,-1,-1,-1],"split_conditions":[7E0,6E0,1.8E1,5E0,4E0,6.1E1,7.2E1,5E0,5E0,1.82E1,5E0,2.85608E0,5.41001E0,5.3819795E0,5.3819795E0,4E0,1.33E1,5.079286E1,5.079286E1,5.080555E1,1.23E1,5.083066E1,9.1E0,5.113425E1,1.5E1,5.341758E0,5.09779E1,5.341758E0,2.19E1,5.341758E0,1.9E1,1E0,3.0921E0,5.0887123E1,3E0,4.24951E0,3.26286E0,4.45444E0,5.0887123E1,5.075848E1,5.44375E0,2E-1,1.1E1,